,fc2.weight_0,fc2.weight_1,fc2.weight_2,fc2.weight_3,fc2.weight_4,fc2.weight_5,fc2.weight_6,fc2.weight_7,fc2.weight_8,fc2.weight_9,fc2.weight_10,fc2.weight_11,fc2.weight_12,fc2.weight_13,fc2.weight_14,fc2.weight_15,fc2.weight_16,fc2.weight_17,fc2.weight_18,fc2.weight_19,fc2.weight_20,fc2.weight_21,fc2.weight_22,fc2.weight_23,fc2.weight_24,fc2.weight_25,fc2.weight_26,fc2.weight_27,fc2.weight_28,fc2.weight_29,fc2.weight_30,fc2.weight_31,fc2.weight_32,fc2.weight_33,fc2.weight_34,fc2.weight_35,fc2.weight_36,fc2.weight_37,fc2.weight_38,fc2.weight_39,fc2.weight_40,fc2.weight_41,fc2.weight_42,fc2.weight_43,fc2.weight_44,fc2.weight_45,fc2.weight_46,fc2.weight_47,fc2.weight_48,fc2.weight_49,fc2.weight_50,fc2.weight_51,fc2.weight_52,fc2.weight_53,fc2.weight_54,fc2.weight_55,fc2.weight_56,fc2.weight_57,fc2.weight_58,fc2.weight_59,fc2.weight_60,fc2.weight_61,fc2.weight_62,fc2.weight_63
0,1.1998072862625122,0.22867096960544586,0.48693639039993286,-1.9636682271957397,-0.4016784429550171,-0.5534929633140564,-0.1805710345506668,-0.6485846638679504,0.15810814499855042,-0.5849348902702332,-0.336206316947937,0.6628799438476562,-0.8717620372772217,1.1545472145080566,-1.3577455282211304,0.03563254326581955,0.31241804361343384,-1.2745262384414673,0.4346538186073303,-0.0624622143805027,0.43610265851020813,-0.42490118741989136,0.4121452867984772,-0.3200163245201111,-0.16859808564186096,-0.3829275965690613,-0.43209391832351685,-0.27234116196632385,-2.280958414077759,-2.1843502521514893,-0.5119615197181702,0.693177342414856,0.31225818395614624,0.7134694457054138,-1.1883925199508667,-0.05642718821763992,-0.19089478254318237,-0.3697652518749237,0.37253445386886597,-1.654161810874939,0.4027737081050873,0.7522525191307068,-0.48651477694511414,-0.15812994539737701,-1.0817925930023193,-1.0885083675384521,-1.291689157485962,0.05743499472737312,-0.20346133410930634,-1.6026091575622559,-0.605485200881958,0.23648002743721008,0.8437449932098389,-0.5090469121932983,0.08103867620229721,-1.8367242813110352,0.019866017624735832,-0.4696694016456604,0.10032263398170471,-0.2151692509651184,-0.6979305744171143,-0.21286074817180634,-0.10313502699136734,0.5186766386032104
1,-0.15928994119167328,-0.511583149433136,-0.25430652499198914,0.7133673429489136,0.10641632229089737,-0.5756577253341675,-0.44705674052238464,-1.1595875024795532,0.36231616139411926,-0.5236063003540039,-1.280347466468811,-0.11203540116548538,-0.5071181058883667,0.5388152599334717,0.2537109851837158,0.5493261218070984,0.5398430228233337,-0.5470276474952698,0.4804375469684601,-0.0759691372513771,-0.5230044722557068,0.20592981576919556,-0.6515506505966187,1.035582184791565,-0.7838861346244812,-0.014811959117650986,0.39692026376724243,-1.274405598640442,-0.41483232378959656,-0.21614478528499603,-1.3073599338531494,-0.031093275174498558,0.8901057839393616,-0.8574274182319641,0.6839505434036255,-0.10332079976797104,-0.6106109619140625,0.9315971732139587,1.4136210680007935,0.6157683730125427,-0.16937832534313202,-0.15228421986103058,-0.892279863357544,-0.7337393760681152,0.4985485076904297,0.6745334267616272,1.3609659671783447,-1.106784701347351,-0.1747502088546753,-0.2652547359466553,-0.47922056913375854,-0.09767729043960571,-0.21367593109607697,0.24968701601028442,0.5511280298233032,0.26134049892425537,0.2563227713108063,-1.0351877212524414,-0.32002267241477966,0.032659031450748444,0.6772953271865845,-0.31364214420318604,1.1362464427947998,0.21617509424686432
2,0.8890606164932251,0.2807011604309082,-0.284198522567749,-2.036548137664795,-0.17137184739112854,-0.4063539206981659,0.15196605026721954,0.7969217896461487,0.1383039951324463,0.46772339940071106,0.04021891579031944,0.19451847672462463,-0.6810435652732849,-0.37143856287002563,-0.14133396744728088,-0.32554373145103455,-0.7200864553451538,-0.9382532238960266,-1.5244451761245728,-0.027285577729344368,0.5099871754646301,1.3202308416366577,-1.2414016723632812,-0.9020915031433105,-0.8290191888809204,0.9573383927345276,0.24467167258262634,-1.1822834014892578,-0.25973987579345703,-0.7042139768600464,0.5222597718238831,0.7261148691177368,0.36832675337791443,-1.8197193145751953,0.034115228801965714,0.02605622261762619,-0.18720094859600067,0.5482419729232788,-0.11219683289527893,-0.5817151069641113,-0.8639856576919556,0.6885964870452881,0.9735339879989624,-0.5963197350502014,-1.7773196697235107,-0.435761034488678,-0.41697847843170166,0.1801464557647705,-1.0321269035339355,-1.1004999876022339,-1.6854265928268433,0.9680973887443542,-1.6648627519607544,-1.1933269500732422,1.35977041721344,-2.0612359046936035,-0.21383947134017944,0.5751299262046814,-0.5461151599884033,0.6311870813369751,-0.20213976502418518,0.18818232417106628,0.09220069646835327,0.1667255163192749
3,1.032785177230835,0.6603488326072693,-1.838901162147522,0.048046234995126724,-0.11795473843812943,-0.2568528354167938,-0.1403564214706421,-0.6196694374084473,0.9256981015205383,0.31083422899246216,0.5765617489814758,-0.3905008137226105,0.3789694309234619,0.45014670491218567,0.009254184551537037,0.07046541571617126,-1.5223766565322876,-1.2572559118270874,-0.3859376311302185,-0.014050396159291267,0.08741506934165955,0.26724714040756226,-0.5687897801399231,-0.1253076195716858,-0.8405008912086487,0.5126956105232239,0.9774652719497681,-0.03355495259165764,-1.3126678466796875,-0.29593685269355774,0.1407519429922104,-0.13287314772605896,0.7147745490074158,-0.22343672811985016,0.38334372639656067,0.06089504435658455,-0.6147128939628601,-1.0897886753082275,-0.06470806896686554,-0.22140224277973175,-0.28072458505630493,-0.4668385684490204,-0.04737962409853935,0.8007633686065674,0.41974157094955444,-0.4412975013256073,-0.47729799151420593,-0.19890941679477692,-0.10355178266763687,-0.577519953250885,0.7228667736053467,-0.8678889870643616,-1.069629192352295,-1.20683753490448,0.7972222566604614,-0.43566301465034485,-0.09670162945985794,0.330676406621933,0.9833848476409912,0.4955808222293854,-0.08774958550930023,-0.12472382932901382,0.05141546204686165,-0.3663560152053833
4,-0.7828004956245422,-1.7336301803588867,1.1720904111862183,1.473393440246582,-0.059507496654987335,-0.8456417918205261,-0.09343665838241577,-1.4791922569274902,-1.2385609149932861,0.30849722027778625,-0.9283043742179871,0.020340366289019585,0.3638674020767212,0.27102425694465637,1.3037654161453247,0.998817503452301,0.8717102408409119,0.03506403788924217,-0.5017276406288147,-0.03342188894748688,0.3973526656627655,-0.9694083333015442,0.8056622743606567,-0.019063446670770645,-1.017065405845642,1.2435595989227295,-1.4231836795806885,-0.3047492802143097,-0.25692686438560486,-0.6278703808784485,-0.07817939668893814,0.6572083234786987,0.2224792242050171,-0.23226308822631836,1.020328164100647,0.05357382819056511,0.5908293724060059,-0.5065705180168152,0.18274880945682526,0.4896143674850464,-0.979392409324646,1.1289373636245728,0.05177951231598854,-0.885928750038147,1.0338367223739624,0.508699893951416,-0.7598578333854675,-0.5263230800628662,-0.47474905848503113,0.19710037112236023,-1.5591977834701538,-0.12139084935188293,-0.2538856267929077,-0.03926974534988403,0.3289932310581207,0.23371551930904388,0.9291148781776428,0.5185278058052063,-0.1947173923254013,-1.0102590322494507,0.14121010899543762,0.04733709990978241,0.39230209589004517,0.4208102226257324
5,-1.0124047994613647,-1.5099878311157227,-1.1632699966430664,0.1655474603176117,-0.1700723022222519,-0.46230030059814453,0.06854468584060669,1.1314228773117065,0.6212693452835083,-0.24784409999847412,-1.4020308256149292,0.19553446769714355,0.20305845141410828,-0.41867268085479736,0.5905382633209229,-0.4481889009475708,-1.0244269371032715,0.18787649273872375,-0.8225888013839722,-0.08727491647005081,-0.3240499198436737,-1.6561468839645386,0.08430024981498718,-1.1628077030181885,-0.8497623205184937,0.5646759867668152,-0.97679203748703,-1.0867993831634521,-1.4400031566619873,-0.8935784697532654,-0.06521983444690704,-0.024723336100578308,-1.2143207788467407,-1.0452451705932617,-0.1757013350725174,0.01292643416672945,0.27231961488723755,-1.4253559112548828,-0.9824728965759277,-0.6030697822570801,0.007201658561825752,-0.7389585971832275,-0.5010866522789001,0.14352750778198242,-0.3246138095855713,-0.03197503834962845,0.03780021890997887,0.005496934987604618,-0.717232346534729,-1.2919139862060547,-0.09570349752902985,0.7170313596725464,-2.044952630996704,-0.8784732222557068,-0.14153528213500977,0.44954171776771545,0.38376277685165405,-0.6499426364898682,-0.1349160522222519,0.4519312083721161,-0.22612302005290985,0.028395099565386772,-0.16483955085277557,0.23433440923690796
6,0.66551274061203,1.0462158918380737,0.5915830731391907,-1.8651443719863892,-0.09437467902898788,0.27153968811035156,-0.18907660245895386,-0.8221825361251831,0.49757421016693115,0.8211179971694946,0.0036555819679051638,-0.09325062483549118,-0.2831719219684601,0.27607229351997375,0.8453338146209717,0.6760711073875427,-0.6426650285720825,-0.8084501624107361,0.9944300055503845,-0.08583373576402664,1.6810333728790283,-1.0563651323318481,-0.39483141899108887,0.029117759317159653,-0.9694777131080627,0.1508040577173233,-0.4913170337677002,-0.1932089924812317,1.6957498788833618,-0.9213469624519348,-0.21883642673492432,-0.6815251708030701,-0.6144295334815979,-0.2654496133327484,0.28656116127967834,-0.09872792661190033,0.4775763750076294,0.985180139541626,-0.022185781970620155,-0.3527478873729706,0.23114463686943054,-1.5567983388900757,0.200130894780159,-0.14055730402469635,-0.8828840851783752,1.9048768281936646,-0.5512979626655579,0.31141090393066406,-0.54926997423172,-0.5926220417022705,-0.9860770106315613,0.6142491698265076,0.3117358684539795,-0.6798760294914246,-0.16440705955028534,-0.2890414297580719,0.2491338700056076,1.2994649410247803,-0.6281509399414062,-0.24511803686618805,0.009081840515136719,0.09803812950849533,0.45395660400390625,-0.09947776794433594
7,0.013035143725574017,-0.0629783496260643,-0.08031951636075974,0.05545855313539505,-0.05240192264318466,-0.06604151427745819,-0.002603336237370968,0.039307594299316406,0.023386141285300255,-0.07303477823734283,-0.06137470528483391,-0.08429209142923355,-0.037251491099596024,0.05816742032766342,-0.056009020656347275,-0.033252157270908356,0.0859048068523407,0.028399961069226265,0.06429779529571533,0.08574002981185913,-0.04477958008646965,0.03639896586537361,-0.004423611797392368,-0.06773344427347183,-0.0006141647463664412,0.017448289319872856,-0.04404114931821823,-0.05680370703339577,0.01337018609046936,-0.010346669703722,0.09793698787689209,-0.10056834667921066,0.03898977115750313,-0.09172403812408447,-0.03721988573670387,0.021188780665397644,0.06000710651278496,-0.0073692817240953445,0.049487631767988205,-0.014000856317579746,0.0021319910883903503,-0.029854875057935715,0.003263662336394191,-0.05801616609096527,0.014892793260514736,0.0358210913836956,-0.008836898021399975,-0.08333460986614227,0.02750631794333458,-0.040477026253938675,-0.03500842675566673,-0.0751151442527771,-0.0661206915974617,-0.005913711152970791,-0.06847883760929108,-0.033899907022714615,-0.08641527593135834,-0.040630269795656204,0.08869420737028122,0.09930018335580826,-0.00028364566969685256,0.04736386612057686,0.004988816566765308,-0.08205777406692505
8,-0.5086429119110107,-0.003121551824733615,0.9499263167381287,0.45543500781059265,-0.16189610958099365,-1.1033391952514648,-0.24021761119365692,0.029425354674458504,-0.8599252104759216,-1.1890442371368408,0.539999783039093,-0.582494854927063,0.6139320731163025,-0.08107534795999527,0.22527667880058289,-2.753325939178467,-0.021524958312511444,-1.1885000467300415,0.10813607275485992,-0.050385743379592896,0.4368504583835602,-1.221132516860962,0.32089751958847046,-0.030058570206165314,-0.4913943111896515,0.12449251860380173,-0.7936356067657471,-1.0984083414077759,0.27414485812187195,0.5535638928413391,-0.3493569791316986,-0.781530499458313,-0.6163728833198547,0.28674253821372986,0.9173874258995056,-0.007858416996896267,-0.4979332685470581,-0.7650474309921265,0.43212658166885376,0.5950263142585754,-0.03174518421292305,0.39879846572875977,-0.28660234808921814,-0.4528650641441345,0.21654576063156128,1.2086259126663208,-0.048595134168863297,-1.6369071006774902,0.8717665672302246,-0.830292820930481,0.23298373818397522,-0.5333349108695984,0.323097288608551,-1.0743639469146729,-0.0559808611869812,0.8589419722557068,-0.3880749046802521,-1.0047746896743774,-0.6819669008255005,-0.0557723343372345,1.368220329284668,-0.0767689123749733,-0.28567641973495483,-1.006515383720398
9,-0.08623658120632172,0.11995180696249008,-0.8010936379432678,0.681860089302063,0.07589223235845566,-0.42856624722480774,0.16670438647270203,0.27173149585723877,0.5923377275466919,0.011593213304877281,-0.5983209609985352,0.7035233974456787,-0.4300442636013031,0.5613516569137573,-0.4811588227748871,-1.0210908651351929,0.24523089826107025,0.19220590591430664,-0.38572952151298523,-0.013017370365560055,0.6406713724136353,-0.1520245224237442,0.6686466932296753,-1.250171422958374,0.34056708216667175,0.9144123196601868,0.42331504821777344,0.5962135791778564,0.226776584982872,-0.43610435724258423,-0.5334479808807373,-0.7597512602806091,-0.21982645988464355,-0.8136352300643921,-0.6802801489830017,-0.10217228531837463,-0.13844391703605652,0.649472177028656,-0.13268375396728516,-0.266387403011322,0.18209710717201233,0.11055166274309158,-0.24235878884792328,-0.555001437664032,0.49971985816955566,-0.10981541872024536,-0.15937022864818573,0.31595176458358765,-0.3906027376651764,-0.8097985982894897,0.25039365887641907,-0.04786765202879906,-0.06296896934509277,-0.18015490472316742,0.03638031706213951,-0.33337414264678955,-0.6514447331428528,0.6570120453834534,-0.37473389506340027,1.1350370645523071,-0.6677629351615906,0.8653697967529297,-0.9421506524085999,-0.4765511453151703
10,0.8060652613639832,-0.3944166600704193,0.059518974274396896,0.3588433861732483,0.020918499678373337,0.31790637969970703,-0.2132420539855957,-0.8298095464706421,0.4487908184528351,0.8769798278808594,-0.7681315541267395,0.30831378698349,-0.1479036808013916,-0.6195802092552185,0.46818429231643677,-1.139854073524475,-0.2474009096622467,-0.47015151381492615,-1.6713932752609253,-0.09207530319690704,-1.1826751232147217,0.7809794545173645,-2.2567811012268066,-0.0667739287018776,0.02015766315162182,0.19277378916740417,0.42504453659057617,-0.518635094165802,-0.031892821192741394,0.14359703660011292,1.0251284837722778,-0.8690202236175537,0.44049057364463806,-0.42359787225723267,0.24636326730251312,-0.1712644100189209,-1.1721950769424438,-0.9299163222312927,0.5033798813819885,0.3009404242038727,-0.5149834156036377,-0.1191413626074791,0.6788399815559387,-0.03840810805559158,-0.5250588059425354,-0.1262509971857071,-0.41955775022506714,0.046583570539951324,-0.7971635460853577,-0.5473434925079346,-0.519906222820282,-0.1995735913515091,-1.1596394777297974,0.8863565921783447,1.2397528886795044,-0.3556726276874542,0.7925592064857483,0.8135929107666016,-0.30174896121025085,0.5893276929855347,-0.32247403264045715,-0.8881160020828247,0.8739801049232483,-2.02240252494812
11,-0.5029913187026978,-0.9219034910202026,0.0431399866938591,-0.32896697521209717,-0.16956205666065216,-0.33524221181869507,0.09212864190340042,-0.6587660908699036,-0.7052796483039856,0.3054347634315491,0.9773446917533875,-0.4983244240283966,0.3669338524341583,-0.7355279922485352,-0.8793034553527832,0.7554479241371155,-0.023832296952605247,0.10507486015558243,-1.0108555555343628,-0.003898205468431115,0.10073774307966232,0.22971491515636444,0.4624670445919037,0.15162451565265656,0.1286996454000473,-3.4002063274383545,-1.9758416414260864,-0.2356773018836975,0.6698021292686462,0.5326620936393738,0.36192676424980164,0.35949811339378357,0.051314350217580795,-0.5956284999847412,0.011699752882122993,-0.08039683103561401,0.39254024624824524,-0.8964387774467468,0.20368267595767975,-0.5563240647315979,0.22003093361854553,-2.0216064453125,0.6955592036247253,0.24108187854290009,0.036462172865867615,0.20225712656974792,0.7426514625549316,-0.4004465341567993,-0.029034871608018875,0.3729245662689209,0.8643031120300293,-1.1108503341674805,-0.030942382290959358,-0.3821512460708618,-1.8414596319198608,0.37887293100357056,-0.16006119549274445,-0.8882869482040405,-0.09585195779800415,-1.9529403448104858,-0.0828332006931305,-1.6660305261611938,-0.2443576604127884,0.6163234710693359
12,-0.031168363988399506,-0.08419456332921982,0.05877271294593811,0.048452768474817276,0.033828556537628174,-0.04288598522543907,-0.0472271591424942,-0.013190935365855694,-0.009074544534087181,0.03966521844267845,0.03280876204371452,0.051325470209121704,-0.09139546006917953,-0.04127051308751106,0.0008181561133824289,0.03534264117479324,0.005068880505859852,0.025167932733893394,0.043348442763090134,0.08162907510995865,0.027415882796049118,-0.07155399769544601,-0.06067324057221413,-0.05175791680812836,0.021762430667877197,-0.02760297618806362,0.0036158219445496798,-0.04460793733596802,-0.020994270220398903,0.022871557623147964,0.0014359214110299945,0.0607491098344326,-0.006017269100993872,-0.030426040291786194,-0.0646912157535553,-0.007219318766146898,0.04688270017504692,-0.011291303671896458,0.08239605277776718,-0.03524390980601311,-0.07227877527475357,0.05138622596859932,-0.07097359746694565,-0.10483291745185852,-0.0990581288933754,0.022343818098306656,0.03000008501112461,0.033611297607421875,0.007141964044421911,-0.037387747317552567,0.06295185536146164,-0.038014426827430725,0.038494307547807693,-0.026963310316205025,-0.039692699909210205,0.003501858562231064,0.002549625001847744,-0.06459000706672668,-0.061057254672050476,-0.041020143777132034,-0.06598760932683945,-0.05519052594900131,-0.015536747872829437,0.05861788988113403
13,1.0149344205856323,-0.141026109457016,1.4928123950958252,0.31382519006729126,-0.25649693608283997,0.8148822784423828,-0.08390948921442032,0.7702739238739014,0.6343791484832764,0.4243498742580414,-0.45343074202537537,0.42874833941459656,0.19542555510997772,0.6578066945075989,0.17959369719028473,0.40066367387771606,-0.4808395504951477,0.3623049259185791,-0.7644464373588562,-0.03568912670016289,0.37544378638267517,0.6812273263931274,0.14783160388469696,0.045102186501026154,-0.9357194304466248,0.251773476600647,0.15668927133083344,-0.44781649112701416,-0.07785867154598236,-0.37999817728996277,-0.20597262680530548,1.4939466714859009,0.2160305231809616,0.6862245202064514,0.9721728563308716,0.0028748472686856985,-0.9016346335411072,-0.636364221572876,-0.5301978588104248,-0.6285598278045654,-1.3213764429092407,-0.11006629467010498,0.5038891434669495,0.43575918674468994,0.6091052293777466,-1.825532078742981,0.3187877833843231,0.2710677683353424,-0.2036481499671936,-0.29544979333877563,0.23727227747440338,-0.812418520450592,-0.23742683231830597,-1.6447089910507202,0.8791085481643677,-1.315463662147522,0.04419324919581413,-0.2494179755449295,-0.8085343241691589,1.1081233024597168,-1.28329336643219,0.5260313153266907,-0.07972551137208939,0.3584592342376709
14,-0.005713020451366901,0.04638644680380821,-0.010588686913251877,0.059276238083839417,-0.05799626559019089,0.0491478405892849,-0.10042480379343033,0.06584696471691132,0.06296073645353317,0.05861163139343262,0.04450735077261925,-0.04632389545440674,-0.033086515963077545,0.040411923080682755,0.057715173810720444,-0.04655907303094864,-0.07618273049592972,-0.02174515277147293,-0.006215300876647234,-0.02444191463291645,0.0011002800893038511,0.025208769366145134,0.0044489107094705105,-0.011595247313380241,-0.00012970079842489213,0.02903302200138569,-0.041770074516534805,-0.06271902471780777,0.018523458391427994,0.10357937216758728,-0.044155053794384,0.06600397825241089,0.011338227428495884,0.06591004878282547,0.033373527228832245,-0.0581500381231308,0.011596357449889183,0.02424483560025692,-0.0139949144795537,0.06030627340078354,0.02142420783638954,0.049073439091444016,0.036956869065761566,-0.08701308816671371,0.04725044220685959,0.07589369267225266,-0.039896365255117416,0.053521204739809036,-0.04740525782108307,-0.0629681944847107,0.061850983649492264,-0.04403096064925194,-0.0929645523428917,0.023489637300372124,-0.03632769733667374,0.07378275692462921,0.035190898925065994,0.04640226066112518,0.023539016023278236,-0.06191207095980644,0.012258767150342464,0.08073948323726654,0.05120965465903282,0.050158511847257614
15,-1.0317654609680176,0.25068503618240356,-0.04599098861217499,0.8471328020095825,-0.22689539194107056,0.8539009690284729,-0.10769563913345337,0.618465006351471,-1.2448378801345825,0.17747069895267487,-1.155051827430725,0.6347377896308899,-0.9455429911613464,-0.27029699087142944,0.49649569392204285,0.3992656171321869,-0.16013583540916443,0.5777543187141418,-1.1261759996414185,-0.009619106538593769,-0.5364063382148743,-1.551254391670227,0.6869748830795288,-0.5285198092460632,-0.4166869521141052,-0.11631709337234497,0.58347487449646,0.13549858331680298,0.5725237727165222,-0.8377822041511536,-0.30980002880096436,-0.5289651155471802,-1.31968355178833,-0.18414367735385895,-0.4773143529891968,-0.00320423417724669,-0.23377768695354462,-1.0529836416244507,-0.2265576869249344,-0.4066709280014038,-1.1046134233474731,0.5584347248077393,-1.2332017421722412,0.040308985859155655,0.17440582811832428,-1.3947596549987793,-0.9322014451026917,1.0124889612197876,-0.5537099242210388,-0.5510444641113281,-0.9916632175445557,0.059668585658073425,0.04208975285291672,-0.22308364510536194,0.15568983554840088,-0.023224277421832085,-0.23259516060352325,0.37253537774086,-0.5531710982322693,0.6359974145889282,-1.529893398284912,0.15386728942394257,-0.502150297164917,-0.09717895835638046
16,0.22469806671142578,-2.5867109298706055,-0.8212789297103882,0.35658442974090576,-0.17014180123806,-1.1713035106658936,-0.053522802889347076,-1.00951087474823,0.6164690852165222,-0.025703873485326767,-1.200934886932373,-0.49203622341156006,-0.40755948424339294,-0.24952693283557892,0.11854798346757889,-1.21293306350708,-1.3591794967651367,0.03908361867070198,-1.1330612897872925,-0.039737217128276825,-0.2587699890136719,0.4550347626209259,-0.03718166798353195,-1.404931902885437,-0.773933470249176,-0.9379420280456543,0.23526158928871155,0.3118837773799896,-0.8484809398651123,-0.6021878123283386,-2.042172431945801,0.15200704336166382,-0.47137027978897095,-0.4356895983219147,0.7787739038467407,-0.13646163046360016,0.21764561533927917,0.24200081825256348,-0.5649625062942505,-0.60642009973526,-0.11527886986732483,0.30084648728370667,1.098572015762329,-0.7751619219779968,0.45383721590042114,0.2556312382221222,0.8829526305198669,-0.8048700094223022,-0.20563170313835144,-0.5970854759216309,-0.831748902797699,-2.261439800262451,-1.7750216722488403,-0.6288832426071167,-0.861304759979248,0.5280948877334595,0.41043728590011597,-1.0530868768692017,-0.6012448668479919,-1.2034189701080322,0.8617655038833618,-0.22697122395038605,0.2041669487953186,0.7532885074615479
17,-0.7368556261062622,-1.1824448108673096,0.15971721708774567,-0.6246224641799927,-0.2747277319431305,-0.4936590790748596,0.0009726812713779509,0.012653565965592861,0.25333449244499207,-0.5556729435920715,0.0492880716919899,0.22561950981616974,0.6253605484962463,-0.4505577087402344,0.30996644496917725,0.12078334391117096,-1.6699014902114868,-1.344584584236145,-1.4825996160507202,-0.07995396107435226,-0.228458434343338,0.6785447001457214,-1.1504418849945068,-0.7769613265991211,0.1700834035873413,0.729809582233429,-0.3390885889530182,-0.601559042930603,-1.196805715560913,0.6768693923950195,0.8972094058990479,-0.7234494090080261,0.6267890930175781,-1.9164392948150635,-0.7824980616569519,-0.03821186721324921,-0.20503130555152893,-0.28138139843940735,-0.4140728712081909,-1.1803556680679321,-0.4516145586967468,0.4988262951374054,0.6086936593055725,-0.039015062153339386,-1.6649645566940308,-0.7436408996582031,-1.234548568725586,0.0990271270275116,-1.589219331741333,-0.7739112973213196,-0.573499858379364,-0.20731182396411896,-1.4756464958190918,-1.1605517864227295,1.2433574199676514,-0.6885089874267578,1.03818941116333,0.1942635029554367,-0.2643912732601166,0.23157118260860443,-0.3481197953224182,0.2537083625793457,-1.3618890047073364,-0.3490779995918274
18,0.0541275255382061,0.6644870638847351,-1.6071287393569946,0.1672615259885788,-0.15410439670085907,0.2137584388256073,-0.2816363573074341,0.01719418540596962,-0.837834894657135,1.0884541273117065,-2.212756633758545,0.4045926332473755,-0.42005661129951477,-1.171742558479309,0.05496301129460335,-0.37118467688560486,-0.14203153550624847,0.9116728901863098,-0.3914344906806946,-0.08874503523111343,-0.009725836105644703,0.26948606967926025,-0.8280219435691833,-0.4797916114330292,-1.0362467765808105,0.1619919091463089,-0.040589310228824615,0.08181619644165039,-1.198696255683899,-0.8532687425613403,-2.2501003742218018,0.7255390286445618,-0.24786154925823212,0.06666124612092972,0.37218284606933594,-0.018366120755672455,-0.574669599533081,-1.715189814567566,-0.6039173603057861,0.45599856972694397,0.21957038342952728,-0.5537359118461609,-0.016417566686868668,-0.25459975004196167,0.31599104404449463,0.42428189516067505,-0.5226047039031982,1.3059922456741333,-0.3188794255256653,-0.9756767749786377,-0.8287782073020935,0.11886332184076309,-0.6663824915885925,1.0295625925064087,1.0968366861343384,-0.056083038449287415,-0.7178660035133362,0.6671769618988037,-0.2835554778575897,0.9898590445518494,0.6006055474281311,-0.07264440506696701,0.23419956862926483,0.7642638087272644
19,-0.858606219291687,-0.670264720916748,-0.7879417538642883,-0.0646236315369606,-0.14240235090255737,-0.17942309379577637,-0.5869130492210388,-0.46565037965774536,-0.2734052538871765,0.27767103910446167,-0.31901082396507263,-1.5821298360824585,-0.386042058467865,0.02500460110604763,-0.675313413143158,-0.7260103225708008,-0.274681031703949,0.9644202589988708,-0.8605131506919861,-0.049801986664533615,-0.0006710577290505171,-0.984203577041626,0.91716068983078,-0.9698954224586487,0.3142912685871124,0.16131135821342468,0.15266717970371246,-0.15963593125343323,0.19518700242042542,-0.43712133169174194,-0.24851706624031067,-0.546848475933075,-0.499797523021698,0.3831278681755066,-0.17974898219108582,-0.07724528759717941,0.7047352194786072,-0.4155977666378021,0.12251375615596771,-0.7496214509010315,0.2732330858707428,-0.948733925819397,0.1916310042142868,-0.3444683253765106,0.8828769326210022,0.8392762541770935,0.56812584400177,-0.2858338952064514,0.6367847323417664,0.14812806248664856,0.11990261822938919,-0.06171847879886627,-0.6472576260566711,-0.35642239451408386,-0.7420055866241455,0.0911007672548294,-0.5543786287307739,-0.31176161766052246,-0.2939649820327759,-1.617769718170166,0.45705217123031616,0.07327989488840103,0.1591646373271942,0.467669814825058
20,0.29208776354789734,-0.6490353941917419,0.6806137561798096,2.000765800476074,-0.13651226460933685,-0.5899009108543396,-0.20358708500862122,0.6564541459083557,1.1742650270462036,1.101562261581421,0.317410409450531,-0.7278069257736206,-0.33070874214172363,0.31892871856689453,-0.7217509150505066,-0.9366089105606079,0.2789369225502014,-0.6852182745933533,-0.15003812313079834,-0.12586306035518646,-0.11843232810497284,-0.04767132177948952,-0.2165507674217224,-0.08071218430995941,0.4088577926158905,0.16852092742919922,-0.15517093241214752,0.75245201587677,0.6419904828071594,0.8559922575950623,-0.5699524879455566,-0.2533462643623352,-0.4116020202636719,-0.939738392829895,1.1740694046020508,-0.0446975901722908,-0.13056126236915588,-0.45844098925590515,-0.7544994950294495,0.35390210151672363,-0.5153540968894958,-1.5074862241744995,-0.8305919766426086,-0.5854530930519104,0.4067015051841736,0.8327980041503906,0.4582799971103668,0.10933282971382141,-0.03426812216639519,1.3020867109298706,0.23541724681854248,0.21768946945667267,-0.8875349760055542,1.2584985494613647,0.8204678297042847,-0.08311261981725693,-0.5609155893325806,0.04972949996590614,-0.10194763541221619,1.6799910068511963,0.7192517518997192,-1.1233317852020264,1.2605209350585938,-0.10715708136558533
21,-0.5615484714508057,-1.1489908695220947,-0.5566827058792114,0.35520949959754944,-0.22307191789150238,-1.2984691858291626,-0.2832289934158325,-0.7826882004737854,-1.1917321681976318,-1.147471308708191,0.4468698501586914,-1.877017617225647,-0.3355179727077484,-0.2727987468242645,-0.43493619561195374,-0.9531437158584595,0.23797312378883362,0.03978987783193588,-0.6609519124031067,-0.04992838576436043,-1.7903369665145874,0.3952297270298004,0.13113188743591309,-0.5771030783653259,0.7817869186401367,-0.5737914443016052,-0.12438146770000458,-1.707930326461792,-1.0439295768737793,0.11714572459459305,-0.0006134842406027019,-0.30066052079200745,-0.17305788397789001,0.008829676546156406,0.1378025859594345,-0.0838463231921196,-0.2921653985977173,0.12062995880842209,-1.410431146621704,-0.5369721055030823,-0.31544163823127747,0.10131676495075226,0.2824142873287201,-0.773245096206665,0.5852563977241516,-0.05009831115603447,0.2052888572216034,-0.736607551574707,0.0022484641522169113,0.6289461851119995,0.03189035505056381,-0.5000295042991638,-0.6818335652351379,-0.386515736579895,0.1514796018600464,-0.08981338143348694,0.23535893857479095,-2.2760441303253174,-0.5606504678726196,-0.9783895015716553,-0.04256988689303398,-0.004266027826815844,-1.2278172969818115,-0.14021246135234833
22,-1.2244477272033691,-0.01232377253472805,1.2296910285949707,-0.7060211896896362,-0.17980782687664032,0.08148926496505737,-0.18084964156150818,-0.38573744893074036,-0.4229622185230255,0.08207540959119797,-0.11876043677330017,-0.4692433774471283,0.5843767523765564,0.12650266289710999,-0.2149774432182312,0.07131601870059967,-0.9305701851844788,-1.4882358312606812,-0.8700761198997498,-0.04202912375330925,0.48620927333831787,1.2218977212905884,1.2191404104232788,1.4250167608261108,-0.04563276842236519,-1.1115161180496216,0.4249362051486969,-0.31152480840682983,-0.017795583233237267,0.34495487809181213,0.042165398597717285,-0.9565762281417847,0.5346879363059998,0.7675869464874268,-1.058814287185669,-0.11042550951242447,0.47514110803604126,0.783757746219635,0.5147392749786377,-0.5230849981307983,-0.485544353723526,-0.38486263155937195,0.2153715193271637,0.09478364884853363,-0.9409437775611877,0.1199716255068779,-0.1948522925376892,-0.5821607112884521,-0.9407670497894287,0.06692684441804886,-0.6079846620559692,-0.6733945608139038,0.014974977821111679,-0.4334927499294281,-0.5855551958084106,-0.33348560333251953,0.7004624009132385,0.1396602839231491,-0.32008472084999084,0.533328652381897,0.3680623471736908,0.38543274998664856,0.6272038221359253,-0.07174696028232574
23,-0.6544964909553528,-0.6959407925605774,0.8760640621185303,0.08381922543048859,0.03653709962964058,0.5295913815498352,0.029674222692847252,-1.3047800064086914,-0.6519589424133301,0.8019309043884277,-0.8574627041816711,0.311643123626709,-0.4313030540943146,0.10572633147239685,1.3215326070785522,0.4897802174091339,1.1708232164382935,-0.648712158203125,1.0155627727508545,0.09348101168870926,0.772306501865387,-0.16268356144428253,0.9640780687332153,0.1529332995414734,-0.5369802713394165,1.3426939249038696,-1.2438372373580933,-0.1372005045413971,-0.7753899097442627,-1.4367870092391968,-0.36116090416908264,-0.14978283643722534,-0.12736700475215912,-0.6431298851966858,-0.8164312243461609,0.03378184512257576,-0.6381679773330688,-0.5562653541564941,-0.5453605651855469,0.8911356329917908,0.2894013524055481,-0.24011000990867615,-1.207916259765625,-0.37658315896987915,0.6394296288490295,0.5382212400436401,0.8702929615974426,-1.3622037172317505,-0.747942328453064,0.2549123466014862,-0.09986623376607895,0.3476335108280182,0.21905772387981415,-0.5876842737197876,0.82667076587677,-0.7769699096679688,1.0279476642608643,0.7770346403121948,-0.3755156397819519,-0.7732446789741516,-0.4310212731361389,-0.29803216457366943,0.037864625453948975,0.0010945145040750504
24,-0.057259976863861084,0.0025291533675044775,-0.019709419459104538,0.02324998751282692,0.044742777943611145,-0.042938344180583954,-0.0026514334604144096,0.08473855257034302,0.030774008482694626,-0.030917838215827942,0.024880848824977875,-0.09659398347139359,0.03923698142170906,0.051321856677532196,0.01195565052330494,-0.03140958026051521,0.059750888496637344,-0.01777004823088646,-0.076286680996418,-0.02134293131530285,0.0487990640103817,0.06413491070270538,-0.004337895195931196,-0.08326280117034912,-0.024223610758781433,0.0007592965266667306,0.09905155003070831,-0.048337630927562714,-0.042136356234550476,-0.028512749820947647,-0.031784504652023315,-0.04830355569720268,-0.027381764724850655,0.015304173342883587,0.015605115331709385,-0.04972483217716217,-0.03416028618812561,-0.00913272611796856,-0.04183874651789665,0.0785670056939125,-0.06505333632230759,0.09902380406856537,-0.08057577162981033,-0.0667644590139389,-0.0684724748134613,-0.05733099952340126,-0.07757066935300827,0.028851699084043503,0.006627289112657309,0.02837533690035343,-0.013896094635128975,-0.046615373343229294,-0.0524209700524807,0.040602024644613266,0.03573048487305641,-0.06917180120944977,0.07363904267549515,0.08957257121801376,0.03141879662871361,0.045006029307842255,0.058275606483221054,0.046228278428316116,0.015444339253008366,0.05688948184251785
25,0.8684320449829102,0.3560568690299988,-0.33416834473609924,-0.520840585231781,-0.058425966650247574,-0.13799574971199036,-0.19180892407894135,-1.8086222410202026,0.2112378031015396,0.9620311856269836,-0.22067444026470184,-0.9261049032211304,0.4256967008113861,-0.3727286458015442,1.1841765642166138,-1.6220135688781738,0.5981353521347046,0.42387279868125916,-0.04461805149912834,0.04408483952283859,0.5361769199371338,-0.7420172095298767,0.8930051326751709,0.6082806587219238,-1.2278623580932617,0.21060776710510254,-0.04436894506216049,-1.5260701179504395,-0.5208771228790283,-0.19948884844779968,-0.1302213817834854,-0.5875779986381531,-1.3983350992202759,-1.2578400373458862,-0.729052722454071,-0.04579601809382439,0.6112549901008606,-1.4329253435134888,-0.452572762966156,0.38311803340911865,-0.08109410107135773,-0.3745640218257904,-1.1109421253204346,-0.052236370742321014,0.48086172342300415,0.5501214861869812,-0.6603827476501465,-1.0007243156433105,-0.1366455852985382,-0.8124485611915588,-0.04613974690437317,0.9674950242042542,0.8901473879814148,0.7314863204956055,-2.1433637142181396,-0.38920673727989197,-0.05444382503628731,0.03890623152256012,0.03650899976491928,0.025556830689311028,-0.7390692830085754,-0.4622029960155487,-1.3312212228775024,0.950589120388031
26,-0.05594325438141823,0.07460886240005493,-0.392622709274292,0.33379295468330383,-0.12600325047969818,0.8474631905555725,-0.24804329872131348,-0.5669735670089722,-0.781670093536377,0.20793545246124268,0.4009592533111572,-0.9644666314125061,-0.893280565738678,0.3317619264125824,-0.010080243460834026,-1.6297987699508667,-0.5460842251777649,1.6834625005722046,0.10051633417606354,-0.040559690445661545,-0.7538037896156311,-0.5201178193092346,-1.7295050621032715,-0.6017986536026001,0.15064768493175507,0.16685879230499268,-0.4966735541820526,0.12478480488061905,0.13076245784759521,0.2754564583301544,0.14495716989040375,-0.15828637778759003,1.0633563995361328,0.4062930643558502,0.5021073222160339,-0.08067905902862549,-0.8034378290176392,-1.5533028841018677,-0.5804539918899536,0.3965243399143219,-0.24524012207984924,-0.35056981444358826,-0.2681642472743988,-0.3672547936439514,0.14825700223445892,0.40586966276168823,0.5375919342041016,0.6076074242591858,0.20394249260425568,0.025331644341349602,0.8620551228523254,0.7814412117004395,-1.2148205041885376,0.17971225082874298,-0.046290323138237,-0.493895024061203,-0.293567419052124,0.7248842120170593,0.4189303517341614,-0.2396600991487503,-0.1885802000761032,-0.5524246096611023,-0.5177689790725708,-1.2773659229278564
27,-0.38708168268203735,0.06523910909891129,0.3197155296802521,0.6659318208694458,-0.17950907349586487,0.6959277987480164,-0.3775310814380646,-0.38189804553985596,-0.5115653276443481,0.3259861469268799,-0.35612982511520386,0.08193560689687729,-1.3799831867218018,0.4061295688152313,-0.8857541680335999,0.7749930024147034,-0.39854392409324646,0.43340641260147095,-0.10187461972236633,0.012194515205919743,-0.24606812000274658,0.5741949677467346,-0.5704114437103271,-2.223177194595337,0.3008035123348236,-0.2380799949169159,0.5338299870491028,0.5090392231941223,0.9582287073135376,0.1352587640285492,-0.3252284526824951,-0.4661000370979309,-0.4423721730709076,0.20568032562732697,0.5472642183303833,0.004330664407461882,0.4838484227657318,-0.594844400882721,0.9416332244873047,0.4895271062850952,-0.7509017586708069,-1.9962055683135986,0.18728268146514893,0.5570388436317444,-0.26753997802734375,0.26548975706100464,-0.09741540998220444,0.9455779194831848,0.6931267380714417,0.49733978509902954,-0.4691416025161743,-0.6355751752853394,-0.3852418065071106,-0.27083253860473633,-0.19271789491176605,-0.21740874648094177,-0.8953820466995239,-0.3787926733493805,-0.45777738094329834,0.6735051274299622,-0.124257892370224,-1.1656672954559326,0.20773306488990784,-0.9685173034667969
28,-0.5447513461112976,0.7948530316352844,-0.5132274627685547,-0.8313424587249756,-0.017530100420117378,-0.24433718621730804,-0.12953482568264008,0.17550255358219147,-0.030059443786740303,-0.38124850392341614,-0.31826266646385193,-0.07800191640853882,-0.4541316032409668,-0.3561165928840637,-1.6973845958709717,0.09858807176351547,-0.17198243737220764,0.49681606888771057,-0.43015366792678833,-0.12977756559848785,-1.0520702600479126,-0.47197771072387695,0.6160423755645752,-0.5196791887283325,-0.07394146919250488,-0.10559386014938354,0.07228662073612213,-1.0132304430007935,0.1113002821803093,0.020522721111774445,-2.028083562850952,0.005024118814617395,-0.5369424223899841,-0.8769757151603699,-0.3676397502422333,-0.08007443696260452,-0.05465563014149666,-0.42104384303092957,0.2250879555940628,-0.8957297801971436,-0.45831164717674255,-0.2857246398925781,-0.174025297164917,-0.5025902986526489,-0.19524843990802765,0.06360339373350143,-1.340707778930664,0.056898731738328934,-0.1467500776052475,-0.34959203004837036,-0.7035554051399231,-0.8703755736351013,0.1425437033176422,0.05278747156262398,-0.1375878006219864,-0.1403040736913681,-0.854648232460022,0.3206862211227417,0.6644982099533081,0.1296190321445465,-0.5543041825294495,0.40317729115486145,-0.7671746015548706,0.7797937989234924
29,-0.148702010512352,-0.31254273653030396,0.02231224626302719,-2.1997640132904053,-0.08331404626369476,-0.47895681858062744,0.005833221133798361,0.6296413540840149,0.7466025352478027,-0.6124367117881775,-0.1679064929485321,0.742846667766571,0.9541214108467102,-0.6473382115364075,0.19296275079250336,0.46803733706474304,-1.3559889793395996,-1.4695032835006714,0.0430070124566555,-0.03898324444890022,0.5986336469650269,1.2701070308685303,-0.6318246126174927,-0.3930003046989441,-0.6082519888877869,0.42306703329086304,-0.09326021373271942,0.06465855985879898,-0.26737114787101746,-0.010451998561620712,0.27401065826416016,-0.39274054765701294,0.44230830669403076,-0.35588574409484863,-0.6011275053024292,0.0342240035533905,-0.38854238390922546,0.38800233602523804,0.7830103635787964,-0.07553903758525848,-1.111238956451416,-0.06988713890314102,1.0011838674545288,-0.27331462502479553,-1.772925853729248,-1.4666450023651123,-0.31544986367225647,0.6999180912971497,-0.8531203866004944,-0.28442397713661194,-0.1425779014825821,-1.1474050283432007,0.3095371425151825,-0.04203483462333679,1.676697850227356,-1.8223987817764282,0.8132715225219727,-0.43335261940956116,-0.3247067630290985,0.23711371421813965,0.11032130569219589,0.24284972250461578,0.07390103489160538,-0.5079566836357117
30,-0.5339254140853882,0.3612939119338989,-0.0016708498587831855,-0.5393998622894287,-0.20845654606819153,0.7753297090530396,-0.19942247867584229,-0.6093226671218872,-0.4208180010318756,-0.19985076785087585,-0.16691724956035614,0.39022713899612427,0.17409652471542358,0.23711805045604706,-0.6447708606719971,0.39947205781936646,-0.5375389456748962,0.5530582070350647,0.8614582419395447,-0.14449547231197357,-1.1217082738876343,1.0204105377197266,-1.1297571659088135,-1.5313001871109009,0.3169526755809784,-1.298033356666565,-0.3410518169403076,-0.13713674247264862,0.13077323138713837,0.2291906774044037,-0.0017046710709109902,-0.3043932318687439,-0.8646052479743958,0.3930593430995941,0.37378668785095215,-0.04024555906653404,0.40150347352027893,-0.3092009127140045,0.5429219603538513,0.7994604110717773,-0.2919398546218872,-0.5955166816711426,-0.358444482088089,0.16901417076587677,-0.04088466241955757,0.3850637674331665,0.3474055826663971,0.194271519780159,0.5150984525680542,0.5232863426208496,-0.1404796838760376,-0.7226223945617676,-0.16021980345249176,-0.49711355566978455,-0.2007208615541458,0.3189984858036041,-0.29272404313087463,-0.2758674919605255,-0.1920587569475174,-0.31982964277267456,-0.35853931307792664,-1.2896230220794678,-0.25237390398979187,-0.09889087080955505
31,0.5513972043991089,0.014510314911603928,-2.3440284729003906,-0.7531433701515198,-0.2579253613948822,-0.5402119755744934,-0.01811685599386692,-0.8911608457565308,0.15251192450523376,0.6617357134819031,0.6584767699241638,-1.263622522354126,0.6716353297233582,-0.20113129913806915,-0.777290940284729,0.4264679551124573,0.008783727884292603,-0.046130988746881485,0.461486279964447,-0.057964175939559937,-1.6091735363006592,0.5846836566925049,-0.4187355637550354,0.5698213577270508,-0.6489449739456177,-0.7503383755683899,-0.055867843329906464,-0.7031252384185791,0.4943676292896271,-0.6472816467285156,-0.1993134617805481,0.8450689911842346,-0.7805762887001038,-0.8034164905548096,0.4357328414916992,-0.2056627720594406,-0.062102310359478,-0.6577709317207336,0.11613637208938599,-0.09992019087076187,0.15889321267604828,-0.7374709248542786,0.18490391969680786,-0.21601293981075287,0.04876245558261871,0.528507649898529,0.3631415069103241,-0.20515716075897217,-0.30432191491127014,-0.968738853931427,-0.435197651386261,-0.007384671829640865,-1.095268964767456,0.16223689913749695,-0.4719575047492981,-0.8155758380889893,-0.11456714570522308,-0.06720475852489471,-0.8180055618286133,-0.45022112131118774,-0.1421988606452942,-1.583617925643921,-0.11153389513492584,0.4264691472053528
32,-0.15728044509887695,-0.1187862753868103,0.4528825581073761,-0.5615934729576111,0.11312519758939743,-0.1433853954076767,-0.07518763840198517,-0.39245203137397766,0.19838684797286987,-1.0744636058807373,-0.721900463104248,0.290479451417923,0.06856821477413177,0.14465942978858948,0.4854796230792999,-0.08355030417442322,-0.08042775839567184,0.3675614893436432,0.05388730391860008,0.0074586765840649605,-0.22422504425048828,0.15106210112571716,0.6483473777770996,0.3763337731361389,1.1750514507293701,0.1566532850265503,0.2200833261013031,-0.4911887049674988,-0.6891645193099976,0.14937402307987213,0.6056948900222778,-0.4433154761791229,-0.8250061273574829,0.2962411940097809,0.3966234028339386,0.023113442584872246,0.09870640933513641,0.15126502513885498,-0.2650788724422455,-0.684247612953186,-1.0367993116378784,0.07896362245082855,-0.6609427332878113,-0.8680169582366943,-0.0966532900929451,-0.5370302200317383,-0.18127307295799255,0.14218226075172424,0.1975851207971573,0.5684894919395447,-0.30707892775535583,-0.4666871130466461,0.6645444631576538,-0.8071445226669312,0.3973388373851776,-0.4608173370361328,-0.5447521209716797,-0.7594529986381531,-0.4498482346534729,0.346621036529541,-0.11048400402069092,0.1374032199382782,-0.25636208057403564,-1.4140197038650513
33,0.012249247170984745,-0.02828005515038967,-0.03284246101975441,-0.06702573597431183,0.029327157884836197,-0.03380001336336136,-0.044440776109695435,0.02782667800784111,-0.031581878662109375,0.06006942316889763,-0.07966558635234833,0.04070205241441727,-0.022076759487390518,-0.03744017332792282,0.019708041101694107,-0.0672522783279419,0.03462693840265274,-0.08948628604412079,-0.04543953761458397,-0.01349172368645668,-0.010151523165404797,-0.04723421856760979,-0.018273361027240753,-0.06267108023166656,0.051625870168209076,0.017016764730215073,0.08509145677089691,0.06166385859251022,-0.0014987427275627851,-0.0164863970130682,-0.03982722386717796,0.005396243184804916,0.012716902419924736,0.07014801353216171,-0.02608717419207096,0.05423664301633835,0.09965202212333679,-0.018254423514008522,-0.013623920269310474,0.04733980447053909,-0.06950778514146805,-0.06945067644119263,-0.09858042746782303,-0.004491647705435753,-0.059498514980077744,-0.05286307632923126,-0.011041790246963501,-0.00949931051582098,0.05225026607513428,-0.04594507813453674,-0.05719897523522377,0.08188718557357788,0.06887972354888916,-0.06099233403801918,0.013294925913214684,0.050412941724061966,0.10366324335336685,-0.04279354214668274,0.05996265634894371,-0.10176712274551392,-0.04530820623040199,-0.09270809590816498,0.10871966183185577,-0.04033472016453743
34,0.5350415110588074,-0.767317533493042,0.13042931258678436,0.4673088788986206,-0.1432465761899948,-0.571558952331543,-0.35000330209732056,-0.04399631917476654,0.3396904766559601,0.1074192076921463,0.0688701644539833,-0.38792142271995544,0.31779491901397705,-0.7360253930091858,-0.125915065407753,0.8336727619171143,0.24999822676181793,-0.11360926926136017,-0.2226748913526535,-0.12838922441005707,0.6734849810600281,0.8408669829368591,0.373645544052124,0.40415310859680176,0.5057080984115601,-0.3510556221008301,-0.15905599296092987,0.34297800064086914,0.058908719569444656,0.05352373793721199,-0.16987580060958862,0.34260040521621704,0.5142287015914917,-0.1641993522644043,0.8526158928871155,-0.14156296849250793,0.08609412610530853,0.424564003944397,0.5755638480186462,0.0008926509763114154,-0.5695813298225403,0.06981957703828812,-0.21221236884593964,-0.7457670569419861,-0.22691601514816284,0.5317972302436829,-0.5482928156852722,-0.7726852893829346,0.5442103147506714,-0.14579272270202637,-0.02742135524749756,-0.19365864992141724,0.5939162969589233,-1.1909128427505493,-0.577545166015625,-0.022834178060293198,-0.4842498302459717,-1.0663800239562988,-0.2943948805332184,-0.04362454637885094,0.4387527108192444,0.17899249494075775,-0.2931516170501709,-0.1450362503528595
35,-0.2528911828994751,0.29221734404563904,-0.8089457154273987,0.5506354570388794,-0.10408981144428253,-0.6075823903083801,0.03252340480685234,-0.19893044233322144,-0.18045639991760254,-1.0166652202606201,-0.6270344257354736,-1.1824616193771362,-0.5734584927558899,-0.673993706703186,-0.2936151325702667,0.5863127112388611,0.5887717604637146,0.6790614128112793,0.39302077889442444,0.009138775989413261,-1.5000810623168945,-0.12825267016887665,0.2259867936372757,0.16625595092773438,-0.15732549130916595,-0.4729604125022888,0.556328296661377,-1.6813735961914062,-0.3731635808944702,-0.14559359848499298,-0.9396296143531799,-0.23272554576396942,-1.0094410181045532,-0.629899263381958,0.5384814143180847,0.01357598789036274,0.30410489439964294,-0.8150705695152283,-0.6547634601593018,0.4338328540325165,0.04562031477689743,-0.5431563854217529,-1.1686455011367798,-0.28058376908302307,0.2063717097043991,-0.0872868224978447,-0.02472238801419735,-0.9186497926712036,-0.4400109350681305,-0.1061236783862114,-0.1833985149860382,-0.85367751121521,0.09060534834861755,0.6041164398193359,0.23039186000823975,0.0722544938325882,-0.78627610206604,-1.0749354362487793,-0.7653919458389282,-0.2401829957962036,0.23725466430187225,0.5434083938598633,-1.1830081939697266,0.2598079741001129
36,-1.660731554031372,0.6920056343078613,1.0386269092559814,-1.4812781810760498,-0.15782475471496582,0.31023934483528137,-0.12118501961231232,0.8615081310272217,-0.5342959761619568,-0.5867135524749756,0.16223490238189697,0.15773333609104156,0.14259947836399078,-0.0034991763532161713,-0.570271372795105,0.5391901731491089,-0.762172281742096,-0.4872959554195404,0.4138622581958771,-0.08419899642467499,0.26798415184020996,-0.6628691554069519,0.45669102668762207,-0.1880890429019928,-0.11841270327568054,-0.20879554748535156,0.9160352349281311,0.5477870106697083,-0.36821919679641724,0.09893981367349625,0.1988077014684677,-1.2309104204177856,0.9658231735229492,0.17748171091079712,-0.017648445442318916,-0.04624244570732117,-0.4522460401058197,-0.12101522833108902,0.12517781555652618,-0.6685547232627869,0.3737606406211853,0.5466406941413879,-1.9811792373657227,-0.40108931064605713,-0.5865409970283508,-0.5545710325241089,-0.8987137079238892,0.6671406030654907,0.3370943069458008,0.07960870862007141,0.061167240142822266,-0.5465110540390015,0.1980120837688446,-0.6021235585212708,0.6263125538825989,-0.10113685578107834,0.6482258439064026,0.2260795384645462,-0.6501272916793823,0.6922823786735535,-0.2550967037677765,0.6026675701141357,0.12750063836574554,-0.23644602298736572
37,-0.9338697195053101,0.5254644751548767,-0.03911946713924408,-0.7760962843894958,-0.10819310694932938,-0.15680982172489166,-0.19688357412815094,-0.20425672829151154,0.40229374170303345,-0.3383430242538452,0.38848546147346497,0.033656470477581024,-0.28946006298065186,0.3795463740825653,-0.6325287818908691,0.34020525217056274,-1.1898504495620728,0.4809786081314087,0.8752406239509583,-0.02526255138218403,-0.17216305434703827,-0.37347984313964844,0.7023696899414062,-1.3080805540084839,0.7517953515052795,0.9217126369476318,-0.27181434631347656,0.2200271189212799,-1.4155892133712769,0.8358507752418518,-0.4019428789615631,-0.933548629283905,-0.35899898409843445,0.532719075679779,-0.8875359892845154,-0.06971048563718796,0.38716018199920654,-0.7253379225730896,0.40275827050209045,-1.3764350414276123,0.28308597207069397,0.19131805002689362,0.11956298351287842,-1.0021618604660034,0.3823431432247162,0.28689855337142944,-0.4531635344028473,-0.0908626988530159,0.6315628290176392,0.9126632809638977,-0.29498228430747986,-0.43507879972457886,-0.7733169198036194,-0.5048824548721313,0.02724604122340679,-0.9057537317276001,-0.9046667814254761,-0.38388559222221375,-0.8469743132591248,-0.4382709860801697,-0.11287688463926315,0.17864225804805756,-0.3371407985687256,-0.006165369413793087
38,-0.4680952727794647,0.6620930433273315,-2.4247708320617676,0.6261279582977295,-0.2723918557167053,0.4058588743209839,-0.0923154354095459,-0.5974304676055908,-1.013104796409607,0.6985381245613098,-0.15353034436702728,-0.5119621753692627,0.12074436992406845,-0.04924234375357628,0.5281932950019836,0.5437385439872742,-0.014323479495942593,1.0372577905654907,0.4477108418941498,-0.11128458380699158,0.7803995609283447,-1.5373338460922241,0.2475927472114563,0.18960443139076233,-1.4531362056732178,-0.01873853988945484,0.02726791985332966,-1.106499195098877,-0.15791651606559753,-0.3604910373687744,-0.5194371342658997,-1.1637938022613525,-0.2825937569141388,-0.6401044726371765,-0.8977953791618347,-0.015604117885231972,-0.04133104905486107,-1.4967737197875977,0.3622114360332489,-0.2670798599720001,0.29549068212509155,-0.9973552823066711,-1.180205225944519,0.34696754813194275,-0.0946049764752388,0.3146688938140869,0.29319316148757935,-0.462923526763916,-0.026334485039114952,1.1266063451766968,0.18093620240688324,0.5196012854576111,0.2397441565990448,-0.1580350548028946,-1.3203892707824707,0.0742262601852417,0.10798143595457077,0.06787938624620438,0.013634664937853813,-0.7196529507637024,0.2151060551404953,-0.8272267580032349,-0.32736557722091675,-0.3975411355495453
39,-0.009403195232152939,0.03759167715907097,0.0069841244257986546,0.05526718497276306,-0.047455791383981705,-0.018232205882668495,0.05458126962184906,0.06561166793107986,0.06613808125257492,-0.06028951704502106,-0.01798059605062008,0.0293384101241827,0.010051791556179523,0.018700845539569855,0.019566616043448448,0.046935468912124634,0.08436817675828934,0.01845410093665123,-0.014020767994225025,0.0566859096288681,0.07762850075960159,0.033554378896951675,-0.016642851755023003,-0.03070719540119171,0.07730663567781448,-0.027978163212537766,0.015433630906045437,0.10010412335395813,0.06886215507984161,-0.036911025643348694,-0.06375100463628769,0.008487467654049397,-0.04409221559762955,-0.04801970347762108,0.03338569402694702,-0.031889598816633224,0.04671858251094818,-0.0027022017166018486,0.0972614660859108,0.007288066204637289,-0.01450554933398962,0.02963734231889248,-0.10424106568098068,-0.086888886988163,-0.043384451419115067,0.0027299635112285614,0.017210565507411957,-0.005230388604104519,-0.06598693877458572,-0.0026282903272658587,0.013131482526659966,-0.005591332912445068,0.037991736084222794,0.0089972959831357,-0.061227694153785706,0.07554307579994202,-0.014905748888850212,0.03487442433834076,0.05875397101044655,-0.07462862133979797,-0.06454414874315262,0.006924978457391262,0.03208566829562187,-0.05789996311068535
40,0.5383658409118652,-0.008174274116754532,-0.8513444066047668,-0.19834844768047333,-0.1593407839536667,-0.13081683218479156,-0.15170098841190338,-0.595192015171051,-0.05480010807514191,-0.32642555236816406,-0.025368621572852135,-0.45544546842575073,0.08425621688365936,-0.4422757625579834,-2.3118979930877686,-0.4957166910171509,-0.3611345887184143,-0.27697497606277466,0.04261321201920509,-0.04399023577570915,-0.5119771957397461,-0.04532909765839577,-0.9206710457801819,-0.6981987953186035,-0.0657176822423935,-0.9956315159797668,-0.43060770630836487,-1.552991509437561,-0.2259451448917389,-0.19947659969329834,-0.9025665521621704,0.5926254391670227,-0.6311962604522705,-0.864273190498352,-0.8596619963645935,-0.2496580183506012,-1.3852328062057495,0.42458170652389526,-0.3144538700580597,0.4349195957183838,-0.13391393423080444,-0.24126474559307098,-0.18796664476394653,-0.4591141939163208,-0.6040652394294739,0.023003768175840378,0.006634111516177654,0.16983525454998016,-0.1102941706776619,-0.9682316780090332,-0.1229189783334732,-0.34264519810676575,-0.15649546682834625,0.5963966846466064,-0.8417283892631531,0.42270031571388245,-0.9375196099281311,-0.6303768157958984,0.16836191713809967,-0.22778721153736115,-0.37524333596229553,-0.8700765371322632,-0.16539029777050018,-0.3812486529350281
41,0.05618651583790779,-0.0368058942258358,-0.027244241908192635,-0.06456811726093292,0.033173803240060806,-0.0001416987070115283,0.04142194613814354,0.008209915831685066,0.07001389563083649,0.08742696791887283,-0.015046526677906513,0.05454418063163757,-0.10514317452907562,-0.10018093883991241,1.0526175174163654e-05,0.0375690795481205,0.025560306385159492,0.018698252737522125,-0.011245273984968662,-0.06486943364143372,-0.035563573241233826,-0.03099524788558483,0.07257086783647537,0.05348964035511017,0.049839213490486145,-0.04339669272303581,-0.003755515906959772,-0.09108109027147293,0.0016081893118098378,-0.0563989020884037,-0.02324254997074604,-0.04825163260102272,-0.01625317521393299,-0.006100436206907034,0.09721587598323822,-0.10222038626670837,-0.03781525418162346,-0.05400596186518669,-0.03479861840605736,0.017860159277915955,0.03451608121395111,0.004952522926032543,0.005365451797842979,-0.056061338633298874,0.061273910105228424,0.015993647277355194,0.05754556879401207,-0.06976890563964844,-0.01204242929816246,0.05300205945968628,0.023716025054454803,0.08217007666826248,0.03844750300049782,-0.050550494343042374,-0.05726044252514839,0.046782851219177246,-0.03631789609789848,0.0948210060596466,-0.02042010985314846,-0.05786695331335068,-0.09031562507152557,0.011216465383768082,-0.08906584978103638,0.013325583189725876
42,-1.367409586906433,-0.6515489220619202,0.35954195261001587,-0.7246805429458618,-0.19109375774860382,-1.1514513492584229,0.1405700296163559,0.0009297183714807034,0.695458173751831,-0.7140954732894897,-0.10810702294111252,0.9115822911262512,-0.46173080801963806,-0.8967872262001038,-0.34791919589042664,0.438524067401886,-0.5925597548484802,-0.1615809202194214,-0.5150951743125916,-0.005704219453036785,-1.151687741279602,-0.9800436496734619,-1.3312673568725586,0.35100042819976807,0.5487383008003235,-0.267404168844223,0.4167839586734772,-0.2571937143802643,0.494270384311676,-0.0712374895811081,0.1719985455274582,0.23428337275981903,0.6220698356628418,-0.3841068744659424,0.2473233938217163,-0.08449918776750565,0.784818708896637,-0.3621335029602051,0.24668951332569122,0.40460166335105896,-0.8725020289421082,-1.3106598854064941,-0.045875534415245056,1.3526294231414795,-0.12966960668563843,-0.9764302372932434,0.7223829030990601,0.4918643534183502,-0.2677536606788635,-0.03477400913834572,-0.23982658982276917,-1.0774145126342773,0.40610188245773315,0.11341673880815506,1.3119651079177856,0.5309826135635376,0.41043639183044434,0.005570933688431978,-0.022603796795010567,0.47988975048065186,-1.0733839273452759,1.042838454246521,0.4264237880706787,-0.06787309795618057
43,-0.6631826758384705,0.5946163535118103,-1.0795029401779175,0.1541023701429367,-0.07068134099245071,0.46151095628738403,0.15578629076480865,-0.09514958411455154,-0.3359359800815582,-0.7507741451263428,-0.24839377403259277,-0.23542369902133942,-0.3776918947696686,-0.13747505843639374,0.4869518280029297,-1.2778840065002441,-0.6205205917358398,-0.4257572591304779,0.3892447054386139,-0.0450579933822155,0.6493123173713684,-0.9462718367576599,-1.0340315103530884,-0.21765857934951782,-0.11520732939243317,-0.517492413520813,-0.26718369126319885,-0.22423362731933594,-0.02696935087442398,-0.32127323746681213,0.24241794645786285,-0.5798079967498779,0.4104059338569641,-0.2189469337463379,0.08560159802436829,-0.023967232555150986,-0.732536792755127,-0.026194274425506592,0.05151790753006935,0.2760833501815796,-0.1385730654001236,-0.0820247232913971,0.2970682978630066,0.018025729805231094,0.5380951166152954,0.5707246661186218,0.5614637136459351,-0.5489605069160461,0.8004207015037537,0.3103775978088379,-0.5721740126609802,0.3176563084125519,0.7269241809844971,-0.2626609206199646,-0.1922871321439743,-0.04528018832206726,-1.1693531274795532,0.08304058760404587,-0.7263750433921814,-0.19313934445381165,0.6707813739776611,-1.3503886461257935,0.22353164851665497,-0.9960570335388184
44,0.141874298453331,0.02712192013859749,0.40056514739990234,0.754050612449646,-0.29718300700187683,0.483605295419693,-0.20993861556053162,0.558670163154602,-0.6405355930328369,0.28343337774276733,-0.2682638466358185,-0.26926282048225403,-0.5180068612098694,0.07945974171161652,0.030276518315076828,0.3254989683628082,-0.2017398625612259,0.8974013924598694,0.3032037317752838,-0.13159382343292236,-0.6648718118667603,0.16852706670761108,-1.6312599182128906,-0.48310354351997375,0.07113770395517349,0.04803544282913208,1.1387611627578735,0.4279394745826721,0.3030955195426941,0.4601726830005646,-0.19393041729927063,-0.6685523390769958,-0.08837339282035828,0.3803338408470154,-1.1546190977096558,-0.028536953032016754,0.3767060935497284,-0.6791680455207825,-2.193519115447998,0.29905131459236145,-0.7676196098327637,-1.6060504913330078,-0.31104138493537903,0.0013354282127693295,0.5128440260887146,-0.6800557374954224,0.021264424547553062,0.5597727298736572,-0.5314624309539795,0.5803877115249634,-1.3035420179367065,0.6050328016281128,-1.286831021308899,0.026357511058449745,0.5051800012588501,-0.9114113450050354,-0.19621290266513824,0.2721438705921173,-1.6265641450881958,0.011158440262079239,-0.7897142767906189,0.3481675088405609,0.4646269679069519,0.3007400929927826
45,-0.34949323534965515,-0.4453006088733673,0.13922196626663208,0.7336286902427673,-0.49092403054237366,-0.686942994594574,-0.10311246663331985,-1.3103941679000854,0.5959256291389465,0.34825196862220764,-0.1208823099732399,-0.7691066265106201,-0.024961628019809723,-0.17835330963134766,0.41922563314437866,0.8607082962989807,-0.9992058277130127,-0.9328671097755432,0.5693283081054688,-0.05558522418141365,0.9089586734771729,-1.2006608247756958,-0.49260765314102173,-0.448162704706192,-0.39096254110336304,0.3057858347892761,-0.36751416325569153,-0.3564097583293915,-1.1903120279312134,0.16440549492835999,-1.2406063079833984,0.38974449038505554,-0.7331624031066895,-0.611605703830719,0.43732312321662903,-0.07202226668596268,0.4801693558692932,-0.2721312642097473,0.22389711439609528,-0.9581318497657776,1.2425774335861206,-0.32376164197921753,-0.06701167672872543,0.7139189839363098,0.1087549701333046,1.5299911499023438,0.8145433068275452,-2.809363603591919,0.8104190826416016,-0.18943487107753754,0.015314290300011635,0.1683599203824997,0.2999907433986664,-0.6664896011352539,0.00878814235329628,0.42652034759521484,-0.7426339387893677,-0.32735884189605713,-0.42600056529045105,-0.9626340866088867,1.208505392074585,-0.5744314193725586,-0.11375027894973755,-1.1826430559158325
46,-1.024505853652954,-0.43699920177459717,0.6134215593338013,-0.362792044878006,0.06772278994321823,-0.4683842360973358,0.0530129112303257,-0.16965310275554657,-0.03359716385602951,1.2834889888763428,-0.2668052017688751,1.0458199977874756,0.32846468687057495,0.19560158252716064,0.3403546214103699,0.3784317970275879,-0.44111400842666626,-1.969463586807251,0.2964738607406616,0.03904631361365318,0.8496050834655762,-0.44312047958374023,0.7206650376319885,0.4587026834487915,-0.3563690483570099,1.232487440109253,0.26987358927726746,0.8912400007247925,-1.7212586402893066,-0.7029923796653748,0.094619981944561,-0.707231879234314,1.7971992492675781,-1.2725566625595093,-0.5432549715042114,-0.04634634405374527,-0.3150275647640228,0.9731486439704895,-0.852333128452301,-0.5371028780937195,-0.619175136089325,0.3306085467338562,-1.1344634294509888,-0.2957080006599426,-0.4491594433784485,-1.2013452053070068,-1.1830241680145264,0.6888049840927124,-1.7395477294921875,-0.7406774163246155,-0.14457745850086212,1.0962473154067993,0.49973055720329285,-0.4870639443397522,-0.3985465466976166,-0.8501967787742615,0.2703195810317993,0.35416102409362793,-0.14162124693393707,0.10701432079076767,0.2693546712398529,1.1198790073394775,0.04938723146915436,-1.7139748334884644
47,-0.33231914043426514,0.2620725929737091,-1.9529114961624146,-1.052330493927002,-0.3359789252281189,0.36046773195266724,0.06026151776313782,0.4079801142215729,0.1737675815820694,-0.6005513072013855,-0.24336378276348114,-0.6823837757110596,0.4233521521091461,-0.6039594411849976,-1.197786569595337,-0.7300525903701782,0.6124268770217896,-0.5852152109146118,-0.5038758516311646,-0.047899533063173294,-0.2105759084224701,0.15720729529857635,-1.5848584175109863,-0.9253221154212952,0.16891753673553467,0.2956677973270416,-1.545654535293579,0.08559883385896683,0.7903865575790405,0.6777374744415283,-1.85031259059906,0.5587783455848694,-0.3738161027431488,-0.9838342666625977,-0.8159283995628357,-0.04262629896402359,-1.322324514389038,0.15147842466831207,0.6010424494743347,0.07801171392202377,1.344709873199463,-1.3255548477172852,0.7532111406326294,-0.47717908024787903,-0.7802907824516296,0.07854492962360382,-0.003754358971491456,0.007369055878371,0.4648134410381317,0.27209848165512085,0.39575180411338806,-0.5893351435661316,0.4300534725189209,-0.9709491729736328,0.6697179675102234,-0.05008137598633766,-1.654313564300537,-0.18543191254138947,-0.4403688609600067,0.5421102046966553,0.2451726198196411,0.2645834982395172,-0.23416659235954285,0.13429781794548035
48,-0.3557054400444031,-0.40904563665390015,-0.47913268208503723,-0.8243799805641174,-0.10658993571996689,-0.6575853824615479,-0.10759404301643372,-1.3300986289978027,0.1377868950366974,0.2783484160900116,0.4285949468612671,-0.8670895099639893,-0.037019994109869,-0.8541833162307739,-0.4755914509296417,-0.019457781687378883,-1.1318995952606201,0.4859136641025543,-0.020568303763866425,-0.13253185153007507,-0.25678786635398865,-0.5122599005699158,0.10153920203447342,-0.044068168848752975,0.5422784090042114,0.5968116521835327,-0.0921962782740593,0.15471550822257996,0.6790834665298462,-0.7118387222290039,-1.022592544555664,-1.42948579788208,0.36145728826522827,0.05729386582970619,0.03325467184185982,-0.08988892287015915,0.3964553475379944,-0.8845042586326599,-1.0028393268585205,0.1389968991279602,-0.2965433597564697,-0.1888732612133026,-0.4458765387535095,0.10278955847024918,0.3979661166667938,-0.3864997625350952,-0.05368363857269287,-1.1427592039108276,0.8045943379402161,-0.12781324982643127,1.2839395999908447,0.20112018287181854,-0.7078510522842407,0.2654356360435486,-0.5918587446212769,0.5876210927963257,-0.41530850529670715,0.4108748435974121,0.15612030029296875,-1.6911494731903076,0.46216893196105957,0.3075937032699585,-0.44619977474212646,-0.011571787297725677
49,0.3601582646369934,1.0307501554489136,-1.256332516670227,0.6886895298957825,-0.16839885711669922,-0.7189797759056091,-0.27939844131469727,0.2568480372428894,0.009648792445659637,0.15725280344486237,-1.0456676483154297,0.8525886535644531,0.4379092752933502,0.8009684681892395,-0.12803596258163452,0.37506499886512756,0.09793485701084137,0.37892934679985046,1.3182806968688965,0.0167979933321476,0.2570977509021759,-0.6100084185600281,-0.5330630540847778,-0.7463117837905884,-0.4485122859477997,-0.7847141027450562,0.6674030423164368,-0.04907543212175369,-0.38321396708488464,-1.226753830909729,-0.5516355037689209,0.3937062621116638,0.12421947717666626,-1.3195611238479614,0.3181131184101105,0.02863658405840397,-0.0003582854405976832,-0.9798622131347656,-0.08256351947784424,0.8900104761123657,0.3862220346927643,-0.717591404914856,-0.5731150507926941,-0.15110352635383606,-0.3258277475833893,-0.08800789713859558,-0.10578064620494843,0.9374440312385559,-0.725003182888031,0.3499932289123535,-0.6545529365539551,0.16951411962509155,0.4992035925388336,0.8942221403121948,0.6611452102661133,-0.0421273447573185,-0.47332653403282166,0.115411177277565,0.38340115547180176,1.7202922105789185,-1.2780754566192627,0.4431088864803314,0.27155810594558716,-0.04291766881942749
50,-0.45375514030456543,0.26556217670440674,0.09267489612102509,0.9370947480201721,-0.4523809552192688,-1.2647135257720947,-0.21909047663211823,0.28026995062828064,0.2634649872779846,-0.9776572585105896,-0.29195308685302734,0.28954577445983887,-0.5622910857200623,-0.6888387799263,-0.09800954908132553,-0.08605746179819107,-0.22304457426071167,-0.6309743523597717,-0.4015572667121887,-0.01170212123543024,-0.06984498351812363,0.0684652253985405,-0.29434734582901,0.48566535115242004,0.6426485180854797,-0.15358485281467438,0.24031873047351837,0.01884501427412033,0.03139520063996315,-0.0594235360622406,-0.04482758417725563,0.26595398783683777,0.5348082780838013,0.08823877573013306,-0.6004781723022461,-0.022381864488124847,-0.741091787815094,0.03376268595457077,-1.2833501100540161,-0.13483798503875732,-1.4899864196777344,-0.9589828848838806,-0.13876579701900482,-0.21426497399806976,0.6608210802078247,-1.5499119758605957,-0.02059725485742092,0.1410336047410965,-0.20853860676288605,0.02017107419669628,0.4113219380378723,-0.06577729433774948,-0.743131160736084,-0.3413613736629486,-0.04601439833641052,-1.4978840351104736,-0.3195328414440155,0.7202677130699158,-1.493160367012024,-0.17628565430641174,-1.1189299821853638,-0.05884009972214699,0.17091645300388336,-0.5949398279190063
51,0.1759774088859558,-0.4292498826980591,-1.5081148147583008,-0.8337366580963135,-0.2362246811389923,-0.3897767663002014,-0.08865487575531006,-0.13553352653980255,1.3794397115707397,0.9717225432395935,-0.6315789818763733,-0.4833180010318756,0.9705817699432373,-0.20889122784137726,0.027776990085840225,0.43719542026519775,-0.2142220437526703,-0.6582496762275696,-1.0123953819274902,-0.03256189078092575,0.27892500162124634,0.327191025018692,-1.4780653715133667,0.25658872723579407,0.058797724545001984,1.11933434009552,-0.35004308819770813,0.7651305794715881,-0.9199804663658142,0.516725480556488,-0.12970855832099915,-0.9326843023300171,-0.9338269233703613,-0.18350297212600708,0.5700108408927917,0.051124535501003265,0.970842182636261,1.0288708209991455,0.5044302344322205,-1.2834292650222778,0.027687981724739075,-0.7800388336181641,-0.42476773262023926,0.1749793291091919,-1.3875834941864014,1.2109311819076538,-0.7873806953430176,0.4725136160850525,0.49531620740890503,0.12471509724855423,-0.9995822310447693,0.9820729494094849,0.03006979078054428,-1.410276174545288,-1.017812728881836,0.5044986009597778,-0.21876788139343262,0.7352017164230347,-0.9417534470558167,0.3174970746040344,-0.10527466237545013,0.40453577041625977,0.012433033436536789,-1.4831510782241821
52,-0.04760757461190224,-0.1669614464044571,0.9404408931732178,-0.3293035328388214,-0.0013266535243019462,0.05510880425572395,-0.13334475457668304,0.8693202137947083,0.1069691851735115,0.13736404478549957,-0.4197448194026947,0.22035793960094452,-0.3702087104320526,-0.21694746613502502,0.7800830602645874,0.9281042218208313,-0.704338788986206,0.21384115517139435,-0.14751125872135162,0.024682050570845604,0.6828231811523438,-0.34407541155815125,-0.18743638694286346,-0.01772247441112995,-0.41840165853500366,0.05022447928786278,-0.11417648196220398,0.10426032543182373,-0.11970476806163788,-0.6170296669006348,-0.48788323998451233,0.38001200556755066,0.2972896695137024,-0.07916568964719772,0.1388142704963684,-0.010382876731455326,0.633624255657196,0.6371164321899414,0.4426298439502716,0.040301207453012466,-0.01715145818889141,0.07436831295490265,0.22610163688659668,-0.1588570773601532,-0.15646372735500336,0.2690078616142273,0.07296464592218399,-0.143473282456398,-0.019539058208465576,-0.2368343323469162,-0.6533893942832947,0.20903389155864716,0.8750728368759155,0.006370547693222761,0.06689473241567612,-0.1875874251127243,0.22664713859558105,-0.3832137882709503,0.03620021417737007,-0.44824084639549255,-0.14355649054050446,1.2613842487335205,-0.1788436323404312,0.3429791033267975
53,-0.9154589176177979,0.3263114392757416,-0.7238191366195679,0.7558625936508179,-0.13533872365951538,-0.6191204786300659,-0.3585493266582489,-0.42977023124694824,0.8925694227218628,-0.23291851580142975,0.04783749207854271,0.8713380098342896,1.104086995124817,-0.8991330862045288,0.3345435857772827,0.9297227263450623,-0.7501171827316284,-1.7751609086990356,0.39183127880096436,-0.039032943546772,0.12226513773202896,-0.2962912321090698,-0.9332559704780579,0.4310307800769806,1.0897854566574097,0.1962924599647522,-0.3332318663597107,0.6308442950248718,0.438545286655426,0.6893245577812195,-0.5813935399055481,-1.1886307001113892,-0.26948636770248413,0.648176908493042,-1.0254348516464233,-0.13815851509571075,-1.0233601331710815,0.15163299441337585,0.12415241450071335,-1.0736703872680664,1.1047462224960327,-0.7007234692573547,-0.04176441580057144,-0.8175967335700989,-0.7568898797035217,0.32005998492240906,-0.3187761604785919,0.8133964538574219,-0.013214806094765663,1.2569864988327026,0.5431999564170837,0.11140292137861252,0.37091827392578125,-0.22309017181396484,0.48718196153640747,-0.2932437062263489,-1.2038068771362305,-0.4941549003124237,-0.31286025047302246,0.34086206555366516,0.21692202985286713,1.440916657447815,0.05823715776205063,-1.6473444700241089
54,-0.08671902865171432,-0.12915882468223572,0.04466451331973076,-0.5967344045639038,-0.2230449616909027,-0.11581500619649887,-0.34019729495048523,-0.3811192214488983,-1.078471302986145,-0.2550232708454132,0.41907256841659546,-0.1449992060661316,-0.8874287009239197,-0.7618475556373596,-1.847260594367981,-0.251653254032135,-1.3369861841201782,-0.43569332361221313,-0.8373440504074097,-0.13684764504432678,-0.5025812983512878,0.10323630273342133,-1.166368007659912,-0.7127854824066162,0.11912001669406891,-1.5063223838806152,0.27486807107925415,-0.14095483720302582,-0.01230882853269577,0.0754215195775032,-0.04886317998170853,-0.541488766670227,-0.34356948733329773,-0.07312746345996857,-1.0548019409179688,-0.1579885482788086,-1.2252259254455566,-0.4005545675754547,-0.46453332901000977,-0.502760112285614,-0.8447560667991638,-1.2307991981506348,-0.17359259724617004,-0.6011605858802795,-0.5912085175514221,-0.2188873440027237,-0.2659142315387726,-0.1843789666891098,-0.09270147979259491,-0.06750083714723587,-0.0818830356001854,-0.5723127722740173,-0.7397440671920776,-0.20118007063865662,-0.7767835259437561,0.050777144730091095,-0.5609132051467896,-0.8154928684234619,0.1827978640794754,-0.12327897548675537,-0.537547767162323,-0.48480844497680664,-0.10138355195522308,-1.9528406858444214
55,-0.6027039289474487,1.0387734174728394,-0.12195266038179398,0.1380636841058731,-0.27544307708740234,0.07917612791061401,-0.1596023440361023,-0.9482264518737793,0.5291711688041687,0.9975178241729736,-0.1778278350830078,-0.966437578201294,0.6182710528373718,-0.21872586011886597,-0.10752391070127487,0.6588348746299744,0.1634466052055359,0.1831793636083603,0.37685343623161316,-0.009768638759851456,-0.145940363407135,-1.1015063524246216,0.07119900733232498,0.39891505241394043,-0.4329083561897278,-0.0689525455236435,1.0525429248809814,0.4373946189880371,-0.04960688576102257,-0.5460096001625061,-0.5394502282142639,-0.9388956427574158,-0.9239160418510437,0.8204778432846069,0.14073798060417175,-0.07899034768342972,0.18982112407684326,-1.0770220756530762,-0.9955072402954102,-0.6756203770637512,-0.10418491810560226,-0.7287904024124146,-0.48326587677001953,-0.34121719002723694,1.0077781677246094,0.8476563096046448,-0.3647501468658447,-0.6487582921981812,0.4686621427536011,0.10816636681556702,-0.5217797160148621,0.45991119742393494,1.0215317010879517,-0.6315485239028931,-1.0069892406463623,0.11154426634311676,-1.24959135055542,0.23696866631507874,-0.4858887791633606,-0.12455801665782928,-0.09041021019220352,0.20902003347873688,-0.005707988049834967,-0.1949707269668579
56,-0.005151929333806038,0.3443998694419861,-0.5345959067344666,0.22138510644435883,-0.17223097383975983,-0.47208958864212036,0.1110556423664093,0.3997817039489746,-0.17478172481060028,-0.34989848732948303,-1.1478335857391357,-0.5808187127113342,-1.0222529172897339,-0.524985671043396,0.22123606503009796,-1.890491247177124,-0.597496747970581,-0.9822261333465576,0.40073147416114807,-0.08321001380681992,-0.26914677023887634,-1.1591395139694214,-1.1440504789352417,0.05323087051510811,0.24290825426578522,-0.3269786536693573,0.31286942958831787,0.23072175681591034,0.3362944424152374,-0.03637941554188728,-0.28542083501815796,-0.6126149296760559,-0.970775306224823,0.035788118839263916,0.16566941142082214,-0.09403233975172043,-0.7171118855476379,-1.932921290397644,0.06903693079948425,-1.122793436050415,0.6801822781562805,-0.3072670102119446,0.206986665725708,-0.14355570077896118,-0.014128467999398708,0.6977078914642334,0.4986741244792938,-0.31070733070373535,1.2886085510253906,0.6209909319877625,0.5263227224349976,-0.6529423594474792,0.6047350764274597,-0.8302674889564514,0.7379496693611145,0.12716686725616455,-0.2650579512119293,-0.66337651014328,0.5799437165260315,0.685681164264679,0.9092455506324768,0.07273288816213608,-0.004500186070799828,-0.5125811100006104
57,0.569399893283844,-0.6047725081443787,0.2989014983177185,0.3195178806781769,-0.10803999751806259,-0.5328148603439331,-0.2257533073425293,-0.3615110218524933,-0.945909857749939,-0.0419110469520092,-0.18805204331874847,0.7047134041786194,-0.3186599016189575,0.060584548860788345,0.36651676893234253,0.6349806785583496,-0.7942531704902649,0.19295845925807953,-1.391395926475525,-0.060887645930051804,0.056317996233701706,0.12042262405157089,0.8234237432479858,0.29043474793434143,-0.039817336946725845,0.6978185772895813,-0.30078017711639404,-0.5244278907775879,-2.0865347385406494,-0.382477343082428,0.7729406952857971,0.15227267146110535,0.2919546961784363,-0.3721596896648407,-0.2590287923812866,-0.018221275880932808,-0.9846202731132507,0.6447595953941345,-1.2645018100738525,0.4427782893180847,-1.075609803199768,0.9067619442939758,-0.31068119406700134,-0.8415948748588562,-0.04381667077541351,-1.653562307357788,-0.256043940782547,0.1372104436159134,-0.8114756941795349,-1.1359003782272339,-1.7724674940109253,-0.3280368149280548,-0.9810838103294373,-0.5028954148292542,-0.09308908134698868,-1.4936573505401611,0.3068167567253113,-1.2466187477111816,-1.7400530576705933,-0.21699318289756775,-0.8217846751213074,0.511204719543457,-0.5263257026672363,0.27354925870895386
58,-0.04585714265704155,0.08655500411987305,0.015261012129485607,-0.06603990495204926,0.05617355927824974,0.05695338174700737,-0.034828562289476395,-0.029884904623031616,-0.04972042888402939,-0.055730100721120834,0.05139000713825226,0.009561396203935146,0.011114075779914856,-0.034866172820329666,-0.027308639138936996,0.06496331840753555,0.07394611835479736,0.06015382707118988,0.06973171979188919,0.07236367464065552,0.06358102709054947,-0.008718907833099365,-0.04278883710503578,-0.02072376012802124,0.0754636600613594,0.029048724099993706,-0.027961738407611847,-0.04608708620071411,0.0018552206456661224,-0.09764266759157181,0.028575565665960312,0.0038092476315796375,0.05339561030268669,-0.012055205181241035,0.02855452336370945,0.06501320004463196,-0.10470213741064072,0.00932338833808899,-0.061080142855644226,0.07701435685157776,-0.051026441156864166,-0.10339798033237457,0.07888826727867126,0.03828931599855423,-0.008875188417732716,-0.005455177742987871,-0.046051330864429474,-0.016781562939286232,-0.024219296872615814,-0.040064044296741486,0.06106200069189072,0.009381013922393322,-0.04167413339018822,-0.05783337727189064,-0.07980618625879288,-0.03794350102543831,0.02424565888941288,0.06956945359706879,-0.0952603816986084,0.006134485360234976,0.08930005133152008,0.04777408763766289,0.029229070991277695,-0.04637898877263069
59,0.0797974020242691,-1.0330801010131836,0.689600944519043,0.1859813630580902,0.025925513356924057,-0.009125703945755959,-0.2293904423713684,-0.4543541371822357,-0.932999312877655,-0.09706303477287292,-0.8057268261909485,0.2024552971124649,-0.4152391254901886,0.09102190285921097,0.6890982389450073,0.29841914772987366,0.827581524848938,-0.5511425137519836,0.32433217763900757,-0.010267834179103374,-0.012043135240674019,-1.12562894821167,0.7858089208602905,0.3616573214530945,-1.0656319856643677,1.0226719379425049,-1.5078823566436768,0.14132945239543915,-1.2035590410232544,-0.07736681401729584,-0.11168402433395386,0.15614904463291168,-0.541271448135376,-0.15269827842712402,-0.42227697372436523,-0.03947213664650917,-0.15779352188110352,-0.35685864090919495,-0.47998934984207153,0.7579479217529297,-0.1022447943687439,-0.3756715655326843,-1.6242358684539795,-1.0467888116836548,0.6717407703399658,-0.6427866220474243,-0.24110771715641022,-0.7259793877601624,-0.3157161474227905,-0.5546385645866394,0.10388065129518509,0.18047305941581726,-0.9104587435722351,-0.7064666748046875,0.21010898053646088,-0.3079524040222168,-0.010155687108635902,0.23654857277870178,-0.7968031167984009,-1.4410431385040283,-1.2733986377716064,-0.202133446931839,0.18814505636692047,0.989421546459198
60,-1.9418848752975464,0.8501073122024536,0.4629925787448883,-0.5611444711685181,0.04844117909669876,-0.6211653351783752,0.08298275619745255,-1.4616495370864868,-0.09736006706953049,0.7467730045318604,-0.16840387880802155,0.35414382815361023,0.3344646692276001,-0.6535660028457642,0.3370268940925598,0.01570317894220352,-0.5432862639427185,-0.852486789226532,-0.8922531008720398,-0.04210248589515686,0.8867236971855164,-0.14850156009197235,0.07364530861377716,0.7509384751319885,-1.0360785722732544,1.2927459478378296,-0.15506736934185028,-0.9563441276550293,0.2616618871688843,-0.4980376958847046,-0.2990708351135254,-0.36796265840530396,0.24996376037597656,-0.2802475392818451,-0.01061233039945364,-0.05766979604959488,0.18352408707141876,0.5245382785797119,0.7595196962356567,-0.605655312538147,-0.2831125557422638,0.30866989493370056,0.431201308965683,-0.29176798462867737,-1.166009545326233,-0.6699603199958801,-1.737411618232727,0.7375310659408569,-0.4022716283798218,-0.6175861358642578,-0.8303130865097046,0.7859856486320496,0.8904601335525513,-0.5498184561729431,-0.07056988775730133,-1.5373677015304565,-0.28308168053627014,0.6428430676460266,-0.3077392876148224,0.48677700757980347,1.17376708984375,-0.054511260241270065,-0.23131929337978363,-0.4664684236049652
61,-1.6762300729751587,-1.0232980251312256,-0.18385356664657593,0.5293750166893005,-0.04866139963269234,-0.6723235845565796,-0.4127786159515381,-0.8849717378616333,1.173269510269165,0.5129386186599731,0.1186944842338562,0.14627154171466827,-0.16221439838409424,0.23520542681217194,0.4447849988937378,1.049460530281067,-0.48559466004371643,-1.2855380773544312,0.3684863746166229,-0.006248779129236937,-0.36149081587791443,-1.401271104812622,-1.1626516580581665,-0.7349728941917419,-0.3653131127357483,-0.7612612247467041,-0.5644723773002625,-0.5029672980308533,0.45241349935531616,1.1195329427719116,-0.3477444350719452,-0.5068600177764893,-0.8521115779876709,-0.3700392246246338,0.8120902180671692,-0.06066099926829338,1.1272985935211182,-1.1076675653457642,1.177196741104126,0.6756120920181274,0.6203320622444153,-0.45977112650871277,0.869947075843811,0.8367025256156921,0.17992301285266876,1.5919526815414429,0.5401943325996399,-0.8890343904495239,1.2723008394241333,-0.5115422606468201,0.4798683226108551,0.5931082963943481,-0.7430229783058167,0.4735194444656372,-0.5726273059844971,0.3544914126396179,-0.6409279108047485,-0.36861729621887207,-0.01450315024703741,-0.6593166589736938,-0.051144540309906006,-0.18790368735790253,0.3616335391998291,-1.7223283052444458
62,0.05753965675830841,0.06729761511087418,0.09109019488096237,0.011922219768166542,-0.013105425052344799,0.04423844441771507,0.026454005390405655,0.105422742664814,0.01440597977489233,-0.004794210195541382,-0.07520952075719833,0.02920064516365528,0.09102872014045715,0.014791706576943398,0.019873932003974915,-0.007131120190024376,0.055243682116270065,-0.054527267813682556,-0.03244997560977936,0.02496042475104332,0.023873645812273026,-0.029549913480877876,0.07918841391801834,-0.014465438202023506,-0.09196624159812927,-0.09855439513921738,-0.03377232328057289,0.032842908054590225,0.0597861185669899,0.04022162780165672,-0.04447672888636589,-0.004007928539067507,-0.05386672168970108,0.060702499002218246,0.048424702137708664,-0.04597511887550354,0.01673431694507599,-0.03260483965277672,0.06368359923362732,-0.041389573365449905,0.023679066449403763,0.08599245548248291,0.06821610033512115,0.005092415027320385,0.047521449625492096,-0.03455769270658493,0.07184958457946777,0.026596849784255028,0.01769164204597473,-0.06740222126245499,-0.03320649266242981,-0.011491759680211544,0.03546755760908127,-0.005656932946294546,-0.0010593610350042582,-0.013489998877048492,-0.05359895899891853,0.067566879093647,-0.039318762719631195,0.05459368973970413,0.01626064069569111,0.09139738976955414,-0.05993971601128578,-0.049436524510383606
63,-0.29377445578575134,0.06972037255764008,0.2167542725801468,-1.1354331970214844,-0.37660279870033264,-0.39056310057640076,-0.19875602424144745,-1.092322826385498,-0.2502173185348511,-0.19461435079574585,0.4522921144962311,-0.38858017325401306,0.31556937098503113,-0.39282262325286865,-1.8390878438949585,-1.4075556993484497,-0.47065308690071106,-0.20955123007297516,-0.43797749280929565,-0.013517250306904316,-0.8003559112548828,0.4674626886844635,-1.0120512247085571,0.3996340036392212,0.06521739810705185,-1.6714826822280884,0.5362513661384583,0.19663934409618378,0.1662139743566513,-0.13464590907096863,-0.21028541028499603,-0.579609751701355,0.09342186897993088,0.4677291810512543,-1.0560697317123413,-0.1378338783979416,-0.5790144205093384,-0.06807580590248108,0.10871025174856186,-0.6754633784294128,0.08205370604991913,-0.9172926545143127,0.2440311312675476,-0.9818319082260132,-0.8103502988815308,0.5078046321868896,0.14979220926761627,0.16660046577453613,0.060358062386512756,-0.14629510045051575,0.7880606055259705,-0.23592783510684967,-0.024373149499297142,0.06320503354072571,-0.5835482478141785,0.023070573806762695,0.1602078080177307,-0.2988852560520172,-1.0460550785064697,0.416897714138031,-0.1763773411512375,-1.0343925952911377,0.0848802998661995,-0.1274556666612625
64,-0.175641730427742,-1.895209550857544,-0.26834729313850403,0.729550838470459,0.12390395998954773,-0.8733512759208679,-0.06567316502332687,0.22360780835151672,0.2653530538082123,0.33713221549987793,-0.03775946423411369,-0.45271581411361694,0.26815393567085266,-0.8840007781982422,-0.12980927526950836,-1.5516277551651,0.10445956140756607,0.29864728450775146,-0.9397605061531067,-0.09956968575716019,-1.5055843591690063,-0.34598350524902344,0.6628026962280273,-0.4138614237308502,0.2567439079284668,-0.07078560441732407,-0.02825826220214367,-0.9104843139648438,-0.8269798159599304,-0.5055658221244812,-0.8633406758308411,-0.5299656391143799,-0.159107506275177,-0.5968863368034363,0.21198983490467072,-0.06921087205410004,0.5375818610191345,-0.7234299182891846,-1.0859235525131226,-0.12482783198356628,-0.04904172942042351,-0.21717046201229095,-1.1489731073379517,-0.38503068685531616,0.8718767166137695,0.33667269349098206,0.9132658243179321,-0.7998877167701721,-0.28235211968421936,0.10146038234233856,-0.1637231409549713,0.053280897438526154,-0.8215501308441162,-0.23788267374038696,0.013354082591831684,0.2385551929473877,0.3209156095981598,-0.07570011913776398,0.04472459480166435,-0.9779360890388489,-0.3424810767173767,-0.05409473925828934,-0.44132548570632935,-0.828579843044281
65,-1.8574011325836182,-0.6418505907058716,-0.12553726136684418,0.018599115312099457,-0.1751824915409088,-0.1819535344839096,-0.11639336496591568,-0.9080381393432617,-0.6245951652526855,0.2980795204639435,-0.37635689973831177,0.014669986441731453,-0.48805391788482666,-0.3232611417770386,0.8763608932495117,-0.13877177238464355,-0.253483384847641,-0.0475802905857563,-0.4873769283294678,-0.04754970595240593,0.10728900879621506,-1.677579402923584,0.362820029258728,-0.5696231126785278,-0.650810956954956,0.5131115317344666,-0.8560734987258911,-0.7511089444160461,-0.21422210335731506,-0.540320634841919,-1.8266215324401855,-0.8065870404243469,-0.05598481371998787,-0.9157098531723022,-0.3512047231197357,-0.06750066578388214,-0.05084318295121193,-0.795685887336731,-1.4026908874511719,-0.11554203927516937,-0.4256483018398285,0.22186967730522156,-0.8726657032966614,-0.9845695495605469,0.46475544571876526,-0.09470066428184509,0.10258109122514725,-0.112336166203022,-1.958791732788086,0.21302494406700134,-1.2193695306777954,-0.1736719161272049,-1.0455048084259033,0.06159428134560585,0.06384342163801193,0.15546445548534393,0.44472214579582214,0.009795820340514183,-0.2672293186187744,-0.24241380393505096,-0.1405360996723175,0.31848105788230896,-1.1838628053665161,-0.13384006917476654
66,-0.7839647531509399,0.233861044049263,-0.9941915273666382,0.1479530781507492,-0.2713571786880493,0.9276360869407654,-0.10872910171747208,-0.2650718092918396,-0.018111512064933777,-0.4882250130176544,0.3875988721847534,-0.413522332906723,-0.8230158686637878,0.4190402925014496,0.49663135409355164,0.16267091035842896,-0.07830461114645004,-0.3020924925804138,0.5007296204566956,-0.017481256276369095,-1.0519707202911377,1.1625415086746216,-1.3096187114715576,0.19254924356937408,-0.2827747166156769,-0.7028452157974243,-0.6115917563438416,-0.3061322867870331,0.7230660915374756,-0.03922857344150543,-0.18592070043087006,0.04242732748389244,0.4314333498477936,0.45469167828559875,-0.5330744385719299,-0.023850085213780403,-0.5635708570480347,0.7357540726661682,-0.36653244495391846,0.6722900867462158,0.42389270663261414,-0.736160397529602,0.3362618088722229,-0.8169685006141663,0.03983946144580841,-0.5053863525390625,0.2739208936691284,0.12631537020206451,0.11752306669950485,-0.09883899986743927,0.21056632697582245,-0.4887557029724121,0.3433663845062256,0.35240286588668823,-0.28637611865997314,-0.8155585527420044,-0.35298722982406616,-0.14963603019714355,-0.27409595251083374,-0.005922652315348387,-1.0757557153701782,-1.163016676902771,-0.6629091501235962,-0.5576724410057068
67,-1.0452702045440674,-0.518578052520752,0.4753226935863495,0.26281580328941345,-0.01804804429411888,-0.4516902267932892,-0.025907002389431,-0.381180077791214,0.29537856578826904,-0.17039090394973755,-0.18588195741176605,-1.3203644752502441,0.01422895211726427,-0.8603241443634033,0.26333752274513245,-0.380367636680603,-0.23599497973918915,0.44438061118125916,-0.7986248135566711,-0.06481243669986725,-0.46221649646759033,-0.358378142118454,-0.2087605893611908,0.18101751804351807,-0.22991642355918884,0.15096218883991241,-0.6620601415634155,0.14792011678218842,-0.5368753671646118,0.07731228321790695,0.42895713448524475,-0.24142396450042725,-0.7165827751159668,0.6062883734703064,-0.2666323781013489,-0.06256186217069626,-0.5383520126342773,-0.6484846472740173,-1.0540826320648193,-0.31345945596694946,-1.2001458406448364,-0.6508005261421204,-0.9014590382575989,0.38364654779434204,0.5614568591117859,0.7305904030799866,0.3034047484397888,-0.7118215560913086,0.543914258480072,0.1959889531135559,-0.35819941759109497,-0.05344119295477867,-0.31364765763282776,-0.3062608242034912,-1.3506648540496826,0.24020348489284515,-1.4563227891921997,-0.13394096493721008,0.5128337144851685,-1.0366735458374023,-0.09505929797887802,-0.6787197589874268,-0.19225455820560455,0.16492612659931183
68,0.5397584438323975,0.47151514887809753,-0.24884295463562012,-0.051329780369997025,-0.1992141306400299,0.11742642521858215,0.013375837355852127,0.7804322242736816,0.13780155777931213,-0.4815308153629303,0.2401835024356842,0.41997209191322327,-0.7887307405471802,-0.08319483697414398,-1.2249566316604614,-0.2886148691177368,0.005331540014594793,-0.9027103781700134,0.7364946007728577,-0.031238935887813568,1.2049720287322998,0.988540530204773,-0.1290864795446396,-0.06251729279756546,0.5327808260917664,-0.3265768885612488,0.9627060890197754,0.6120835542678833,0.003886877093464136,-1.2639572620391846,-1.296188473701477,-0.7841790318489075,-1.0085015296936035,-1.0007699728012085,-0.6398988366127014,-0.13000111281871796,-0.8296750783920288,0.32471874356269836,-0.15957598388195038,0.5209066271781921,-0.13473577797412872,-1.656941294670105,0.37913745641708374,-0.5786929130554199,-0.04663947969675064,-0.17656047642230988,-1.0041004419326782,0.22358350455760956,0.07351332157850266,-0.47376748919487,-0.1082555279135704,-1.997313380241394,0.6034120321273804,0.5407987236976624,-1.1713473796844482,-0.6012305021286011,-0.8112274408340454,-0.21532876789569855,-0.06456638127565384,0.8341125249862671,0.4472272992134094,1.0643937587738037,-0.1773364394903183,-0.0395856574177742
69,0.14808355271816254,1.2294081449508667,0.8701344132423401,-0.12848207354545593,0.024593476206064224,0.36094582080841064,-0.3868495523929596,-0.8719244003295898,-0.12653593719005585,0.8921111226081848,0.3392806947231293,0.43969976902008057,0.4756323993206024,0.21765545010566711,0.6205456852912903,0.0806555524468422,0.9104689359664917,0.6192605495452881,-0.03989771008491516,-0.0034360329154878855,0.19591107964515686,-0.15145061910152435,0.880411684513092,0.3944527804851532,-2.453935384750366,-0.1693333387374878,-1.2608325481414795,-0.9860666990280151,-0.409341961145401,-0.6745139956474304,0.5693372488021851,0.3490516245365143,-0.47874993085861206,-1.8385483026504517,0.10613459348678589,-0.07794076949357986,1.4176546335220337,0.027043618261814117,0.4620225429534912,-0.18692819774150848,0.337923139333725,0.023623695597052574,0.387785404920578,0.09835981577634811,-1.0804753303527832,0.09676408022642136,-0.620841383934021,0.6289461851119995,-0.40952056646347046,-0.8050752878189087,-0.713690459728241,-0.37542253732681274,0.3749086856842041,0.17667315900325775,-1.4166274070739746,0.34657222032546997,0.27172473073005676,-0.5369644165039062,-0.5767021775245667,0.12167878448963165,-0.052282802760601044,0.08030673861503601,-0.23351675271987915,0.17699596285820007
70,-1.4004765748977661,-1.1535435914993286,-0.4100680947303772,0.416096568107605,-0.2821034789085388,-1.1111257076263428,-0.06536547094583511,0.12384301424026489,0.32438889145851135,-0.5763717889785767,-0.25138312578201294,0.6573347449302673,0.16462251543998718,-1.6834356784820557,0.6632063984870911,-0.6855533123016357,0.45105651021003723,-0.8293925523757935,-0.2110641598701477,-0.04847223684191704,0.35690730810165405,-0.40992069244384766,0.141642764210701,0.34675538539886475,-0.541915237903595,-0.14071686565876007,0.09628668427467346,-0.5276674628257751,-1.399935007095337,-0.24385018646717072,0.09588363021612167,-0.2790248692035675,0.8404300212860107,-1.0813977718353271,1.427678108215332,-0.06914461404085159,0.9263419508934021,-0.6227802038192749,0.379074364900589,-0.38387736678123474,-0.9767774343490601,-0.04408502206206322,-0.2748289704322815,1.5678445100784302,0.5657262802124023,0.6595569849014282,1.0923142433166504,-0.5277941823005676,-0.6972547769546509,-0.7909389734268188,-0.40290939807891846,-0.5035223364830017,-0.948931872844696,-0.8261837959289551,0.656872034072876,0.5309777855873108,0.6031067371368408,0.1563127487897873,0.26441532373428345,-0.11205044388771057,0.916415274143219,-0.18727046251296997,0.525920569896698,-0.5915509462356567
71,0.32439422607421875,0.818446934223175,-0.9395196437835693,0.36675435304641724,-0.06412681192159653,0.1560577154159546,0.015576045028865337,-0.8235073685646057,-0.7415846586227417,-0.295183390378952,0.07297541201114655,-1.0295906066894531,-1.470159888267517,0.04282251372933388,0.4483770728111267,-1.2433987855911255,0.08863614499568939,0.6849343180656433,0.18834510445594788,0.018606482073664665,-0.4169820249080658,-0.9696569442749023,-0.810845136642456,0.3192797303199768,-0.007691835984587669,0.026855774223804474,0.10761138796806335,-0.6811047792434692,0.6364544630050659,-0.718698263168335,-1.2746000289916992,-0.5090759992599487,-1.003440260887146,-1.2182281017303467,-0.43715745210647583,-0.09006374329328537,-0.15429365634918213,-0.5360195636749268,-0.5702411532402039,0.16580158472061157,-0.0596327930688858,0.10687808692455292,-0.9892024397850037,-0.23767252266407013,0.051307134330272675,-0.023991039022803307,-0.34072282910346985,0.30204078555107117,-0.23469075560569763,0.14622338116168976,-1.7609676122665405,0.21424053609371185,0.33239391446113586,0.7935041785240173,-0.8686037063598633,0.13195477426052094,0.23458732664585114,0.017010722309350967,0.6188469529151917,-0.14663483202457428,-0.9604920744895935,-0.9958421587944031,0.15970519185066223,-0.37105584144592285
72,-0.06451993435621262,1.2281489372253418,-0.24788928031921387,0.7869688868522644,-0.1801445633172989,0.30603060126304626,-0.24959011375904083,0.23985229432582855,0.24319800734519958,0.3774808347225189,0.11816446483135223,0.22060763835906982,-2.6695504188537598,-0.04827986657619476,0.6723513603210449,-1.3570882081985474,0.2848770320415497,0.6941938996315002,0.06309665739536285,-0.10751999169588089,-0.4806225597858429,-0.10306555032730103,-2.305250644683838,0.22665566205978394,-0.19890634715557098,0.3238341808319092,0.1125066876411438,0.28199851512908936,0.40310224890708923,0.14490574598312378,0.2708510160446167,0.13530752062797546,0.29383233189582825,-0.20046807825565338,-0.10165546834468842,-0.09648025780916214,-1.7877764701843262,-0.16715554893016815,-0.7731919288635254,0.5253525972366333,-0.5694237351417542,-0.681625247001648,-0.7863208651542664,0.16070908308029175,0.23718610405921936,-1.0089010000228882,0.10882098972797394,-0.02752797119319439,-0.5404961109161377,-0.0759207159280777,0.6460391879081726,-0.6263399124145508,-1.0054798126220703,0.6305716633796692,0.15658605098724365,-1.2624191045761108,-0.07560090720653534,-0.7515581846237183,-1.3260594606399536,0.28917330503463745,-0.6244238018989563,-0.8665615320205688,-0.43866196274757385,-0.6085399389266968
73,-0.3033265173435211,-0.1957339495420456,0.34635573625564575,1.1155191659927368,0.03208500146865845,-1.1576225757598877,-0.03004017472267151,0.7313128709793091,-0.31717145442962646,-1.0481040477752686,0.4932575523853302,0.6783276200294495,-0.6661088466644287,0.7645547986030579,0.030442366376519203,-0.695751428604126,0.651675283908844,-0.6444231271743774,-0.07129160314798355,-0.060219429433345795,0.041171107441186905,0.1712939292192459,-0.2977083921432495,-0.054581619799137115,0.7916329503059387,-0.3634736239910126,-1.1866941452026367,0.21491128206253052,-0.45070043206214905,0.9349246621131897,0.9275662899017334,0.10321139544248581,0.6295894980430603,0.8662923574447632,0.32563289999961853,-0.17178498208522797,-0.48496711254119873,-0.24126949906349182,0.12883952260017395,0.9459033012390137,0.24295562505722046,0.1388356238603592,0.405305415391922,-0.04869631677865982,0.6127132177352905,-0.33095040917396545,0.6877788305282593,0.2934778034687042,0.43577009439468384,0.5974470376968384,0.31599605083465576,-1.151707649230957,0.30189576745033264,-0.10675210505723953,0.36869075894355774,-0.0907609611749649,0.5127164721488953,-1.1459156274795532,-0.3731204867362976,0.323072224855423,-1.515145182609558,-0.18137817084789276,-0.6153545379638672,-0.338405579328537
74,-0.36550411581993103,-1.385295033454895,-0.7326182723045349,0.749174177646637,-0.0046973079442977905,-0.7760053873062134,-0.055651310831308365,-0.3396594524383545,0.27630603313446045,0.2100336104631424,-0.946999728679657,-0.6027138233184814,0.03150961548089981,-0.7346987128257751,0.10663508623838425,-0.6174872517585754,0.26973432302474976,-0.1566937118768692,-0.9623904228210449,-0.1457856148481369,-0.38331857323646545,0.48454558849334717,0.5697736740112305,0.3809765577316284,0.37528809905052185,0.6050976514816284,0.33315375447273254,0.6081750988960266,-0.34746888279914856,-0.42969685792922974,-0.35042905807495117,0.36428576707839966,-0.22721733152866364,0.651456356048584,0.5411140322685242,0.057011678814888,-0.16741164028644562,-0.6793882846832275,0.1797173172235489,-0.5407273769378662,-0.3700355589389801,0.11390352249145508,-0.4864251911640167,0.041903987526893616,0.2536137104034424,0.06475754827260971,0.3445976972579956,-1.3384631872177124,0.7805423736572266,-0.21509477496147156,-0.835771381855011,-0.46914273500442505,-0.9246381521224976,-0.3017181158065796,-0.9148586392402649,0.02127639576792717,0.30899953842163086,0.6474835872650146,-0.7525985836982727,-0.952744722366333,0.1291428506374359,0.04537426307797432,0.5055051445960999,0.8449537754058838
75,0.5810247659683228,0.3153526186943054,-0.5733212232589722,-1.0643903017044067,-0.13100764155387878,0.9581428170204163,-0.09849778562784195,0.9177553653717041,-0.4133357107639313,0.211247056722641,-0.16458818316459656,0.31127405166625977,0.41664665937423706,-0.47919124364852905,0.5084362030029297,-0.3036380708217621,-0.5651028156280518,0.11374431848526001,-0.46367642283439636,0.050756052136421204,-1.3148677349090576,-0.3843572735786438,0.3403274416923523,-1.6332616806030273,-0.13864171504974365,0.6430263519287109,-0.3008165657520294,0.6756524443626404,0.3085078299045563,-0.8821331858634949,-0.7474638819694519,0.004617445636540651,-1.0861918926239014,-0.4928624927997589,-0.5079760551452637,-0.05041084811091423,1.1073884963989258,-0.9606258869171143,0.19748161733150482,0.17463403940200806,-1.00912344455719,-0.22605976462364197,0.37642350792884827,-0.7509908080101013,-0.7429496049880981,0.5496653318405151,-1.1452523469924927,0.4649326503276825,-0.5439035892486572,-0.24410438537597656,-1.097973108291626,0.09287548810243607,-0.5902090072631836,-0.23545917868614197,-1.1030827760696411,0.35406050086021423,-0.45582112669944763,0.3546026945114136,-0.36609530448913574,0.40847283601760864,-1.0868301391601562,0.46806076169013977,0.17914345860481262,0.753740131855011
76,-0.5741673111915588,-0.8532368540763855,0.2646053731441498,-0.8921067714691162,-0.185240238904953,-1.2629176378250122,-0.3162885308265686,-0.16722513735294342,-0.17898398637771606,-0.3224867582321167,-0.3393590748310089,-0.032864414155483246,-0.47850531339645386,-0.23106038570404053,0.1279596984386444,0.005543505772948265,-1.1649798154830933,-0.9608287811279297,-0.4946346879005432,-0.09117041528224945,1.3759983777999878,0.11587771028280258,0.7967535257339478,-0.22052587568759918,-1.4004079103469849,0.26148197054862976,-0.8932791948318481,-0.01599852181971073,-1.068650245666504,-0.17769305408000946,-0.1370876133441925,-0.06569863110780716,-1.5408259630203247,-0.3010079860687256,-0.0734267458319664,0.06740663945674896,0.4275161325931549,-1.5779767036437988,0.16636714339256287,-1.0174261331558228,-0.8082413077354431,-0.21137374639511108,1.0206953287124634,-0.754612147808075,0.4264693856239319,0.49723020195961,-0.2510635554790497,-0.3264647126197815,-0.29742252826690674,-0.19210143387317657,-0.053055841475725174,0.07351909577846527,-0.3690013885498047,-1.0374501943588257,0.38447052240371704,1.2611358165740967,-0.24064728617668152,0.4303765594959259,-0.5831230878829956,-0.8389022946357727,0.8750312924385071,0.3935307562351227,0.12718826532363892,1.09968900680542
