,fc1.weight_0,fc1.weight_1,fc1.weight_2,fc1.weight_3,fc1.weight_4,fc1.weight_5,fc1.weight_6,fc1.weight_7,fc1.weight_8,fc1.weight_9,fc1.weight_10,fc1.weight_11,fc1.weight_12,fc1.weight_13,fc1.weight_14,fc1.weight_15,fc1.weight_16,fc1.weight_17,fc1.weight_18,fc1.weight_19,fc1.weight_20,fc1.weight_21,fc1.weight_22,fc1.weight_23,fc1.weight_24,fc1.weight_25,fc1.weight_26,fc1.weight_27,fc1.weight_28,fc1.weight_29,fc1.weight_30,fc1.weight_31,fc1.weight_32,fc1.weight_33,fc1.weight_34,fc1.weight_35,fc1.weight_36,fc1.weight_37,fc1.weight_38,fc1.weight_39,fc1.weight_40,fc1.weight_41,fc1.weight_42,fc1.weight_43,fc1.weight_44,fc1.weight_45,fc1.weight_46,fc1.weight_47,fc1.weight_48,fc1.weight_49,fc1.weight_50,fc1.weight_51,fc1.weight_52,fc1.weight_53,fc1.weight_54,fc1.weight_55,fc1.weight_56,fc1.weight_57,fc1.weight_58,fc1.weight_59,fc1.weight_60,fc1.weight_61,fc1.weight_62,fc1.weight_63,fc1.weight_64,fc1.weight_65,fc1.weight_66,fc1.weight_67,fc1.weight_68,fc1.weight_69,fc1.weight_70,fc1.weight_71,fc1.weight_72,fc1.weight_73,fc1.weight_74,fc1.weight_75,fc1.weight_76,fc1.weight_77,fc1.weight_78,fc1.weight_79,fc1.weight_80,fc1.weight_81,fc1.weight_82,fc1.weight_83,fc1.weight_84,fc1.weight_85,fc1.weight_86,fc1.weight_87,fc1.weight_88,fc1.weight_89,fc1.weight_90,fc1.weight_91,fc1.weight_92,fc1.weight_93,fc1.weight_94,fc1.weight_95,fc1.weight_96,fc1.weight_97,fc1.weight_98,fc1.weight_99,fc1.weight_100,fc1.weight_101,fc1.weight_102,fc1.weight_103,fc1.weight_104,fc1.weight_105,fc1.weight_106,fc1.weight_107,fc1.weight_108,fc1.weight_109,fc1.weight_110,fc1.weight_111,fc1.weight_112,fc1.weight_113,fc1.weight_114,fc1.weight_115,fc1.weight_116,fc1.weight_117,fc1.weight_118,fc1.weight_119,fc1.weight_120,fc1.weight_121,fc1.weight_122,fc1.weight_123,fc1.weight_124,fc1.weight_125,fc1.weight_126,fc1.weight_127
0,0.02730494923889637,-0.018812108784914017,-0.0007846952066756785,0.010030074045062065,0.014856215566396713,-0.014709634706377983,0.02277207560837269,-0.011579135432839394,-0.023024151101708412,0.01763823628425598,-0.009314311668276787,0.023752486333251,-0.01590798608958721,-0.03126217797398567,-0.03010227531194687,-0.015024522319436073,0.021448412910103798,0.017039529979228973,-0.0014287404483184218,0.007996780797839165,-0.0007354319677688181,-0.03438844159245491,-0.01979915238916874,0.004737555980682373,0.02857884392142296,0.030717361718416214,0.0181502066552639,0.008741294033825397,-0.035239167511463165,-0.0022708859760314226,0.01673826202750206,-0.011780849657952785,0.016132205724716187,0.025752725079655647,0.0002410795132163912,0.0301319919526577,0.024917207658290863,-0.006723574362695217,0.005018817726522684,-0.008518397808074951,0.03050878830254078,0.032821591943502426,-0.0023566102609038353,-0.03489307314157486,0.02784457430243492,-0.01042050588876009,-0.012157815508544445,-0.006986967287957668,-0.03441132232546806,-0.03398852050304413,-0.01090154517441988,0.02971561625599861,-0.006466354709118605,0.02036687359213829,0.01594843715429306,-0.0007903278456069529,-0.02973799780011177,0.01956554874777794,-0.034638967365026474,0.022984327748417854,-0.026260504499077797,-0.01414197776466608,0.017166942358016968,0.030759025365114212,0.013195694424211979,0.03176729008555412,-0.019881296902894974,0.004014981910586357,-0.0050428640097379684,-0.02619502879679203,0.0052144574001431465,0.01001870259642601,0.0022937911562621593,0.03174731880426407,-0.005739203654229641,0.011914330534636974,-0.03430335223674774,0.00044844835065305233,-0.029953310266137123,-0.021705616265535355,-0.0016342700691893697,0.03426935151219368,-0.028590088710188866,-0.003112984588369727,0.005482988897711039,-0.017531216144561768,-0.01202611904591322,0.03425710275769234,-0.028703341260552406,0.005785014014691114,-0.0005057539674453437,-0.013154234737157822,0.025598475709557533,0.02612248621881008,0.03270866721868515,-0.0027896210085600615,0.018404340371489525,-0.02554435469210148,-0.0322737842798233,-0.005846015177667141,-0.02056649886071682,0.013959246687591076,0.01956108771264553,-0.007684784475713968,-0.0046704839915037155,0.02519974671304226,-0.014599809423089027,0.03501062095165253,-0.010807028971612453,0.014124760404229164,0.03523748740553856,0.013790612109005451,-0.02317563258111477,-0.016919149085879326,0.03468092530965805,0.004801963455975056,-0.019061803817749023,0.013982224278151989,0.03086739405989647,-0.03276815265417099,-0.03459307178854942,0.026328440755605698,-0.005458568222820759,-0.012161851860582829,0.034239720553159714,-0.019496982917189598,-0.010713075287640095,-0.0106405233964324
1,0.029643140733242035,-0.03541354089975357,0.0016533860471099615,0.02734803780913353,-0.012556037865579128,0.00666324608027935,0.00045138600398786366,0.027269739657640457,0.025673961266875267,-0.014680833555758,0.028255736455321312,0.015251697041094303,0.021642766892910004,-0.019434243440628052,-0.03152243047952652,-0.016688263043761253,0.028936507180333138,-0.01617368683218956,0.0008430524030700326,-0.007501994259655476,0.004384866915643215,-0.03512684255838394,0.0023261266760528088,0.02893722616136074,0.01695833168923855,0.014278719201683998,-0.030392304062843323,-0.024787750095129013,-0.017120933160185814,0.0070811002515256405,-0.03244336321949959,0.011911043897271156,-0.015928979963064194,-0.02431431971490383,-0.03149915486574173,0.005125522613525391,-0.02550278976559639,0.0016468082321807742,-0.006626942660659552,-0.005662134848535061,0.0014864334370940924,0.028712883591651917,-0.030425047501921654,-0.021090976893901825,0.01234691496938467,-0.018588323146104813,-0.0014261476462706923,0.001975464168936014,-0.018038354814052582,-0.034044355154037476,0.006307695992290974,0.020049888640642166,0.0317077562212944,-0.02275155857205391,-0.01912716031074524,0.027118314057588577,-0.020192623138427734,-0.019104013219475746,-0.015714207664132118,0.005240457598119974,-0.010866093449294567,-0.024331320077180862,-0.004509615246206522,-0.026173481717705727,-0.0329432338476181,0.007930806837975979,-0.026099147275090218,-0.0170061644166708,0.027492264285683632,-0.025239285081624985,-0.02518366649746895,0.023247532546520233,0.016425542533397675,-0.028427427634596825,0.028531547635793686,0.03556516021490097,-0.02506175823509693,-0.008661925792694092,-0.0003045627090614289,0.026135066524147987,0.029037276282906532,0.03039083071053028,-0.0028732249047607183,-0.03236270695924759,0.014009160920977592,-0.005004385020583868,-0.000647165987174958,-0.022707726806402206,0.0027355297934263945,0.017802443355321884,0.02735343761742115,-0.03477121517062187,0.0205204077064991,0.007299142424017191,-0.02826119400560856,-0.011206108145415783,0.0062749688513576984,0.021308904513716698,-0.008321745321154594,0.0239272341132164,0.02526428923010826,0.022408312186598778,-0.00540505163371563,-0.02578108385205269,0.007053716108202934,-0.03209427744150162,-0.0032513269688934088,-0.03215586766600609,0.00885705091059208,0.03430546820163727,-0.03412501886487007,-0.0029490336310118437,-0.020052382722496986,0.0033117448911070824,0.0083798598498106,-0.0172230564057827,0.03175901994109154,0.002470974577590823,0.004084101878106594,0.033361390233039856,0.02540678344666958,0.01624906063079834,-0.009538463316857815,0.007627794053405523,-0.005752499680966139,0.0033874642103910446,0.022064682096242905,0.0342433862388134
2,-0.008366874419152737,0.018694086000323296,0.004524542018771172,-0.008068336173892021,0.010894639417529106,0.031117871403694153,0.011917229741811752,-0.03440035879611969,0.02906087227165699,0.005254639312624931,-0.003261212958022952,-0.033271003514528275,-0.029913410544395447,-0.02310391515493393,-0.01677108369767666,-0.002751908265054226,0.010673386976122856,0.017003022134304047,-0.019775336608290672,0.0190044566988945,0.0009994208812713623,-0.02506544068455696,0.01779842935502529,-0.027880670502781868,-0.024862132966518402,-0.021265452727675438,-0.0005340278148651123,-0.009665723890066147,0.006008910480886698,0.033015768975019455,0.008635338395833969,-0.007982637733221054,0.023395147174596786,-0.0004689821507781744,0.0353473499417305,0.001158710103482008,0.01864701136946678,0.029488731175661087,0.03520210087299347,-0.002965348307043314,-0.005311889573931694,-0.02553557977080345,0.001715021557174623,0.021209580823779106,-0.023516379296779633,0.021194297820329666,0.020686252042651176,0.028073303401470184,-0.017833348363637924,-0.014401513151824474,0.0341307707130909,-0.026996929198503494,-0.029442613944411278,-0.02575136162340641,-0.031822677701711655,0.02504643052816391,-0.00810306891798973,0.026771362870931625,-0.007928682491183281,0.03474155068397522,-0.00057982123689726,0.011393245309591293,0.03212667629122734,0.027061566710472107,0.0037910002283751965,0.02944025956094265,0.004967042710632086,-0.015586559660732746,0.02193092182278633,0.010152693837881088,0.03285907208919525,-0.025463135913014412,0.018633216619491577,-0.016233228147029877,-0.025129718706011772,0.0017646424239501357,-0.010977962985634804,-0.031931716948747635,-0.0296584814786911,0.03277875483036041,0.02886589989066124,-0.0059019033797085285,0.01980082131922245,-0.02115285024046898,-0.02202751860022545,0.006181155331432819,-0.0042379796504974365,-0.004287754185497761,0.03448839113116264,0.03198070079088211,-0.016579266637563705,0.030045637860894203,0.00818024855107069,-0.033481813967227936,0.008237285539507866,-0.028935693204402924,0.034742437303066254,0.011138665489852428,-0.0017471399623900652,-0.020236050710082054,0.027272604405879974,0.0015014538075774908,0.027231119573116302,-0.006853789556771517,0.0038992466870695353,-0.03182370960712433,-0.0036480342969298363,-0.00031197071075439453,-0.002272708108648658,0.00018594521679915488,-0.013820529915392399,-0.014271030202507973,0.02509554848074913,0.029876118525862694,0.029880227521061897,6.432193185901269e-05,-0.0012581519549712539,0.03190949186682701,-0.023214979097247124,-0.012245280668139458,0.007944444194436073,-0.01848790980875492,0.016971303150057793,0.017317742109298706,-0.004433746915310621,0.030186202377080917,-0.01575690135359764,0.02401658147573471
3,0.032807547599077225,0.008519168943166733,0.013300653547048569,0.002556741237640381,0.002133735688403249,0.01631184294819832,0.035229284316301346,0.012688747607171535,0.02434687130153179,-0.019373303279280663,0.025469733402132988,0.025991547852754593,-0.02560235932469368,0.017432818189263344,-0.018672633916139603,-0.006976430304348469,0.028449779376387596,0.010599694214761257,-0.013323184102773666,0.03198990970849991,0.027019008994102478,-0.0053612892515957355,0.017090249806642532,-0.017777184024453163,-0.018792515620589256,0.01428287010639906,0.03230498358607292,-0.019440604373812675,-0.025521811097860336,-0.031504467129707336,-0.032617390155792236,0.009594461880624294,0.008445790968835354,0.008603415451943874,0.0061098127625882626,0.01262659765779972,-0.02226841077208519,-0.027794158086180687,-0.030535511672496796,-0.02443399280309677,-0.024689020588994026,0.022420110180974007,0.0313718281686306,-0.0054794722236692905,0.009009182453155518,-0.025743765756487846,0.014974773861467838,0.023185262456536293,0.029067296534776688,0.03019803948700428,-0.0028864529449492693,0.022159714251756668,0.020925411954522133,-0.018566617742180824,0.004283973481506109,-0.017269833013415337,0.03290079906582832,0.000929402478504926,0.014057662338018417,0.027178313583135605,-0.0135209821164608,-0.025259602814912796,-0.03024795837700367,-0.010511654429137707,0.03327961638569832,0.0312805101275444,-0.0063170199282467365,-0.013152156956493855,0.027008019387722015,0.006239346228539944,0.02826196514070034,-0.001094285980798304,0.011429335922002792,0.0011575265089049935,0.012479293160140514,-0.027829758822917938,-0.012763777747750282,-0.0352393314242363,0.004820423666387796,-0.018973177298903465,0.033793579787015915,-0.013012882322072983,-0.003105197800323367,-0.032459843903779984,-0.035256098955869675,0.031065955758094788,-0.03435106575489044,0.034950047731399536,0.034588731825351715,0.01956767402589321,0.01897074654698372,-0.03227093443274498,-0.01950574852526188,0.0070271240547299385,-0.022952767089009285,-0.034821767359972,0.03472405672073364,0.035658203065395355,-0.0152439521625638,-0.03216599300503731,0.0037763759028166533,-0.016337936744093895,0.002269613090902567,0.017676349729299545,0.006848739925771952,0.026306413114070892,0.025786396116018295,-0.031644027680158615,0.01921234466135502,-0.0014012925093993545,0.018698250874876976,0.0034202977549284697,0.019930077716708183,-0.026881491765379906,-0.010051293298602104,0.005087673664093018,0.0027797052171081305,-0.012352880090475082,0.02382281981408596,-0.009767889976501465,-0.03137883171439171,0.031860437244176865,-0.019275806844234467,0.034505464136600494,0.012904716655611992,-0.023289749398827553,-0.02295234426856041,-0.03455414995551109
4,-0.007825127802789211,-0.018163856118917465,-0.010835763067007065,0.023081768304109573,-0.023445194587111473,0.034956034272909164,-0.01163556333631277,-0.03254354000091553,-0.0006463996251113713,-0.016976259648799896,0.0017345250817015767,0.004336042329668999,0.03402595967054367,0.03274495527148247,-0.03366374969482422,0.024148734286427498,-0.017016952857375145,0.03515569865703583,-0.014228821732103825,-0.012781603261828423,-0.020456988364458084,0.022202616557478905,0.029893996194005013,0.03226190432906151,-0.01507857907563448,-0.0003111575497314334,-0.029528828337788582,-0.021024636924266815,-0.019379092380404472,0.024172311648726463,0.015283772721886635,0.007953209802508354,-0.03385777398943901,-0.0007131738821044564,0.019276542589068413,0.017567425966262817,-0.012878349982202053,0.009457439184188843,0.03421059995889664,-0.02017974853515625,0.03096838667988777,-0.0186367928981781,-0.016972798854112625,0.01532361377030611,-0.018228812143206596,-0.013550423085689545,-0.017693405970931053,-0.0202232263982296,-0.008725869469344616,-0.030910097062587738,0.019837703555822372,0.011846900917589664,0.007527952082455158,-0.022371582686901093,0.022013971582055092,0.010807480663061142,-0.030221782624721527,-0.024660145863890648,-0.017577392980456352,0.03135685995221138,-0.008464958518743515,-0.0006646216497756541,-0.027623672038316727,-0.00545700965449214,0.03517689183354378,0.010752622969448566,0.0018295986810699105,0.00834612362086773,-0.03276054188609123,-0.024054916575551033,0.021977072581648827,-0.018799910321831703,0.011910579167306423,0.023593967780470848,-0.009970325045287609,0.004636053927242756,-0.032089054584503174,-0.013502189889550209,0.0019878193270415068,0.0004865910450462252,0.023712895810604095,0.011914517730474472,-0.030097341164946556,-0.03053610399365425,-0.02843973971903324,-0.01283506490290165,-0.021791361272335052,0.03565299138426781,0.027328990399837494,-0.0022231340408325195,-0.020729700103402138,-0.0041173952631652355,0.006075799930840731,0.013746403157711029,0.025994015857577324,0.018914470449090004,-0.026180775836110115,0.02012796513736248,-0.010357826948165894,0.00555812893435359,0.0015391367487609386,-0.0013676626840606332,-0.031754203140735626,-0.021088989451527596,0.03409963846206665,0.009619981050491333,0.012814662419259548,0.03315209969878197,0.013801592402160168,0.03376571089029312,0.0023835941683501005,0.0013081772485747933,0.017269842326641083,-0.015608677640557289,-0.01620837301015854,-0.02945876680314541,-0.028460130095481873,0.031446415930986404,-0.035417139530181885,0.006819129455834627,0.017983991652727127,-0.01925671100616455,-0.025544775649905205,-0.01390609610825777,0.019383270293474197,-0.02453293651342392,-0.015623812563717365,-0.021563714370131493
5,0.007206810638308525,0.034417927265167236,-0.021296344697475433,0.015535380691289902,-0.02401050552725792,-0.015127476304769516,-0.014533158391714096,0.015482570976018906,0.008779283612966537,0.023306259885430336,0.0037089332472532988,-0.008906394243240356,-0.013458163477480412,0.012495739385485649,0.0055762361735105515,0.01665256731212139,-0.023366745561361313,0.018268633633852005,-0.005862266290932894,0.0006071882671676576,0.016172315925359726,-0.010869303718209267,-0.004424674436450005,0.027882041409611702,0.009906450286507607,-0.0073738740757107735,0.0354083776473999,-0.022749271243810654,-0.014516230672597885,0.029096122831106186,-0.011595956049859524,-0.02860148251056671,-0.004746829159557819,0.01639641635119915,0.03241966664791107,-0.026566455140709877,-0.011504492722451687,-0.0034032296389341354,-0.01220802403986454,0.031717658042907715,0.006238162983208895,0.032612819224596024,0.0216487105935812,-0.025789951905608177,-0.005763492546975613,-0.02092437818646431,-0.021593831479549408,-0.023535780608654022,0.0335625596344471,-0.021881218999624252,0.0254034623503685,0.009771415963768959,-0.010806876234710217,-0.012780347838997841,0.01503020990639925,-0.009520194493234158,-0.009031504392623901,0.03559048846364021,0.012350312434136868,-0.008514872752130032,-0.015553755685687065,-0.024212071672081947,0.008261749520897865,-0.0008419539663009346,0.002413822105154395,0.0030687921680510044,-0.0069487737491726875,-0.01867002248764038,-0.00027132887043990195,0.027983492240309715,0.021897755563259125,-0.005581523757427931,-0.0012446684995666146,0.00828447937965393,-0.03348737955093384,0.006441806443035603,0.013343479484319687,-0.01464152429252863,-0.012633672915399075,-0.010131168179214,0.034608256071805954,-0.00020008003048133105,0.020125368610024452,-0.01815735548734665,0.023458166047930717,-0.010971576906740665,-0.01754572242498398,0.03015850856900215,-0.03183459863066673,-0.013905989937484264,0.025696827098727226,-0.0036630206741392612,-0.01864035241305828,-0.0006838313420303166,0.018962183967232704,-0.002357287099584937,-0.004059753380715847,0.022612394765019417,-0.02311018295586109,0.014350585639476776,0.009884868748486042,-0.016504475846886635,-0.020228007808327675,0.03443904221057892,0.02439037151634693,0.018539901822805405,-0.02254587970674038,-0.03264110907912254,-0.005476968828588724,0.025634102523326874,0.013773927465081215,-0.019201748073101044,-0.004371847491711378,0.009496948681771755,-0.014184096828103065,-0.026917973533272743,0.0037830728106200695,0.007446357514709234,0.024817131459712982,-0.00994729995727539,0.0020683195907622576,-0.0034546300303190947,-0.017956649884581566,0.009911520406603813,0.022552771493792534,0.012423170730471611,-0.022930534556508064,-0.0346091091632843
6,-0.01738768070936203,-0.01615171507000923,0.008425879292190075,0.0045888470485806465,-0.034883033484220505,-0.01705465279519558,0.02592534013092518,0.008746598847210407,0.0018165537621825933,-0.00978153571486473,-0.030165495350956917,-0.010621292516589165,-0.02839755266904831,-0.019988056272268295,-0.0028336092364042997,0.027511760592460632,-0.02868575043976307,0.0055139618925750256,-0.023499928414821625,0.02927960827946663,0.03289305046200752,-0.014749668538570404,0.018409980461001396,0.013525376096367836,0.019251925870776176,-0.03515864908695221,0.028274716809391975,-0.01523465383797884,0.017843762412667274,0.029596760869026184,0.011793077923357487,-0.008370774798095226,-0.03232455253601074,-0.03312739357352257,0.012770269997417927,-0.014236770570278168,0.021974096074700356,0.0047934651374816895,-0.013068723492324352,-0.018041249364614487,-0.000986895407550037,-0.030488450080156326,-0.011623608879745007,0.02608984336256981,-0.021038783714175224,0.023558668792247772,-0.015494121238589287,0.01936214789748192,-0.02335483394563198,0.03248118981719017,-0.015840569511055946,0.0015635703457519412,-0.023027101531624794,0.029369253665208817,-0.02881145104765892,-0.006917549297213554,0.021952766925096512,0.0121195362880826,0.0010872271377593279,0.013185561634600163,0.010919333435595036,-0.016768286004662514,-0.02253001183271408,0.016141248866915703,0.025161774829030037,-0.009575048461556435,-0.008739161305129528,0.02783578261733055,-0.03236786276102066,-0.007817464880645275,0.027368273586034775,0.032968100160360336,-0.0029177539981901646,-0.03442407771945,0.019275419414043427,0.007290550973266363,-0.02551407553255558,-0.033892981708049774,-0.01090255007147789,-0.03313840180635452,0.012970230542123318,-0.011937414295971394,-0.014549707062542439,0.008105806075036526,0.009355008602142334,0.01002698764204979,0.018398340791463852,0.019941147416830063,0.030765343457460403,-0.009432494640350342,-0.011502530425786972,-0.03319131210446358,7.812466355971992e-05,0.02012750506401062,0.018938729539513588,0.02191155031323433,-0.02918287366628647,-0.0012458775890991092,0.02636748179793358,-0.03458785265684128,-0.0321323536336422,0.019177228212356567,-0.026678001508116722,-0.0030677064787596464,0.029432252049446106,0.00011494756472529843,-0.008495761081576347,0.011464140377938747,-0.011021307669579983,-0.01822906732559204,0.0057810163125395775,0.0348626933991909,0.022309014573693275,0.022660857066512108,-0.02391086332499981,0.005459223873913288,0.03274596482515335,0.009318003430962563,-0.0347878634929657,-0.02663118951022625,-0.03319602832198143,0.02919723093509674,-0.013409406878054142,0.03564336150884628,-0.002274658065289259,-0.002074343850836158,-0.027180256322026253,-0.011300227604806423
7,0.020974380895495415,0.024133814498782158,-0.004228770732879639,0.010974237695336342,-0.019977910444140434,-0.004534696228802204,0.01365711074322462,-0.014053566381335258,-0.013565145432949066,-0.03129409998655319,-0.012342402711510658,0.028487637639045715,-0.0261079091578722,0.027032390236854553,-0.007865408435463905,0.02798421122133732,-0.005647084675729275,-0.03535072132945061,0.020714182406663895,-0.00611607963219285,-0.02565251663327217,0.02376578561961651,-0.002834213664755225,-0.03023579902946949,-0.0016871052794158459,-0.02354121394455433,-0.009361322969198227,0.006229273043572903,0.015648582950234413,0.012459385208785534,0.013764820992946625,0.0322255901992321,-0.012487633153796196,0.019637947902083397,0.027333473786711693,-0.011889445595443249,0.031010407954454422,0.008375470526516438,-0.035568736493587494,-0.0013496322790160775,-0.009585496038198471,-0.001203813822939992,-0.01547998283058405,0.03156309947371483,0.01758427731692791,0.00020648752979468554,0.007552551571279764,-0.024080878123641014,-0.028198741376399994,0.027862444519996643,0.005190845113247633,0.004096542485058308,0.023102395236492157,-0.025859685614705086,-0.030374115332961082,-0.01189031358808279,-0.024945493787527084,0.03091513365507126,-0.010762027464807034,-0.021219832822680473,-0.0325937382876873,-0.018947649747133255,0.013669708743691444,0.02526961639523506,-0.01758171059191227,-0.025667928159236908,-0.025676587596535683,0.031054310500621796,-0.01908164471387863,-0.0038498002104461193,0.033939428627491,0.03445672243833542,-0.021876467391848564,0.005604224745184183,-0.02141260728240013,0.001289584906771779,-0.03005659207701683,-0.00699177011847496,0.019954558461904526,0.014137332327663898,0.005070984363555908,8.121132850646973e-05,0.009480336681008339,-0.00596685940399766,-0.014045771211385727,-0.013505267910659313,0.007369007915258408,-0.008444582112133503,-0.00019000684551429003,0.0332140289247036,-0.028200333938002586,0.021056270226836205,0.031822025775909424,0.02617010660469532,0.006074071396142244,-0.03333444148302078,-0.022906508296728134,0.02632755972445011,-0.015460134483873844,-0.0006263384129852057,0.018985092639923096,-0.010243820957839489,-0.020591307431459427,-0.022293662652373314,0.03233014792203903,0.009114223532378674,0.03137236833572388,0.004568653646856546,-0.027250001206994057,-0.034976501017808914,0.035702891647815704,-0.013682936318218708,-0.03569217398762703,-0.019294029101729393,-0.022918114438652992,-0.02568891830742359,-0.013620087876915932,-0.016971874982118607,0.030173787847161293,-0.03290027379989624,-0.0336974635720253,0.0017204157775267959,0.02527872659265995,0.02903629280626774,-0.02193870022892952,0.0059551214799284935,0.009400172159075737,-0.0264172051101923
8,0.03148367628455162,0.018118876963853836,-0.01617957092821598,0.0018538024742156267,0.009976941160857677,-0.007192850578576326,-0.0337110236287117,0.010548950172960758,-0.03536343201994896,0.0015001851134002209,0.0017907024594023824,0.024922257289290428,0.03463206812739372,0.03314986452460289,-0.0016596020432189107,0.03049861267209053,-0.0035319840535521507,0.029066160321235657,-0.0009007496992126107,0.005402573850005865,-0.027973253279924393,0.028643175959587097,0.004718124866485596,0.019627375528216362,-0.035139426589012146,-0.012136447243392467,0.011658481322228909,-0.0010708613554015756,-0.013639974407851696,-0.011098415590822697,0.001394433667883277,-0.00021928550268057734,0.006456473376601934,-0.010560330003499985,0.0023214095272123814,-0.0007058425107970834,0.03508426994085312,0.014807642437517643,-0.026599088683724403,0.0067509375512599945,0.03075585700571537,0.022588705644011497,0.016975753009319305,-0.02209647372364998,-0.020278876647353172,-0.012542040087282658,-0.02848108857870102,0.034758277237415314,-0.02143322303891182,0.0030704056844115257,0.003747050417587161,0.03459795191884041,0.001717090723104775,0.027714625000953674,0.015746815130114555,-0.000929142814129591,0.026572437956929207,-0.021952949464321136,0.029365183785557747,-0.012479659169912338,0.0019831147510558367,-0.0036022409331053495,-0.022315362468361855,0.00506553053855896,-0.03300661966204643,0.019852984696626663,0.03341306373476982,-0.0053760455921292305,-0.027067841961979866,0.002951783826574683,0.032142747193574905,-0.02337397076189518,0.012426057830452919,0.03540458902716637,0.02108706347644329,-0.02785554714500904,0.019730878993868828,0.0054121618159115314,0.0017744856886565685,0.032353661954402924,0.0324343666434288,0.015025058761239052,0.0037230211310088634,0.013971861451864243,-0.0077513717114925385,-0.008279528468847275,-0.018646487966179848,0.022011255845427513,0.032124005258083344,-0.03404797241091728,-0.013639314100146294,-0.025096114724874496,0.02923135831952095,0.030272694304585457,-0.011179749853909016,0.016331065446138382,-0.0010278054978698492,0.0319717600941658,-0.010539834387600422,0.02741396054625511,0.006029022857546806,0.02104017697274685,-0.017260726541280746,0.01080072857439518,0.008040931075811386,-0.03496270626783371,-0.03243804723024368,-0.0351240336894989,-0.016154205426573753,-0.009997973218560219,-0.0028226333670318127,-0.014253608882427216,0.012406847439706326,0.008753389120101929,-0.0277752336114645,-0.004281333647668362,0.03312572464346886,0.02437317557632923,0.007315155118703842,0.002957999939098954,-0.00526009313762188,0.009499311447143555,0.030027732253074646,0.001472187926992774,0.009095950052142143,-0.006978950463235378,-0.02485794760286808,-0.022047797217965126
9,-0.026201006025075912,-0.02994314767420292,0.014998679049313068,-0.030635422095656395,0.0021759229712188244,-0.015709634870290756,0.012702244333922863,0.0342775397002697,-0.0043653082102537155,-0.005091262981295586,0.01631808839738369,-0.0033175137359648943,-0.004994865041226149,-0.009676584973931313,0.017162319272756577,-0.03392826393246651,-0.02029968611896038,0.030664172023534775,0.027471058070659637,-0.01385373342782259,0.012070571072399616,0.018820613622665405,-0.0209745392203331,-0.002269668271765113,-0.022637300193309784,0.026627780869603157,-0.009532434865832329,0.01607396826148033,-0.018140533939003944,-0.024288570508360863,0.004449674393981695,0.03385789692401886,-0.03386702761054039,0.006483589299023151,0.028455909341573715,0.016526171937584877,-0.015412156470119953,-0.002690383465960622,0.014509180560708046,0.031169619411230087,0.023862728849053383,-0.00812479853630066,-0.03495005890727043,0.03472338616847992,0.021371837705373764,0.020083297044038773,-0.02927900291979313,0.03566694259643555,0.034791674464941025,-0.029970724135637283,-0.02232951857149601,0.0027714883908629417,-0.03464081510901451,0.02537349797785282,-0.035340722650289536,0.007207006681710482,-0.004297167062759399,0.006289588753134012,-0.02620101533830166,-0.0011259658494964242,0.0094526968896389,-0.004726682789623737,0.005029699765145779,-0.015390779823064804,-0.027080362662672997,0.00011590549547690898,-0.0225717481225729,-0.0007131823804229498,-0.014961076900362968,0.03191667050123215,-0.007315295282751322,-0.00011078800889663398,-0.016385382041335106,-0.03326597064733505,0.0238600205630064,0.028720082715153694,-0.02133113704621792,-0.030414637178182602,0.02078430727124214,0.03009169176220894,-0.003989973571151495,0.00957059022039175,0.008824962191283703,0.02850564941763878,-0.02948283776640892,-0.03450204059481621,0.018272187560796738,0.00015176195302046835,-0.007875642739236355,0.0054192375391721725,-0.029713265597820282,-0.030863840132951736,0.031215447932481766,-0.013565344735980034,0.034105319529771805,0.024014171212911606,-0.02518794871866703,-0.013479680754244328,-0.035394325852394104,-0.019083688035607338,-0.015928417444229126,-0.026706088334321976,-0.023185838013887405,0.007115807384252548,0.00508063193410635,-0.03292427957057953,-0.009568530134856701,0.012142995372414589,0.026656202971935272,0.00892316922545433,0.02500097267329693,0.0031633421313017607,0.002433904679492116,-0.0335620753467083,-0.013491946272552013,0.024713031947612762,0.004447153769433498,-0.031761255115270615,0.010449337773025036,-0.01697096787393093,-0.013474550098180771,0.03407818824052811,0.023764679208397865,0.01876034587621689,0.017713939771056175,0.002215790096670389,0.000305886787828058,-0.021858258172869682
10,0.03104272112250328,0.023033620789647102,0.0003238959179725498,0.0013768248027190566,0.026860788464546204,-0.0022173651959747076,-0.03502693772315979,0.02174312435090542,0.015446561388671398,0.010153119452297688,0.006929678842425346,-0.013350593857467175,-0.030052760615944862,0.02635350078344345,-0.013252616859972477,-0.008091790601611137,-0.012213865295052528,-0.009899561293423176,-0.022928131744265556,0.008948560804128647,-0.012678423896431923,0.03086228109896183,0.022104613482952118,-0.027450349181890488,-0.01707686297595501,-0.024539638310670853,-0.018621904775500298,0.015632519498467445,0.007191828452050686,0.02621961198747158,-0.013076446019113064,0.0269903726875782,-0.0036184322088956833,-0.007448273245245218,0.031064238399267197,-0.01690327748656273,-0.02073371410369873,-0.004587948322296143,-0.029146621003746986,0.03535210341215134,0.03415427729487419,0.00404918659478426,0.022632591426372528,0.02825208008289337,0.015423528850078583,0.021179383620619774,-0.001914420397952199,-0.030701467767357826,-0.0134247075766325,0.02697102166712284,0.021744992583990097,0.017629189416766167,0.02710827812552452,0.0173934455960989,0.017345067113637924,-0.03116324171423912,-0.00023994702496565878,0.01544563751667738,-0.012188435532152653,-0.005249960348010063,0.026236463338136673,0.009691966697573662,0.002983361715450883,0.022484924644231796,-0.014635078608989716,-0.014710997231304646,0.03404800221323967,0.0048095970414578915,-0.016520339995622635,-0.03556131199002266,0.012204481288790703,-0.007454646751284599,-0.025602422654628754,-0.034061770886182785,0.034939832985401154,0.026058100163936615,0.02481777034699917,0.0002711287816055119,0.017249027267098427,0.02341942861676216,0.0070892320945858955,0.02455000951886177,0.013236616738140583,-0.010929848998785019,-0.029146667569875717,-0.021020570769906044,-0.02845255471765995,0.0010141347302123904,-0.014659916050732136,0.005745577160269022,-0.00221694796346128,-0.03494086489081383,0.007612356450408697,-0.009189631789922714,-0.020522868260741234,0.03469621762633324,-0.017613453790545464,-0.001976025989279151,-0.023551149293780327,-0.0011656966526061296,-0.031060760840773582,0.007477518171072006,-0.019766975194215775,0.0037279557436704636,0.004176178481429815,0.025141717866063118,-0.020219583064317703,0.018878422677516937,0.017520083114504814,0.023156652227044106,0.007099335081875324,-0.02024267427623272,0.029040636494755745,0.03344555199146271,0.001014798879623413,-0.006742269266396761,-0.000247593445237726,0.028048090636730194,0.00548946438357234,-0.013240499421954155,-0.028775647282600403,-0.010707634501159191,0.02431580051779747,0.034684695303440094,-0.024440089240670204,0.03400614485144615,-0.010663488879799843,0.026468398049473763
11,0.006684260908514261,-0.03283832222223282,-0.005195166449993849,-0.00780639098957181,-0.03140408918261528,0.03226500004529953,-0.019390098750591278,-0.032588131725788116,0.020832590758800507,-0.01821860298514366,-0.007754155900329351,-0.019201453775167465,-0.005148211028426886,0.009028826840221882,0.002256265841424465,-0.0034147673286497593,-0.011501449160277843,-0.0027929162606596947,0.009917864575982094,-0.014738858677446842,-0.0008054503705352545,-0.03220286965370178,0.008127438835799694,0.027977922931313515,-0.024040741845965385,-0.033416878432035446,0.02148067206144333,-0.010029533877968788,0.010475244373083115,0.00845212209969759,0.0011636274866759777,-0.01002264954149723,0.020781338214874268,-0.032024066895246506,0.03246934339404106,0.011930053122341633,0.009123164229094982,0.004234782420098782,-0.030327027663588524,0.019257448613643646,0.03037158213555813,-0.024968182668089867,0.02355758287012577,-0.011771458201110363,0.01867098920047283,0.01902484893798828,-0.03241869807243347,-0.017590029165148735,-0.02049514278769493,0.018396485596895218,-0.017557417973876,-0.03337595984339714,0.029615139588713646,0.03424721956253052,0.0011908498127013445,0.029130971059203148,-0.030265754088759422,-0.021100368350744247,-0.03231659531593323,0.019325030967593193,0.009023568592965603,-0.023386526852846146,0.00250637112185359,0.021190835162997246,-0.03325263783335686,-0.008913734927773476,-0.018744319677352905,-0.012651060707867146,-0.0073506198823452,-0.032048337161540985,0.017277058213949203,-0.03323580324649811,0.02060229890048504,-0.01487671583890915,-0.0348019003868103,-0.007356954738497734,0.00403054291382432,-0.008613173849880695,-0.0036354365292936563,-0.019229579716920853,-0.024509860202670097,-0.005573736969381571,-0.015216355212032795,-0.004133769776672125,0.0009034021059051156,-0.026672346517443657,0.007569641340523958,-0.022686444222927094,0.020027030259370804,-0.007362468168139458,0.0004579978412948549,0.0005383577081374824,-0.02524704672396183,-0.01699569821357727,0.03184996545314789,0.01183328963816166,-0.020950594916939735,0.0004078448109794408,-0.008638603612780571,-0.03283267095685005,-0.009370612911880016,0.030586328357458115,-0.012765539810061455,-0.01435855496674776,-0.018021784722805023,-0.034906670451164246,0.016322966665029526,0.02455512247979641,-0.025765832513570786,-0.026998862624168396,0.014346557669341564,0.02360064722597599,0.006162643898278475,-0.02937682345509529,0.016008317470550537,-0.023556115105748177,-0.020698029547929764,0.02550368756055832,0.021320898085832596,-0.007772496901452541,-0.028761614114046097,-0.009449039585888386,0.01599404215812683,-0.03084747865796089,0.022739995270967484,-0.021684613078832626,0.022895000874996185,0.024512555450201035
12,0.3790411353111267,0.11579778790473938,-0.017288707196712494,0.032228995114564896,-0.001043634838424623,-0.019577061757445335,0.013976570218801498,-0.009255622513592243,0.0985717698931694,0.23097433149814606,-0.3465900421142578,0.0205888282507658,-0.017409801483154297,-0.02484244666993618,-0.0031901684124022722,0.11334777623414993,0.03444391489028931,-0.19964678585529327,-0.01171366311609745,-0.03132857754826546,-0.04163558781147003,-0.03184998780488968,-0.03740006312727928,-0.02442677691578865,0.01838696002960205,-0.1693354845046997,-0.07467158883810043,0.02519119344651699,-0.4393206536769867,0.19415712356567383,0.06187072768807411,-0.2484484314918518,-0.1905490607023239,0.014089823700487614,-0.0068485490046441555,-0.5548584461212158,0.24465268850326538,0.2925035357475281,-0.14054588973522186,-0.006149028427898884,0.014231082983314991,-0.015150437131524086,0.23860660195350647,0.3692418932914734,-0.02272193133831024,0.34206709265708923,0.012759464792907238,0.5139986872673035,-0.24413859844207764,-0.05730007588863373,-0.045263685286045074,-0.0007198410457931459,0.014893664047122002,0.05145667865872383,-0.06738127022981644,-0.02875986136496067,0.42119747400283813,-0.013381621800363064,-0.03553390130400658,0.005184522829949856,0.0038731780368834734,-0.023237502202391624,0.003393356455489993,-0.02033665031194687,0.021979115903377533,-0.24046428501605988,-0.007542242296040058,-0.18639177083969116,0.4109523892402649,0.07689616084098816,0.1312675029039383,0.012942608445882797,-0.06334688514471054,0.38558250665664673,-0.03768613189458847,-0.06721333414316177,-0.03239212930202484,0.026658693328499794,-0.23224090039730072,0.003575427457690239,0.010374150238931179,0.011112004518508911,0.01411022525280714,-0.24209609627723694,-0.09932461380958557,-0.21259735524654388,0.024215204641222954,0.04209648445248604,-0.14080758392810822,-0.02270645834505558,-0.14190803468227386,-0.17823223769664764,-0.012717230245471,0.5096408724784851,-0.030399706214666367,0.006185200065374374,-0.07278366386890411,0.018658187240362167,0.28892379999160767,0.09712599962949753,-0.0007601763936690986,-0.035132601857185364,-0.012919128872454166,0.3308837115764618,0.25322848558425903,-0.06716757267713547,-0.23307089507579803,-0.005103503353893757,0.05136686936020851,0.08844876289367676,0.09122136235237122,0.023174984380602837,-0.028602542355656624,0.36456409096717834,0.15228161215782166,-0.020066983997821808,0.0068284873850643635,0.06387854367494583,-0.020986758172512054,0.026920784264802933,-0.010687232948839664,0.016875119879841805,-0.009640268050134182,0.03187556564807892,-0.12382207810878754,0.01168791763484478,0.02313063107430935,0.23796173930168152
13,0.3589775264263153,0.1434212476015091,-0.0046987831592559814,0.03223670646548271,-0.03202321007847786,0.020056534558534622,0.018813394010066986,0.032395899295806885,0.1072835773229599,0.2138671875,-0.3179358243942261,-0.02165868505835533,-0.0239566657692194,-0.00932795275002718,0.01724620908498764,0.12081283330917358,-0.002550376346334815,-0.15885545313358307,0.018922870978713036,-0.03130873665213585,0.006744944956153631,0.005933851469308138,-0.026292631402611732,0.0058204238303005695,0.0015936536947265267,-0.34251105785369873,-0.06955710053443909,-0.024847563356161118,-0.4506235122680664,0.22815674543380737,0.0706663504242897,-0.23608015477657318,-0.13796620070934296,0.0006404264131560922,-0.004901626147329807,-0.6772699952125549,0.3417623043060303,0.33106866478919983,-0.15555869042873383,0.02541520819067955,0.019125571474432945,-0.017353517934679985,0.37892964482307434,0.3184303641319275,0.03207925707101822,0.37644967436790466,-0.007515579927712679,0.5089141130447388,-0.22941797971725464,-0.08343789726495743,-0.0010891486890614033,0.0300898477435112,0.03272514045238495,0.055829066783189774,-0.03991797938942909,-0.04705751687288284,0.4656694829463959,0.002601930173113942,-0.0331730842590332,-0.019412582740187645,-0.011603428050875664,0.015355609357357025,0.03018566593527794,-0.048877641558647156,0.0017206158954650164,-0.29828956723213196,-0.060576409101486206,-0.26531678438186646,0.4843831956386566,0.01586552895605564,0.2660808861255646,0.02318453975021839,-0.0968431681394577,0.4313127100467682,-0.054911866784095764,-0.006569876801222563,0.03421800211071968,-0.00711095379665494,-0.20706115663051605,0.025992846116423607,0.015539966523647308,-0.0013420049799606204,-0.033762551844120026,-0.2881387174129486,-0.08512072265148163,-0.17341348528862,-0.005823148414492607,0.07193747162818909,-0.1722729504108429,-0.027769438922405243,-0.15417394042015076,-0.21654725074768066,-0.02790086343884468,0.47114187479019165,0.012715072371065617,-0.1092185378074646,-0.09453841298818588,-0.03549741581082344,0.30753910541534424,0.054514747112989426,0.018548591062426567,0.012284841388463974,-0.017735954374074936,0.4142940044403076,0.28980427980422974,-0.07853619009256363,-0.1700715273618698,0.031715281307697296,0.01350094098597765,0.10341265052556992,0.05679295212030411,-0.028086012229323387,0.017840053886175156,0.35831418633461,0.17635542154312134,0.027745762839913368,0.02955375611782074,0.052662234753370285,0.022929597645998,-0.03516312688589096,0.023535095155239105,-0.012140974402427673,0.030518975108861923,-0.0038137566298246384,-0.05523085594177246,-0.010381771251559258,-0.026880286633968353,0.25223472714424133
14,0.017221003770828247,0.061230119317770004,-0.030368754640221596,0.007085379213094711,0.00020905904239043593,0.016590919345617294,-0.008064104244112968,0.0055254315957427025,0.022355591878294945,0.08880310505628586,0.023823697119951248,-0.023676855489611626,-0.017476696521043777,-0.02848333679139614,-0.003799421712756157,0.1346481591463089,0.028953464701771736,0.40147921442985535,-0.014281081967055798,0.01568595878779888,-0.0023579641710966825,-0.02996492013335228,0.14730903506278992,-0.019458962604403496,-0.025488872081041336,-0.38584285974502563,0.0324123352766037,-0.020232398062944412,-0.061555150896310806,0.14704839885234833,-0.010044664144515991,-0.20126459002494812,0.20227864384651184,-0.0032475122716277838,-0.005034885369241238,-0.20646357536315918,0.10740423947572708,-0.12285685539245605,-0.07991806417703629,-0.027567239478230476,-0.04250932112336159,0.026640931144356728,0.3633013069629669,-0.018370402976870537,0.3197415769100189,-0.016747087240219116,0.0025266623124480247,0.2270410656929016,-0.032526895403862,-0.09985915571451187,0.23287411034107208,-0.028586367145180702,0.024197259917855263,0.04552682861685753,0.017477918416261673,-0.23333516716957092,0.23316098749637604,0.026507021859288216,0.005836942698806524,0.01181904785335064,-0.03384527564048767,-0.018164558336138725,-0.009419335052371025,-0.0025791910011321306,-0.01644229143857956,-0.1371089220046997,0.03180496022105217,-0.08965396136045456,0.08720541000366211,-0.14467863738536835,0.29230695962905884,-0.03347159922122955,-0.00936268549412489,0.20066004991531372,0.020866548642516136,-0.011328520253300667,-0.03238340839743614,-0.028426669538021088,0.01945716142654419,-0.004496297799050808,0.014274073764681816,-0.013970094732940197,0.01818038336932659,-0.3443564176559448,-0.022208282724022865,0.06344301253557205,0.0034431135281920433,-0.021264810115098953,-0.10011760890483856,-0.0007069664425216615,-0.023356836289167404,-0.2893500030040741,0.024779636412858963,0.21772994101047516,0.027707122266292572,-0.04777289181947708,0.027186157181859016,0.013203741051256657,0.236062690615654,-0.008731106296181679,0.024214860051870346,0.019698036834597588,0.006492206361144781,0.37848126888275146,-0.025508370250463486,0.004959583282470703,-0.11808145046234131,0.017994992434978485,0.015093747526407242,-0.016986839473247528,-0.004023569170385599,-0.02765200473368168,-0.0001239393459400162,0.12268757075071335,0.1340791881084442,0.04118073731660843,-0.030136680230498314,0.03325488045811653,-0.03294476494193077,-0.021871747449040413,-0.012305570766329765,-0.00748553778976202,0.0036557530984282494,-0.0165996253490448,0.31998711824417114,-0.012581033632159233,0.019244663417339325,0.17102280259132385
15,-0.005042536184191704,0.04309101402759552,0.008124654181301594,0.031921543180942535,0.013012022711336613,0.02068278193473816,0.030230935662984848,0.004403020720928907,-0.006904440466314554,0.10247280448675156,0.012186379171907902,-0.021432531997561455,0.02705090120434761,0.010775962844491005,0.012829205952584743,0.08464350551366806,0.0034403037279844284,0.23293466866016388,-0.017712337896227837,-0.005363507196307182,0.0021957033313810825,-0.009969566948711872,0.021390708163380623,0.03027760237455368,-0.02166634052991867,-0.17484204471111298,-0.004447728395462036,0.034573573619127274,-0.0860450267791748,0.1368086040019989,0.00826220028102398,-0.06385207921266556,0.07410471886396408,0.027629490941762924,-0.010257942602038383,-0.12420037388801575,0.04416170343756676,-0.06172741577029228,-0.011676996015012264,-0.02950708009302616,-0.021590761840343475,0.026094313710927963,0.19732046127319336,0.0033708729315549135,0.1775427907705307,-0.033628083765506744,0.013407941907644272,0.17780959606170654,0.014816025272011757,-0.05434480309486389,0.0913291648030281,-0.01593036763370037,-0.034796565771102905,0.04484710842370987,-0.020363617688417435,-0.09278023988008499,0.0863342136144638,0.02151193469762802,-0.010790855623781681,0.027599724009633064,-0.01601196639239788,-0.0045482562854886055,0.017658617347478867,0.0015328569570556283,-0.022020289674401283,-0.040975507348775864,0.03372225910425186,-0.04169296845793724,0.07952108979225159,-0.0178880225867033,0.11681510508060455,-0.014139048755168915,0.013333321548998356,0.060251254588365555,-0.013168607838451862,0.017754752188920975,-0.033802226185798645,-0.01477115135639906,-0.020847948268055916,-0.024345608428120613,0.016008896753191948,0.0040380870923399925,-0.03023558109998703,-0.18402667343616486,0.01824844442307949,-0.004910169169306755,-0.011915433220565319,0.03230195492506027,-0.08382532000541687,-0.022643528878688812,0.020390914753079414,-0.1781938374042511,0.0015448800986632705,0.18143893778324127,-0.015918148681521416,0.014871257357299328,-0.01729559898376465,-0.0211609099060297,0.15982405841350555,-0.015931248664855957,0.027256013825535774,0.027667425572872162,0.010307427495718002,0.16722655296325684,-0.011362608522176743,-0.004286642652004957,-0.12401968985795975,0.017199797555804253,0.023779766634106636,0.029330918565392494,-0.02788420394062996,0.018570829182863235,-0.018793344497680664,0.003952276427298784,0.06832816451787949,-0.004667563363909721,0.004989534616470337,-0.030146468430757523,-0.02068481408059597,0.010444794781506062,-0.01678101159632206,0.009124577976763248,0.026948023587465286,0.019513271749019623,0.17675863206386566,-0.0007249329937621951,-0.024384818971157074,0.02746548131108284
16,0.027531638741493225,-0.007163559086620808,0.0005359522183425725,-0.018393535166978836,-0.032037265598773956,0.009635044261813164,0.03549228608608246,0.002548124175518751,0.023321356624364853,0.011038806289434433,-0.025738444179296494,0.010369837284088135,0.014406175352633,0.019749604165554047,-0.013983548618853092,-0.03504052758216858,0.012726268731057644,-0.031060611829161644,0.002838777843862772,0.006233466789126396,-0.01241463515907526,0.02173975668847561,0.029185296967625618,0.001111886347644031,-0.026092521846294403,0.0009882919257506728,-0.003961077891290188,0.017200615257024765,0.01933927647769451,0.0029821950010955334,0.0085618756711483,-0.002441453281790018,-0.0294489786028862,0.030548157170414925,-0.019159356132149696,-0.02320372685790062,0.007085707038640976,-0.0014712129486724734,-0.024003544822335243,-0.0002669095993041992,-0.00798889622092247,0.0010065692476928234,0.032277096062898636,0.03288360685110092,0.02867944911122322,0.034318309277296066,-0.03132384270429611,-0.012977098114788532,-0.007548140827566385,-0.026509251445531845,-0.0007573409238830209,0.0271119624376297,0.014033211395144463,-0.010240385308861732,0.00823996402323246,-0.0034043535124510527,-0.01783442124724388,-0.02116013504564762,-0.022906210273504257,0.015754930675029755,0.0050998288206756115,0.009004372172057629,0.028141560032963753,0.001023565069772303,0.0064649032428860664,-0.02310139127075672,0.03550782427191734,0.007852550595998764,-0.017718572169542313,0.0033680202905088663,-0.009984663687646389,-0.030107801780104637,-0.03337022662162781,-0.01283015962690115,0.03322039544582367,-0.021237952634692192,-0.031567808240652084,0.017119893804192543,0.028907615691423416,0.00665960181504488,-0.029265979304909706,0.024105902761220932,-0.03458684682846069,-0.034850623458623886,0.016820687800645828,-0.035065002739429474,-0.00661421287804842,0.006491457112133503,-0.0058410256169736385,0.014659260399639606,-0.023997081443667412,0.029324868693947792,-0.005205209832638502,-0.030405433848500252,-0.024523021653294563,-0.018014580011367798,-0.0205129012465477,0.004442321602255106,-0.03511400520801544,-0.012394045479595661,0.00999073963612318,0.00856868363916874,-0.02556423284113407,-0.016255894675850868,0.017250219359993935,-0.0005216811550781131,0.03061860054731369,0.0005948501056991518,0.023915095254778862,0.0011877375654876232,0.01869240403175354,-0.008567576296627522,-0.006276761181652546,0.021190447732806206,-0.017589164897799492,0.03365671634674072,0.0323689803481102,0.024603653699159622,0.017400413751602173,-0.017204171046614647,-0.016977038234472275,-0.0068505494855344296,0.024605441838502884,-0.024764109402894974,-0.022990312427282333,-0.011607919819653034,-0.03299639746546745,0.028518537059426308
17,0.005278890021145344,0.014185348525643349,0.021672731265425682,0.031041916459798813,0.031541161239147186,-0.013193394988775253,0.027849096804857254,-0.012556621804833412,-0.0007501543150283396,0.006607170682400465,-0.012008595280349255,0.027377525344491005,0.020867442712187767,-0.035127609968185425,0.02766580879688263,0.0028514224104583263,0.020580751821398735,0.011490728706121445,-0.020479006692767143,0.023953856900334358,0.012397954240441322,0.034702785313129425,0.02801802009344101,-0.008646446280181408,-0.02474212273955345,-0.03368493169546127,-0.030719034373760223,0.017284637317061424,0.007965488359332085,-0.03273377567529678,0.014327982440590858,-0.023065360262989998,-0.009966722689568996,-0.015438714995980263,0.020896295085549355,0.007861738093197346,-0.019294066354632378,-0.028431769460439682,-0.000635696342214942,0.01314511988312006,-0.011146856471896172,-0.03551642224192619,0.016859127208590508,0.03018542006611824,0.023684537038207054,0.014155102893710136,-0.010578875429928303,-0.027437947690486908,-0.010388553142547607,0.0349886380136013,0.0005943349679000676,0.014091496355831623,0.034239690750837326,0.0009465047623962164,-0.0284576378762722,-0.001860329182818532,0.022590847685933113,0.009431771002709866,0.00340886227786541,0.027010353282094002,0.0055314176715910435,0.00930583942681551,0.01547131035476923,0.011719784699380398,-0.01808483712375164,0.005641077645123005,0.03048558533191681,-0.008052894845604897,0.025076862424612045,0.02358870953321457,0.03183884546160698,-0.01212503295391798,0.014572851359844208,-0.034791186451911926,-0.027966918423771858,-0.014264528639614582,0.020061969757080078,0.02858208864927292,-0.004214853048324585,0.01537793967872858,0.0040024565532803535,-0.013100688345730305,-0.029881618916988373,0.015690404921770096,-0.0014887367142364383,0.03495852276682854,-0.019318338483572006,0.01636735536158085,-0.021419120952486992,-0.026617595925927162,-0.005035830661654472,0.031437139958143234,-0.03161941096186638,0.015209896489977837,0.02486826293170452,-0.030287012457847595,-0.002910094801336527,-0.011233181692659855,-0.020762529224157333,0.018727414309978485,-0.0026357644237577915,-0.0018883561715483665,0.014315026812255383,0.03306809067726135,0.0013346034102141857,0.02055790275335312,0.01164519414305687,0.0313621386885643,0.02813725918531418,0.026522191241383553,-0.02612411230802536,0.0015667082043364644,-0.0006152944988571107,0.00011752759019145742,-0.03295721486210823,-0.00885690189898014,-0.008222619071602821,-0.019134577363729477,-0.011952916160225868,0.008019405417144299,-0.0061693149618804455,0.02951187826693058,-0.03459198400378227,-0.005446485243737698,0.024198342114686966,0.024764563888311386,0.023880470544099808,0.02795856073498726
18,-0.016672855243086815,-0.03188971430063248,0.0023060867097228765,0.030749471858143806,-0.011092535220086575,0.014739769510924816,-0.03280205279588699,-0.009342534467577934,-0.012648331932723522,0.032989706844091415,0.022801468148827553,0.007138269487768412,0.0029476755298674107,-0.014596683904528618,0.006011171266436577,-0.0007644168217666447,-0.03287225961685181,-0.02193768136203289,0.02464590035378933,0.0074787144549191,-0.0005856795469298959,-0.007177689578384161,0.019135063514113426,0.0200895257294178,0.013392921537160873,0.0070693581365048885,-0.03160271793603897,-0.03361324220895767,0.01733960025012493,0.0031183618120849133,0.012345791794359684,0.022481782361865044,0.005862355697900057,-0.009600605815649033,-0.009700928814709187,-0.01662357896566391,-0.033265870064496994,-0.02323211543262005,-0.029614990577101707,0.032028935849666595,-0.010458665899932384,-0.0031323733273893595,0.018925629556179047,-0.026094505563378334,-0.02382657118141651,0.012967816554009914,0.014419798739254475,0.03550004959106445,-0.02017172798514366,0.008707791566848755,-0.024803461506962776,-0.01892361044883728,0.012404114939272404,-0.028288450092077255,-0.023718737065792084,-0.03525867685675621,0.015693269670009613,0.010124717839062214,-0.012137669138610363,-0.019213149324059486,-0.02896479330956936,-0.009222916327416897,-0.013878580182790756,0.034004345536231995,-0.014423132874071598,-0.014111723750829697,0.03500064089894295,-0.019179267808794975,0.007832298055291176,0.017239784821867943,-0.009601972065865993,-0.026367010548710823,0.003942753653973341,0.01925106719136238,0.008146247826516628,0.031623728573322296,-0.03399172052741051,-0.02041741833090782,-0.02063128910958767,0.028224311769008636,-0.008466831408441067,0.01317660789936781,0.004203830845654011,-0.02158639021217823,-0.0008982334984466434,-0.0005878806114196777,0.006901532877236605,-0.021235385909676552,-0.017907291650772095,-0.008702193386852741,0.013689825311303139,0.018259624019265175,-0.02078058570623398,-0.0035673424135893583,0.03144441172480583,-0.024411233142018318,-0.001612514373846352,-0.010418040677905083,-0.024966305121779442,0.014005695469677448,-0.014915475621819496,-0.02881545014679432,0.02210404723882675,0.02886234223842621,0.023723246529698372,0.003946853801608086,0.035561613738536835,0.0022306102328002453,0.011506051756441593,-0.03459007292985916,0.023661840707063675,-0.013390413485467434,-0.014594845473766327,-0.024072248488664627,0.03362127020955086,-0.03180267661809921,0.028740130364894867,-0.016583025455474854,0.022351019084453583,-0.033298175781965256,-0.01612907648086548,-0.0011588208144530654,0.009465320035815239,0.03401346877217293,0.023904643952846527,-0.029119109734892845,-9.513753320788965e-05,-0.014945635572075844
19,0.009103511460125446,0.020559515804052353,0.0028554373420774937,-0.0013650358887389302,0.031644150614738464,-0.016821274533867836,-0.012990633025765419,0.0023702129255980253,-0.013868741691112518,0.0033107614144682884,0.03214915469288826,0.013312327675521374,-0.01493125781416893,0.0007739620632492006,0.0060080974362790585,-0.022041965276002884,-0.01609816402196884,0.010196937248110771,-0.0013454386498779058,0.03164122626185417,-0.014233555644750595,-0.03149772435426712,-0.001302531803958118,0.032499998807907104,-0.018761375918984413,-0.0039016520604491234,-0.01995587907731533,0.025875398889183998,0.03292488679289818,-0.01779279112815857,0.011868519708514214,-0.01395577285438776,0.02706018276512623,-0.010741975158452988,0.02425183728337288,0.0009552751434966922,0.02952699363231659,0.025642069056630135,0.016719413921236992,0.00538991205394268,0.013261680491268635,0.026372339576482773,-0.022324133664369583,-0.002033544471487403,0.013137651607394218,-0.02868041954934597,0.026631616055965424,-0.030937518924474716,0.0157465822994709,0.018324941396713257,-0.0032007950358092785,0.002092821290716529,0.012238464318215847,0.03367447853088379,-0.010058918967843056,0.02451527677476406,-0.017920685932040215,0.0331609770655632,0.004949561320245266,0.031501926481723785,0.0015805023722350597,-0.0031469380483031273,0.03220172971487045,-0.017288830131292343,-0.004577407147735357,-0.033719293773174286,-0.024327082559466362,-0.03066975437104702,-0.015381140634417534,0.018804771825671196,-0.02431955188512802,0.009477032348513603,-0.016018711030483246,0.014317909255623817,0.033462293446063995,0.010276049375534058,-0.0062955706380307674,0.010590911842882633,0.0043613361194729805,0.031656552106142044,0.025007760152220726,-0.03428693488240242,0.004614642821252346,0.017495041713118553,0.0113625917583704,-0.03111965022981167,-0.014497349038720131,0.02139345370233059,-0.0040087103843688965,-0.004669790156185627,0.025415707379579544,0.006126404274255037,-0.00873382668942213,0.01202181912958622,-0.02340860106050968,0.014636628329753876,-0.016977829858660698,0.019740425050258636,-0.026540162041783333,0.013717498630285263,0.027162766084074974,-0.00033243215875700116,-0.004587761126458645,0.033727504312992096,-0.002915953053161502,0.025249069556593895,-0.01655011996626854,-0.02122366614639759,0.026215996593236923,-0.03496995568275452,0.007439805194735527,0.0016787947388365865,-0.01439995039254427,0.027765994891524315,-0.03224750980734825,0.032126203179359436,0.015118859708309174,-0.03183116391301155,-0.02499692514538765,0.03069012239575386,0.027093160897493362,-0.029581274837255478,-0.0016120204236358404,0.007190593983978033,-0.021750204265117645,0.0031859194859862328,-0.022202616557478905,0.006163048092275858
20,-0.01645488105714321,-0.011099419556558132,0.009729037061333656,-0.028661051765084267,-0.00599468220025301,-0.021922044456005096,0.0021728873252868652,0.02688402496278286,-0.020814398303627968,0.003037027083337307,-0.016883952543139458,-0.028844596818089485,-0.014576146379113197,0.0285978801548481,0.017291167750954628,0.03478659689426422,-0.02714255079627037,0.015545837581157684,0.020018791779875755,0.010929908603429794,0.008871747180819511,-0.01762271486222744,-0.033325277268886566,-0.002780629089102149,-0.030581453815102577,0.032505184412002563,-0.022106226533651352,-0.029245084151625633,0.01231712568551302,-0.013071933761239052,-0.02589060738682747,-0.029087059199810028,0.03280182555317879,-0.02536315657198429,0.0031462099868804216,-0.028738470748066902,-0.008669018745422363,0.02911677211523056,0.024900909513235092,-0.026629192754626274,-0.00910953152924776,-0.012708473019301891,0.021369632333517075,-0.023806598037481308,-0.012165210209786892,-0.006141305435448885,0.030374029651284218,-0.008034361526370049,0.008869750425219536,-0.01661539636552334,0.004469424486160278,0.017125863581895828,-0.009136689826846123,0.002038078848272562,0.001164283137768507,0.006827542092651129,-0.02082706429064274,-0.011417184956371784,-0.029295768588781357,-0.02364586666226387,0.0023476567585021257,-0.013287783600389957,0.031710024923086166,-0.03513983637094498,-0.03121563419699669,0.01994769647717476,-0.007447460200637579,0.01994335651397705,-0.03050108253955841,-0.004429821856319904,-0.03310883045196533,0.010767004452645779,-0.020014921203255653,0.02825479581952095,-0.01315082423388958,0.01793704368174076,0.02715238183736801,-0.003870398038998246,-0.021035809069871902,-0.005992685444653034,0.03191016986966133,0.019495420157909393,-0.006616771686822176,-0.026789674535393715,0.01549471728503704,-0.0034059288445860147,-0.009892268106341362,-0.007322503253817558,-0.010499903932213783,0.01451391912996769,-0.016836877912282944,-0.0025389492511749268,-0.027819804847240448,0.0171014666557312,-0.025963230058550835,-0.011899497359991074,0.01516861654818058,-0.011709473095834255,0.015181184746325016,0.011938164010643959,0.03390215337276459,0.0305146723985672,0.015945788472890854,-0.030366668477654457,0.019779618829488754,0.03201320767402649,0.019089261069893837,-0.007475512567907572,0.02903558313846588,-0.030253713950514793,0.026800131425261497,0.03121524676680565,0.011579620651900768,-0.01759421080350876,-0.013945171609520912,-0.012814483605325222,0.010262217372655869,0.024347860366106033,-0.013660738244652748,-0.029486730694770813,-0.017493844032287598,0.002537105930969119,0.024980759248137474,-0.004689246416091919,0.02401275373995304,-0.02831556275486946,0.01883380487561226,-0.03448128327727318
21,-0.004188316408544779,-0.027166832238435745,0.02717634290456772,-0.011524869129061699,0.0202612467110157,0.033385537564754486,0.029027573764324188,-0.010066011920571327,-0.027507085353136063,-0.0046691386960446835,0.015175173059105873,-0.025949032977223396,-0.02396976202726364,-0.01946018449962139,-0.03560144454240799,-0.028648849576711655,0.03469521924853325,-0.017053646966814995,-0.01048030611127615,-0.03252524882555008,-0.013260803185403347,0.034708574414253235,-0.009675017558038235,0.024229830130934715,0.002579301595687866,-0.013299163430929184,0.02745513617992401,0.005401662550866604,-0.002429289510473609,-0.012398512102663517,-0.006099910009652376,-0.027896281331777573,-0.004873986821621656,-0.03220462426543236,-0.008996125310659409,0.02849997952580452,0.033152639865875244,0.027492810040712357,0.004601206164807081,-0.011323733255267143,0.02122640796005726,-0.03146088123321533,-0.021965088322758675,0.003989326301962137,0.029227981343865395,-0.021847564727067947,0.027601048350334167,0.012893600389361382,0.027838878333568573,0.031080417335033417,0.03068454936146736,0.000912487565074116,-0.031082311645150185,-0.006203609053045511,0.01569095253944397,-0.004654675722122192,-0.03469712287187576,-0.009489158168435097,0.032031573355197906,0.02883991226553917,0.018073154613375664,-0.03433864936232567,0.0034379109274595976,0.0025378253776580095,-0.006349440198391676,0.028578724712133408,0.017448728904128075,0.03505460172891617,0.02015836350619793,-0.003612939966842532,0.025643719360232353,-0.005635461769998074,-0.029079314321279526,0.011254656128585339,-0.020382026210427284,-0.0031031796243041754,-0.008643793873488903,-0.006925744935870171,-0.0233265683054924,0.020507996901869774,-0.023356596007943153,-0.03138026222586632,0.023379649966955185,0.03329524025321007,0.010127289220690727,-0.018515732139348984,-0.029259121045470238,0.006119494326412678,0.034999411553144455,0.026200396940112114,0.026489080861210823,0.007615617476403713,0.029087748378515244,-0.02048230729997158,0.005607102997601032,0.028413232415914536,0.020160531625151634,-0.014612811617553234,0.0023606419563293457,-0.016063371673226357,-0.03026440367102623,-0.020361965522170067,0.021363284438848495,0.011401952244341373,-0.014674817211925983,-0.02378998138010502,0.01104607805609703,-0.01165557000786066,-0.024367308244109154,-0.01957557536661625,-0.03294385224580765,0.027977395802736282,0.0023798474576324224,-0.03479429706931114,0.03417839854955673,-0.0028284618165344,-0.026840275153517723,-0.022140031680464745,-0.02407282218337059,0.011932156048715115,0.020331358537077904,0.02621086686849594,0.02149965986609459,0.029670018702745438,-0.011504480615258217,0.026531318202614784,0.030399128794670105,-0.027916274964809418
22,-0.014505655504763126,0.005222248379141092,-0.016877060756087303,-0.009550976566970348,0.03246702253818512,0.029603129252791405,-0.00599098252132535,-0.009346183389425278,0.008181470446288586,-0.03452860191464424,-0.008362812921404839,-0.020917484536767006,-0.025802744552493095,-0.002097500255331397,0.015781305730342865,-0.03026515431702137,0.013106117025017738,0.02419367991387844,-0.008791646920144558,0.022614147514104843,0.013254336081445217,-0.006614089477807283,-0.028692612424492836,-0.012827579863369465,-0.0021414929069578648,-0.03299762308597565,-0.01468613836914301,-0.017986051738262177,-0.03488747775554657,-0.033311933279037476,-0.01779332384467125,-0.0227839145809412,0.031200090423226357,-0.015931833535432816,-0.015829069539904594,-0.004147955682128668,-0.021460475400090218,0.003383027855306864,0.012698323465883732,-0.008106036111712456,0.010763722471892834,0.008972304873168468,0.026980005204677582,-0.03180738165974617,-0.014617984183132648,-0.027354177087545395,0.010168343782424927,-0.0006338953971862793,-0.022964371368288994,0.01048068143427372,-0.030897295102477074,0.02141747809946537,0.010975493118166924,0.02775319665670395,0.010381958447396755,0.029849862679839134,-0.007916152477264404,-0.007714787032455206,0.018420934677124023,-0.02136635035276413,0.02334001287817955,0.02685750462114811,0.003405822440981865,-0.007887359708547592,0.03505798801779747,0.030120745301246643,0.00021043421293143183,-0.013069515116512775,-0.022128310054540634,-0.03147752210497856,0.011600418016314507,0.013987486250698566,-0.031622935086488724,0.02587759681046009,-0.025011608377099037,-0.006895274389535189,0.030448587611317635,-0.02832956053316593,-0.013357524760067463,-0.026615016162395477,0.03361058980226517,0.007373533211648464,0.007423971779644489,0.005632234737277031,-0.012976647354662418,-0.03055708110332489,0.015971070155501366,0.013210130855441093,-0.024676848202943802,0.03253554552793503,-0.018183644860982895,0.016869856044650078,0.03450601175427437,0.035560183227062225,-0.03015882335603237,-0.003081811359152198,0.017391009256243706,-0.00403246283531189,-0.006782651413232088,-0.029530968517065048,-0.014237643219530582,-0.004058595281094313,-0.03337988257408142,-0.017870094627141953,-0.012815279886126518,0.009813296608626842,0.024900449439883232,-0.009851425886154175,0.02509402483701706,0.02479657158255577,0.030878599733114243,0.03234316036105156,-0.01605943776667118,-0.01844683289527893,-0.010730535723268986,0.005752116907387972,-0.0330299437046051,0.03506464511156082,0.0024870294146239758,-0.022825760766863823,-0.01809302531182766,0.005326594691723585,-0.009769904427230358,-0.013279762119054794,0.0029945161659270525,-0.03522130846977234,0.017957812175154686,-0.008264882490038872
23,0.023691821843385696,0.01730220764875412,0.0213216133415699,0.0005899284733459353,-0.013002625666558743,-0.025810834020376205,0.00746068824082613,0.006798561662435532,0.03300183638930321,0.013968480750918388,0.022655798122286797,-0.022853542119264603,-0.030792931094765663,-0.0010099837090820074,0.028691373765468597,-0.025646040216088295,-0.014968927949666977,0.0009120490285567939,-0.03377914056181908,-0.0320013053715229,-0.034206368029117584,-0.03321485593914986,-0.017111102119088173,-0.019291210919618607,-0.029611563310027122,-0.020853515714406967,-0.0060332887805998325,0.0135005759075284,-0.016487425193190575,-0.02382250875234604,0.029603317379951477,0.006586539093405008,0.00409661466255784,-0.020302994176745415,-0.0061423396691679955,0.03345073014497757,-0.025255056098103523,0.0022270807530730963,0.035539787262678146,0.032267820090055466,0.03026377037167549,0.03071841225028038,0.027534715831279755,0.008220357820391655,-0.005979546811431646,-0.032714471220970154,-0.007786461617797613,-0.03477117419242859,0.01543937437236309,0.02664271555840969,0.019797002896666527,0.03536112979054451,-0.03093216009438038,0.03551416099071503,0.01429770328104496,-0.013158436864614487,0.0231745857745409,0.004280933644622564,-0.027879465371370316,0.004397737327963114,0.0021124696359038353,-0.0063241636380553246,-0.009566575288772583,-0.01583675481379032,0.02753400430083275,0.030656764283776283,-0.028430620208382607,0.0057214414700865746,0.029858283698558807,-0.02117089368402958,0.007688007317483425,0.0006683128303848207,-0.011904469691216946,0.026387032121419907,0.00983277428895235,-0.014627985656261444,-0.029816288501024246,-0.02711383067071438,0.0035028927959501743,0.005008352920413017,-0.0023296221625059843,-0.016810178756713867,-0.004036366939544678,-0.012665498070418835,0.006948858965188265,-0.02244359441101551,-0.03187618404626846,0.025997120887041092,0.017831802368164062,0.0026047357823699713,-0.012283334508538246,-0.003256350988522172,-0.009960043244063854,-0.031188102439045906,0.03345196321606636,0.014585691504180431,-0.00321768457069993,-0.017833024263381958,0.02645082212984562,-0.007755173370242119,0.034523624926805496,-0.014953596517443657,-0.028111569583415985,-0.01849082112312317,-0.022522808983922005,-0.026112131774425507,-0.026811635121703148,-0.02561887726187706,0.01568959467113018,-0.0013724055606871843,-0.015443218871951103,0.02049390785396099,-0.008591605350375175,-0.011912585236132145,0.009880539029836655,0.00933526735752821,-0.025792105123400688,-0.008052954450249672,-0.025699658319354057,0.007760814391076565,-0.016164690256118774,-0.028676247224211693,0.031069854274392128,0.011721122078597546,0.01435755006968975,0.004142552614212036,0.02556609734892845,-0.01954573020339012
24,-0.028191793709993362,0.03090704046189785,0.008734341710805893,-0.03238040208816528,-0.00868166796863079,0.029009053483605385,0.018797926604747772,-0.013071627356112003,0.005077051464468241,0.027841176837682724,-0.0053663854487240314,-0.01594228483736515,0.006344953086227179,-0.017959922552108765,0.021389149129390717,-0.032431166619062424,-0.026932718232274055,-0.01796276681125164,0.009980449452996254,0.01717669703066349,-0.01381895411759615,-0.018909774720668793,0.028087899088859558,-0.01931651309132576,0.009622318670153618,-0.001824212959036231,0.026090094819664955,-0.019898708909749985,0.016723599284887314,0.029313229024410248,-0.013634899631142616,-0.034388698637485504,0.024206478148698807,-0.005381669383496046,-0.020636653527617455,0.026507455855607986,-0.0014167939079925418,0.014097895473241806,-0.010022176429629326,-0.012548617087304592,0.021323388442397118,0.01683078147470951,-0.03259957954287529,0.01518674474209547,0.011369160376489162,-0.008572719059884548,-0.020969131961464882,0.008478701114654541,0.013095234520733356,0.019871482625603676,-0.013171056285500526,-0.006080538500100374,-0.02877344936132431,-0.03515325114130974,-0.004316977225244045,0.029339710250496864,0.0031279411632567644,-0.024055834859609604,0.033383894711732864,0.01666743867099285,-0.006268194876611233,-0.02131686545908451,-0.005434377118945122,0.011682791635394096,0.0032053932081907988,-0.012565839104354382,-0.029940184205770493,0.020236169919371605,-0.019125347957015038,0.009253059513866901,-0.005361293442547321,0.03144695609807968,0.005253732670098543,-0.023647628724575043,-0.014689531177282333,-0.015091650187969208,0.01893017254769802,0.0007947981939651072,0.016426661983132362,0.026495125144720078,-0.012075531296432018,0.011655825190246105,-0.008906522765755653,0.0014638134744018316,0.02717423066496849,-0.02236585132777691,-0.01858864538371563,-0.02095825783908367,-0.02665519341826439,-0.035485126078128815,-0.007677963934838772,-0.0073188673704862595,0.02409418672323227,-0.016568249091506004,-0.027424022555351257,0.017074406147003174,-0.031542979180812836,-0.008475078269839287,-0.03536073863506317,0.023462705314159393,0.011922372505068779,-0.014910387806594372,0.01563536748290062,0.027246762067079544,0.0006281350506469607,-0.029787840321660042,0.0006583588547073305,-0.021306507289409637,0.011319322511553764,0.01746164634823799,-0.008813624270260334,-0.003186421934515238,-0.01843697391450405,-0.03345850110054016,-0.00019800238078460097,0.024517817422747612,0.024509640410542488,0.018833599984645844,-0.025414515286684036,-0.031279344111680984,-0.0068778484128415585,-0.006512386724352837,-0.000311757845338434,-0.02170911617577076,0.020039640367031097,-0.03360382840037346,-0.010074254125356674,0.030192099511623383
25,-0.016464656218886375,-0.021814024075865746,-0.023825598880648613,0.0066187684424221516,0.018733195960521698,0.007405711337924004,-0.01868569105863571,0.0311521477997303,0.0048269289545714855,0.0035390558186918497,-0.028389539569616318,-0.02165217511355877,0.01874031499028206,-0.01600790023803711,0.023191461339592934,-0.007197946775704622,0.019777558743953705,0.03060346096754074,0.012181184254586697,-0.0027781003154814243,-0.024470487609505653,-0.02227613888680935,-0.004120613913983107,-0.034283846616744995,0.0030487223993986845,-0.014309615828096867,-0.016694260761141777,-0.03060355968773365,0.03247680142521858,-0.019012749195098877,0.015592443756759167,0.013193007558584213,0.02117880806326866,-0.003113308222964406,-0.008510828018188477,-0.03197507932782173,0.016093267127871513,-0.0062089222483336926,-0.03180046007037163,0.0013164069969207048,-0.013800660148262978,0.033434998244047165,-0.03335823491215706,0.012276054359972477,-0.032105252146720886,-0.004729249980300665,-0.00027577794389799237,0.014097180217504501,-0.034241367131471634,-0.020882369950413704,-0.008417380973696709,0.025838954374194145,-0.024833757430315018,0.0013353739632293582,-0.01088747475296259,-0.00659254239872098,0.023522157222032547,-0.0036255079321563244,-0.012641818262636662,0.003922215662896633,0.02317444421350956,-0.017130712047219276,0.0004287021583877504,0.034037962555885315,-0.02669229730963707,0.00774496840313077,0.03530251979827881,-0.02909131720662117,0.006365499459207058,0.03505115583539009,-0.022687623277306557,0.0038110530003905296,-0.0019004984060302377,0.020023755729198456,-0.0018125134520232677,0.025033045560121536,-0.014570892788469791,-0.010233228094875813,0.01748586632311344,0.0009595368755981326,0.014581140130758286,0.01125942450016737,-0.005874693859368563,-0.01846664398908615,0.014494509436190128,0.03240971267223358,0.01539661269634962,-0.03183905407786369,-0.009233313612639904,-0.009703104384243488,-0.01890375465154648,0.009562935680150986,-0.028632404282689095,0.02976757474243641,0.0011389553546905518,-0.013652686960995197,-0.007873003371059895,0.0021651643328368664,-0.02566131204366684,-0.02716677635908127,-0.018979512155056,-0.020858297124505043,-0.01283169724047184,0.01061782706528902,-0.027118096128106117,-0.009251735173165798,0.00018392290803603828,0.015468035824596882,0.015054273419082165,0.0002200986782554537,-0.023529866710305214,-0.03088442049920559,0.008219702169299126,-0.02757892571389675,-0.03218058869242668,0.03471711277961731,0.00813176017254591,-0.025317026302218437,0.011211063712835312,0.018083471804857254,0.027753742411732674,0.0356978140771389,0.02409299463033676,-0.015905117616057396,-0.03256991505622864,0.009567341767251492,0.003853278700262308,-0.02645946480333805
26,-0.01008481252938509,-0.017575154080986977,0.0124352453276515,-0.014853273518383503,-0.030576106160879135,0.00915452465415001,-0.02162841148674488,0.02686656452715397,-0.013397949747741222,-0.0278534684330225,-0.035351693630218506,-0.01168555486947298,0.029144177213311195,-0.009555774740874767,-0.02868785709142685,-0.019082985818386078,0.008290048688650131,0.022821253165602684,0.023447727784514427,-0.034064918756484985,0.015194650739431381,-0.009322285652160645,0.03558081015944481,0.031593307852745056,0.004664583131670952,0.03495363891124725,0.001914603402838111,-0.03217539191246033,0.012046013958752155,-0.0066691129468381405,0.009479178115725517,-0.02200094424188137,-0.023424524813890457,0.025314850732684135,-0.010514510795474052,-0.035504333674907684,0.013163597323000431,0.012160446494817734,0.017497416585683823,0.005800039041787386,-0.01445849984884262,-0.017394594848155975,-0.031457677483558655,0.016085021197795868,0.0071100639179348946,0.02087845653295517,0.002800426445901394,-0.012327892705798149,0.0011254039127379656,0.03148791193962097,0.03096620738506317,-0.030415289103984833,0.015086357481777668,-0.032168980687856674,-0.03461334854364395,0.013967114500701427,-0.00888993963599205,0.009983953088521957,-0.01760389283299446,0.011769333854317665,0.019806066527962685,0.03519407659769058,0.014338396489620209,0.02480454556643963,0.008831326849758625,0.012086447328329086,0.03496649116277695,0.033504534512758255,0.025534771382808685,0.006373082287609577,0.02082853764295578,0.024929363280534744,0.023948900401592255,-0.005219736602157354,0.0058664255775511265,-0.005775703117251396,-0.027044732123613358,0.021471621468663216,0.010587943717837334,0.034020669758319855,0.01623474806547165,-0.0015017135301604867,0.024341294541954994,-0.0015248018316924572,-0.034022167325019836,-0.007672701962292194,0.03304107114672661,0.03144076466560364,-0.02017125114798546,0.0051438468508422375,-0.008544828742742538,0.01667942851781845,0.015436522662639618,0.0037673457991331816,0.02301741950213909,0.0013798305299133062,-0.004833949729800224,0.03349657729268074,0.022225137799978256,-0.02487712725996971,0.011248065158724785,0.02103906124830246,-0.035016074776649475,-0.032655537128448486,0.028751663863658905,0.02989118918776512,-0.00038556542131118476,-0.0012820917181670666,0.02257472835481167,-0.03475874662399292,-0.007743746507912874,0.016738122329115868,-0.023005150258541107,0.011771815828979015,-0.005646688863635063,-0.028381571173667908,0.0321185477077961,0.02243652194738388,-0.014838249422609806,-0.01838015764951706,0.03121764026582241,0.021817008033394814,0.004082714207470417,-0.03384754806756973,-0.0340799018740654,-0.02686832845211029,-0.02966533973813057,0.0011262893676757812
27,-0.021474016830325127,0.006866531912237406,-0.02141905389726162,-0.009144327603280544,0.021140286698937416,0.03442380577325821,0.03531907498836517,0.0015003937296569347,-0.014078409411013126,0.032067447900772095,-0.0013381243916228414,-0.022108500823378563,-0.000906978384591639,-0.010671611875295639,0.030912255868315697,0.02928713522851467,-0.017570365220308304,0.02611618861556053,0.004733315669000149,-0.006740638520568609,-0.02507910691201687,-0.025857646018266678,-0.018003353849053383,0.008844401687383652,0.015688084065914154,-0.027899065986275673,-0.031238799914717674,-0.027388015761971474,-0.02490750141441822,-0.004977052100002766,0.012614463455975056,-0.0010626018047332764,0.03454315662384033,-0.003120643785223365,-0.023746324703097343,0.02219315990805626,0.034861862659454346,0.029279058799147606,-0.009546088986098766,0.034950681030750275,-0.0007336097187362611,0.01873549446463585,-0.016678189858794212,0.032961055636405945,0.01895170286297798,0.017437662929296494,0.016317546367645264,0.033822741359472275,0.03199975937604904,-0.016635775566101074,0.006161506753414869,0.01264104712754488,-0.012080538086593151,-0.02739845961332321,0.02229701355099678,-0.029711520299315453,0.017136527225375175,-0.00817862618714571,0.031611572951078415,-0.027260279282927513,-0.02663540095090866,0.02763570286333561,-0.007421826012432575,-0.006520203314721584,-0.020168939605355263,-0.024735337123274803,0.0069628190249204636,0.008775507099926472,0.025942156091332436,-0.019411010667681694,-0.02664162963628769,0.02388518676161766,-0.030415378510951996,0.019497033208608627,0.018881164491176605,-0.03065548837184906,0.018362462520599365,-0.00677464297041297,0.025145025923848152,-0.03176509588956833,-0.004790736362338066,0.0038969051092863083,0.03118710219860077,-0.00986076332628727,0.0031523534562438726,-0.016262877732515335,-0.027806241065263748,0.014437956735491753,0.0022949236445128918,0.012798012234270573,0.006241560447961092,0.031936775892972946,-0.014495824463665485,-0.015092330984771252,0.014588160440325737,0.004139351192861795,-0.01161056850105524,0.022289881482720375,0.003197372192516923,-0.02285618521273136,-0.004820666275918484,0.0343269519507885,0.00750431464985013,0.02650340273976326,-0.022379620000720024,-0.011808336712419987,-0.015097614377737045,-0.006698574870824814,-0.0005598877323791385,0.025633463636040688,0.0041618989780545235,0.030471768230199814,-0.03229143097996712,0.011585904285311699,0.01999642699956894,-0.025549370795488358,-0.01764349453151226,0.01498354785144329,-0.02407311275601387,0.03364718705415726,-0.004044204950332642,-0.026226921007037163,0.0289097148925066,0.028555607423186302,-0.025868365541100502,-0.013314034789800644,0.013257874175906181,0.0009388115140609443
28,0.0033708258997648954,0.00968790054321289,-0.011242172680795193,-0.01844615302979946,-0.022432617843151093,-0.0018752814503386617,-0.0007969141588546336,-0.023095371201634407,-0.01119370199739933,0.00800091028213501,0.010528760962188244,0.010638211853802204,-0.005204047542065382,-0.0114956209436059,0.00798502191901207,0.019120311364531517,-0.025919489562511444,-0.024590523913502693,-0.003415857208892703,0.031179940328001976,0.02767172083258629,-0.012088078074157238,-0.01663365587592125,-0.02521112747490406,-0.01802772283554077,-0.034327469766139984,0.026376495137810707,-0.013361246325075626,-0.028835825622081757,0.02845008671283722,0.008566205389797688,-0.008650852367281914,0.008512267842888832,0.01870606280863285,0.03255697712302208,-0.010982049629092216,0.020105469971895218,0.021596653386950493,0.031238365918397903,-0.0035739969462156296,-0.03375022113323212,-0.005173700395971537,0.010032355785369873,0.007281261030584574,-0.006081330124288797,-0.015369279310107231,-0.0064136432483792305,0.028869064524769783,0.024418707937002182,0.020722564309835434,0.030362091958522797,-0.030769826844334602,0.01757180318236351,0.004341006278991699,-0.011186216957867146,0.026050100103020668,-0.008814016357064247,0.025070948526263237,-0.005181304179131985,-0.016669465228915215,0.029126815497875214,0.03150678426027298,0.015350738540291786,0.02739684283733368,-0.03160616010427475,0.03179800510406494,0.019585976377129555,0.029356975108385086,0.027030831202864647,0.0023442551027983427,-0.017212118953466415,-0.000529570272192359,0.029009245336055756,0.012877766974270344,-0.0018302756361663342,0.008549967780709267,-0.01665939763188362,-0.004710359498858452,-0.019472621381282806,-0.0018323959084227681,-0.030983159318566322,-0.019348064437508583,0.004570990800857544,-0.011417300440371037,-0.03233405202627182,0.005866344552487135,-0.03561295196413994,0.01685917377471924,-0.032620009034872055,0.0313638374209404,-0.02890535444021225,-0.013202807866036892,0.005469109397381544,0.017139874398708344,-0.003412519348785281,-0.015620049089193344,-0.004430677276104689,-0.027866199612617493,0.019169097766280174,0.031035378575325012,0.028858445584774017,0.002628181828185916,-0.022438356652855873,0.012265248224139214,-0.026964358985424042,0.004340925719588995,-0.017700988799333572,-0.01861000619828701,-0.009704764932394028,0.03392115235328674,0.030547425150871277,-0.021455110982060432,0.0055749546736478806,0.0016176190692931414,0.02500624768435955,-0.01655183546245098,-0.02508680336177349,-0.0048124538734555244,-0.0013745555188506842,0.004670104943215847,0.005605523474514484,0.03516438603401184,-0.033814579248428345,-9.515456440567505e-06,-0.011450444348156452,0.02852552756667137,0.016988594084978104,0.004708822350949049
29,-0.03527425602078438,0.0137311527505517,-0.017023887485265732,-0.007540498860180378,0.033170122653245926,-0.011358866468071938,0.025270994752645493,0.00999524351209402,0.01236204244196415,0.025832386687397957,-0.021053370088338852,0.0009216836770065129,-0.002968634944409132,0.0034145331010222435,-0.034810833632946014,0.016969669610261917,-0.018638543784618378,-0.02721867896616459,-0.004798586945980787,-0.016292598098516464,0.008696028962731361,0.032742246985435486,-0.028623811900615692,-0.030966952443122864,-0.031208451837301254,0.015573383308947086,-0.03513084724545479,0.0011708098463714123,0.0343393012881279,0.017738431692123413,-0.003233850235119462,-0.01069972850382328,-0.019838495180010796,-0.03440173715353012,-0.012347596697509289,0.021620245650410652,-0.002615417819470167,-0.020405365154147148,-0.010128187946975231,0.02137446589767933,-0.020809246227145195,-0.0038326086942106485,-0.03181792423129082,0.01901397667825222,-0.032868485897779465,0.009342053905129433,-0.014650877565145493,0.020254753530025482,-0.028247583657503128,0.0003231806622352451,-0.022847147658467293,-0.016296638175845146,0.029022295027971268,0.015461130067706108,-0.02729746326804161,0.008910443633794785,-0.030319329351186752,0.003971581347286701,0.023650264367461205,0.03387388586997986,-0.00285804714076221,-0.03501592203974724,-0.0018140716711059213,-0.010544044896960258,-0.01792117953300476,-0.030731551349163055,0.03418073058128357,0.006909102667123079,0.029238957911729813,-0.02059125527739525,-0.011368582025170326,0.018598714843392372,0.020452946424484253,0.016765262931585312,-0.03524760529398918,0.019649842754006386,-0.03122061677277088,-0.0056491028517484665,0.03249211236834526,-0.03330953046679497,0.013027417473495007,0.00014728307723999023,0.006349632050842047,0.020688891410827637,0.02650258131325245,-0.009499946609139442,0.016413429751992226,2.8831618692493066e-05,0.019979102537035942,-0.0338544063270092,-0.018453296273946762,-0.03222982957959175,-0.00406005559489131,-0.021789036691188812,-0.02125675044953823,0.005313792731612921,0.027735861018300056,-0.023607369512319565,0.004175292793661356,0.0025710933841764927,-0.03536461666226387,-0.0024577209260314703,0.02840493619441986,-0.029819583520293236,-0.006176212336868048,-0.02968958579003811,-0.021155234426259995,0.015837393701076508,-0.015287498012185097,0.017562385648489,-0.014173312112689018,0.01750466227531433,0.005705518648028374,0.009815501980483532,0.02306216210126877,-0.030769817531108856,-0.03492846339941025,-0.0006021602312102914,-0.012413796037435532,-0.02507673017680645,0.00921704526990652,0.032023683190345764,0.020095357671380043,-0.025373639538884163,0.02516949735581875,-0.02624337747693062,0.026129374280571938,-0.0034732564818114042
30,0.032253898680210114,0.019602686166763306,-0.02429693564772606,-0.03316875547170639,-0.023405905812978745,0.02242056094110012,-0.034824714064598083,0.030287543311715126,0.0061573730781674385,0.015511373057961464,0.02809905633330345,0.0018174649449065328,0.014071409590542316,-0.0029856690671294928,0.032317325472831726,0.030682820826768875,0.00869695283472538,-0.03140116482973099,0.014565447345376015,-0.015454374253749847,0.02188846655189991,-0.0169133972376585,0.013602589257061481,0.022408729419112206,0.023085663095116615,-0.008596327155828476,0.021581267938017845,-0.012610150501132011,-0.010817009024322033,-0.015064436011016369,-0.01160263642668724,0.023045694455504417,-0.03427193686366081,-0.00342135364189744,0.030613521113991737,0.007613233290612698,-0.023266589269042015,-0.0332614928483963,-0.018714573234319687,0.018253600224852562,-0.020336586982011795,0.03426127880811691,0.030055426061153412,0.013542648404836655,-0.03477337583899498,0.007650618441402912,-0.002275407314300537,-0.0239680428057909,-0.03130233287811279,-0.016800135374069214,-0.019615650177001953,0.023996533825993538,0.00044170449837110937,-0.018432741984725,-0.021580075845122337,-0.031229130923748016,-0.016295216977596283,-0.017297416925430298,0.008222848176956177,0.0006804594304412603,0.032165609300136566,-0.014374555088579655,0.03309469670057297,-0.03280752897262573,-0.026392413303256035,0.0012638568878173828,-0.02553487755358219,0.03134699910879135,0.03514033183455467,-0.019705794751644135,0.03131144866347313,0.006964815780520439,-0.01664791814982891,0.029548577964305878,0.028347093611955643,-0.0017142125871032476,0.021293262019753456,0.03098704293370247,0.02402123063802719,0.03499159961938858,0.020263969898223877,0.017265278846025467,-0.010375010780990124,-0.023529240861535072,0.012803925201296806,0.031134601682424545,-0.013338698074221611,0.011016747914254665,-0.009111464023590088,-0.010619113221764565,0.008135604672133923,-0.004386804066598415,-0.007094255648553371,-0.027643080800771713,-0.035208579152822495,-0.013294012285768986,-0.019619613885879517,-0.025352036580443382,-0.0031021195463836193,0.010160518810153008,-0.005844350438565016,0.023233653977513313,0.02003338560461998,-0.024891475215554237,0.004486854653805494,-0.01370261050760746,-0.026885339990258217,0.008782434277236462,0.03241227939724922,0.01369455549865961,-0.005534687545150518,0.0034091772977262735,0.008718699216842651,-0.004428097512573004,0.026323068886995316,0.0032295160926878452,0.0195712111890316,0.009409819729626179,-0.011590341106057167,-0.010359845124185085,0.007464886177331209,0.02385142631828785,0.01973719336092472,-0.006342683918774128,-0.03315301984548569,-0.00218666042201221,0.024633897468447685,0.028292857110500336
31,-0.03033815324306488,-0.00809834711253643,0.028127552941441536,-0.018934570252895355,-0.014696837402880192,-0.009225497022271156,-0.013632101938128471,0.011765723116695881,-0.01312203984707594,0.005633375607430935,0.016940347850322723,0.015142122283577919,-0.005656928289681673,-0.01738126017153263,0.027849385514855385,-0.029492273926734924,-0.030069595202803612,0.02309052087366581,0.03416016325354576,0.019313450902700424,-0.02329700067639351,-0.007673528045415878,0.013218850828707218,0.0017020064406096935,0.03239337354898453,0.022204017266631126,-0.0029766305815428495,-0.01188084576278925,-0.009094208478927612,0.0017353850416839123,0.034998200833797455,-0.012184198945760727,0.0012428505579009652,-0.005512923467904329,0.0320659838616848,0.014798254705965519,-0.009642405435442924,-0.020547237247228622,-0.0019898840691894293,-0.0037168606650084257,0.027709072455763817,0.009941667318344116,-0.022917045280337334,-0.028252283111214638,-0.02611357532441616,-0.029230289161205292,0.032516833394765854,-0.023398540914058685,-0.02046484313905239,0.022345783188939095,-0.022714871913194656,0.0036563279572874308,-0.007860954850912094,0.012465903535485268,-0.026232043281197548,-0.024609753862023354,-0.03344542905688286,-0.002169707091525197,-6.749374733772129e-05,0.004574175458401442,0.023278791457414627,-0.031255315989255905,-0.0012142148334532976,-0.015759652480483055,0.017559915781021118,-0.011354775168001652,-0.02800263836979866,-0.031071403995156288,0.029106758534908295,-0.009489472955465317,0.016301428899168968,-0.008674243465065956,0.018952447921037674,0.005745245143771172,0.023183656856417656,-0.026337122544646263,-0.03048175759613514,0.007496659643948078,-0.01807185634970665,0.007762202527374029,0.018138524144887924,-0.010230451822280884,0.03484518826007843,0.02745918370783329,-0.014460611157119274,0.015521224588155746,0.015366636216640472,-0.022153863683342934,0.01935667358338833,0.02299301140010357,0.018696237355470657,0.003776431316509843,0.026165660470724106,0.021105507388710976,0.02508658356964588,0.015480808913707733,0.035067249089479446,0.0005656182765960693,-0.02165358141064644,-0.021033084020018578,-0.02309904433786869,-0.011866578832268715,0.03424941748380661,-0.008913615718483925,-0.018199721351265907,0.03549669310450554,-0.023938767611980438,0.015269467607140541,-0.026538288220763206,0.009056798182427883,0.0010963806416839361,-0.018050212413072586,0.011481430381536484,0.00903385505080223,-0.026372255757451057,-0.02708405815064907,0.011612105183303356,0.024377884343266487,0.02462325058877468,-0.02998371422290802,0.012057730928063393,0.02313210815191269,0.019807960838079453,0.015072785317897797,0.000568002462387085,-0.022626055404543877,-0.017196502536535263,0.01794397085905075
32,0.03837330639362335,0.01982632279396057,-0.031922176480293274,0.003290176624432206,0.026649480685591698,-0.008573630824685097,0.02506023831665516,0.014969894662499428,0.012713469564914703,-0.008123568259179592,0.02153681591153145,-0.03215508908033371,-0.012549201026558876,0.021627895534038544,-0.005697791464626789,-0.02145792357623577,-0.003768682712689042,0.020829256623983383,0.0022956430912017822,0.007272512186318636,-0.030315706506371498,0.020051948726177216,0.01803477481007576,-0.02441084012389183,0.033170007169246674,0.018597878515720367,-0.015350516885519028,0.006233947817236185,-0.011823166161775589,-0.01603240706026554,0.008551478385925293,0.016583897173404694,-0.01585518941283226,0.011145541444420815,0.015935026109218597,0.021565109491348267,-0.021053122356534004,-0.027205709367990494,-0.004087269771844149,-0.008383717387914658,-0.017248110845685005,-0.01817299798130989,-0.011395212262868881,-0.017916105687618256,-0.032075248658657074,0.026403862982988358,0.02662513591349125,0.038160212337970734,0.036503639072179794,0.020645156502723694,-0.03433520346879959,0.01066677551716566,0.007830331102013588,0.01558682695031166,-0.004712918307632208,0.01014098059386015,0.02527700923383236,0.024615561589598656,0.0031509571708738804,-0.008242566138505936,-0.026595158502459526,0.002901149680837989,0.0251646526157856,-0.027047166600823402,-0.03011055663228035,0.013754007406532764,0.03441862016916275,-0.00046796887181699276,0.02365976758301258,0.011609337292611599,-0.02997896447777748,0.017385635524988174,0.005940856412053108,0.03961162269115448,-0.004356204066425562,-0.01081843487918377,-0.024429509416222572,0.030186573043465614,-0.033765487372875214,-0.011638049967586994,-0.0011822028318420053,-0.011085127480328083,-0.018670886754989624,0.028450163081288338,0.03342128545045853,0.030273495241999626,0.034750450402498245,-0.02974911592900753,0.002106266561895609,0.01945977658033371,0.00498257577419281,0.023862114176154137,-0.0067412047646939754,-0.016875527799129486,-0.003900545183569193,-0.014770125038921833,0.008252276107668877,-0.02376129850745201,0.000880925334058702,-0.013661803677678108,-0.03321634978055954,-0.008746156468987465,0.0015345599967986345,0.026883922517299652,-0.022769737988710403,0.03111579269170761,0.007215768564492464,-0.0068903397768735886,0.03119782544672489,-0.00802144780755043,0.029322804883122444,0.006053473334759474,-0.01588146761059761,0.010029362514615059,-0.012564570643007755,-0.012455668300390244,0.030322616919875145,0.01561344601213932,0.027272680774331093,0.00030774305923841894,0.013996650464832783,-0.02871963009238243,0.02972221001982689,0.02376709319651127,0.014807271771132946,0.011390695348381996,0.01376338116824627,0.005167090799659491
33,0.061067838221788406,0.02628648281097412,0.017857680097222328,0.023402713239192963,-0.015549528412520885,-0.04999687150120735,-0.014937498606741428,-0.0189040694385767,0.009453200735151768,0.0255995225161314,-0.022933878004550934,-0.013982181437313557,-0.009840616956353188,0.02554980479180813,0.03502139449119568,0.029690157622098923,0.021197903901338577,-0.021770751103758812,-0.030130060389637947,0.014421055093407631,-0.03161400929093361,-0.03337409719824791,0.03088933788239956,-0.0035639407578855753,0.019060511142015457,0.04075804725289345,-0.007654479704797268,0.03012293204665184,-0.002703866921365261,0.0029820033814758062,0.026754597201943398,0.04587853327393532,0.005072938743978739,0.02456274814903736,-0.002077735960483551,-0.004053840879350901,0.026854149997234344,-0.04823612794280052,0.03327712044119835,-0.03188043460249901,0.018529200926423073,0.019653121009469032,0.008340474218130112,0.06453753262758255,0.012353714555501938,0.0738193467259407,0.03289448842406273,0.07233007252216339,-0.03801731765270233,0.03461141139268875,-0.039322782307863235,0.022614100947976112,0.003682835027575493,0.06613590568304062,-0.015576643869280815,0.06855493783950806,0.041192151606082916,-0.025557348504662514,0.009208296425640583,-0.06005723029375076,0.027882352471351624,0.007391061633825302,0.0344090536236763,0.01040629018098116,-0.006045933347195387,-0.004620294086635113,0.05123301222920418,-0.05991655960679054,0.003796823089942336,0.005832349415868521,-0.026892954483628273,0.04041797295212746,0.05666092038154602,0.017619671300053596,-0.004925491288304329,0.0270854439586401,-0.021500635892152786,0.02505369298160076,0.007548334077000618,-0.007609589025378227,-0.02214185707271099,0.028091274201869965,0.008411752991378307,0.013765023089945316,0.007881583645939827,0.04100416600704193,0.025267424061894417,0.027679458260536194,-0.021552674472332,-0.013138835318386555,0.04060564562678337,-0.0457787923514843,0.02934846840798855,0.06718636304140091,-0.010415831580758095,0.025586705654859543,-0.01962958835065365,0.007243795320391655,-0.01951838843524456,-0.011194893158972263,-0.032927270978689194,-0.01760520413517952,0.023470556363463402,-0.0015339723322540522,-0.03045300580561161,-0.0006880207220092416,-0.03727708384394646,0.0007735448307357728,0.06186562404036522,0.027349939569830894,-0.04662950336933136,-0.007717542815953493,-0.011327428743243217,0.04409250244498253,0.020892811939120293,-0.03566650301218033,0.0222504623234272,0.01110681053251028,0.003283522091805935,-0.025676382705569267,-0.008256467059254646,0.02557632513344288,-0.023778464645147324,0.02068900689482689,-0.010409632697701454,-0.004098730627447367,0.015344892628490925,0.05368632823228836
34,0.2093423753976822,-0.06574398279190063,-0.032143283635377884,0.03245528042316437,0.03061254695057869,-0.16291730105876923,0.021057840436697006,-0.035182394087314606,-0.002432716777548194,0.06710386276245117,-0.19459080696105957,-0.0012131163384765387,-0.03488769009709358,-0.00570664880797267,0.002248662058264017,0.011242736130952835,0.01907607913017273,-0.08675537258386612,-0.031880252063274384,-0.022511841729283333,-0.13051006197929382,-0.018756650388240814,-0.003341800533235073,-0.012984106317162514,0.032828010618686676,0.06704898178577423,-0.027509605512022972,-0.010984213091433048,-0.2818968594074249,-0.018039334565401077,0.034568436443805695,0.047236405313014984,-0.05771002545952797,0.02402541972696781,-0.1827416718006134,-0.14468294382095337,0.23174388706684113,-0.0621945820748806,0.2510185241699219,-0.0015086957719177008,0.19610939919948578,-0.01996653899550438,-0.020186075940728188,0.27816033363342285,-0.1084413081407547,0.27516043186187744,-0.021429676562547684,0.2963782846927643,-0.22461311519145966,0.08664322644472122,-0.04170271009206772,0.03343607857823372,-0.09384015947580338,0.2993580400943756,-0.022017689421772957,-0.030136391520500183,0.3315267562866211,0.0017293456476181746,-0.02055659517645836,-0.17475765943527222,-0.03463262319564819,-0.020716829225420952,-0.026341043412685394,0.02508172020316124,0.004115717951208353,-0.27967092394828796,-0.023897385224699974,-0.29274412989616394,0.23712779581546783,0.11825070530176163,-0.16278651356697083,0.03125151991844177,0.3248484134674072,0.18978939950466156,-0.26701879501342773,-0.1673143357038498,0.007721790578216314,-0.06680090725421906,-0.06617420166730881,-0.0033770673908293247,0.02456906996667385,0.020948998630046844,-0.05371806398034096,-0.024774638935923576,-0.12850607931613922,0.1880323737859726,0.004026447422802448,0.13273079693317413,-0.027897950261831284,-0.04580337181687355,0.003954789135605097,-0.2365008294582367,0.0009301092359237373,0.29636746644973755,-0.10239174216985703,-0.003011746099218726,-0.2557837963104248,0.001983280759304762,0.013630982488393784,-0.030462168157100677,0.0312131866812706,0.011486811563372612,-0.016189303249120712,-0.0029345471411943436,0.14559385180473328,-0.024612177163362503,-0.1354360580444336,-0.10428169369697571,0.27637314796447754,0.18730731308460236,-0.07902133464813232,-0.10125573724508286,0.018729090690612793,0.28697800636291504,-0.0015963083133101463,0.0007487035472877324,0.01593988761305809,-0.030819613486528397,0.03521060571074486,0.03389386832714081,-0.007583716418594122,0.004266411066055298,0.0028546666726469994,0.025147149339318275,-0.1748514622449875,-0.02948792278766632,0.003407933982089162,0.1478518694639206
35,0.3055122494697571,-0.09989988058805466,-0.0634152889251709,0.05841396376490593,0.02457212656736374,-0.21005092561244965,-0.006223960779607296,-0.013429561629891396,0.1619202047586441,0.1499941498041153,-0.272136926651001,-0.03337085247039795,-0.027504360303282738,0.10255151987075806,0.028644826263189316,-0.014934401959180832,-0.019574834033846855,-0.2549882233142853,0.10786701738834381,-0.05896679684519768,-0.15996026992797852,-0.0030344980768859386,-0.12307646870613098,0.0046530961990356445,0.010080861859023571,0.07583527266979218,-0.05188063159584999,-0.03265282139182091,-0.39186474680900574,0.09728118032217026,0.17909376323223114,0.11448651552200317,-0.1939692199230194,0.0069285123609006405,-0.26243874430656433,-0.2026488184928894,0.22114063799381256,-0.08311577886343002,0.2699439823627472,-0.024497292935848236,0.28425055742263794,-0.001164593966677785,0.13502348959445953,0.3807012140750885,-0.06663531064987183,0.39787742495536804,-0.048823826014995575,0.4136636555194855,-0.2249704748392105,0.2257242351770401,-0.23968032002449036,-0.027333533391356468,-0.17344871163368225,0.3727153539657593,-0.016378434374928474,0.1287718117237091,0.3562057614326477,0.011952461674809456,-0.019617443904280663,-0.14797237515449524,0.025540923699736595,-0.003130921395495534,0.033285994082689285,0.05119823291897774,-0.06954505294561386,-0.27448663115501404,0.14460471272468567,-0.3096907138824463,0.23545821011066437,0.12854959070682526,-0.19911034405231476,0.02664543129503727,0.3838140070438385,0.254753053188324,-0.35231828689575195,-0.29858866333961487,0.04170021042227745,-0.022547056898474693,-0.07676877081394196,0.027099644765257835,0.015055124647915363,0.036045774817466736,-0.04975390061736107,0.010014253668487072,-0.1870189607143402,0.2418358325958252,-0.014904452487826347,0.09269338846206665,-0.1726696491241455,-0.061702389270067215,0.03445865958929062,-0.23696398735046387,0.01667327806353569,0.38300830125808716,-0.175369992852211,0.0065427739173173904,-0.35541146993637085,-0.009320627897977829,-0.08343823999166489,-0.04677959531545639,-0.03335673734545708,-0.0007992131868377328,-0.02113102748990059,0.08008980751037598,0.12679456174373627,-0.0054748570546507835,-0.26820141077041626,-0.06831730157136917,0.34300947189331055,0.28702312707901,-0.0625026747584343,-0.10625408589839935,-0.02020367980003357,0.34207332134246826,-0.01773943193256855,0.0985310822725296,-0.0033009054604917765,0.05848599970340729,-0.012009221129119396,-0.011463327333331108,-0.017649363726377487,0.011936873197555542,-0.003467542352154851,-0.01857518032193184,-0.20061442255973816,0.028523314744234085,-0.02749685011804104,0.23987248539924622
